{"biases":[[[-3.083527701510811],[-2.973972847886358],[-46.626326347453755],[-2.2632757938936168],[-67.97906174044897],[55.91971931302602],[-3.489702414506293],[-46.95392781357216],[-2.2582840454393764],[43.90021871257695],[252.7753560352502],[8.650897703208198],[-14.403577088962788],[-72.808280377117],[134.16107537135827],[-0.6984518681962825],[91.32709525601075],[-100.63249244603331],[-3.4096529101895148],[-50.1151277818963],[-45.9177322778129],[-28.557066387294995],[-24.343365904249715],[-26.060010865048724],[53.34011381460131],[102.33071318107271],[-3.170639222702893],[-40.10678914869052],[-88.10792192284259],[46.3619269322843],[-14.311731388662592],[-2.5957688574510525],[113.77828450097864],[-40.22024952399716],[-101.3262170855606],[-5.935913981367056],[-91.55625484981037],[-45.22550747579039],[-216.1484020637486],[-71.28789553390143],[30.25567617659401],[213.6795967942772],[-17.311850223404516],[-18.092601358555953],[78.31926928743849],[35.162992657596],[-77.74512381752214],[-96.73608255545446],[13.300053670386845],[110.72245430501583],[-3.2889949109088437],[-3.475959348853857],[-45.18076564417175],[-25.175367919725552],[-219.19201568270012],[-2.5544130770992894],[-20.328707525148275],[-10.433906812237131],[-105.2435709901766],[-17.814569377465695],[-2.5385171775841244],[42.04756786966786],[261.74088475412117],[105.3468224732545]],[[1.0239629109995272],[-3.0251104284374897],[-6.316081156399362],[2.0239761100800995],[-2.319556921139458],[-1.0082505665273442],[5.728960895482834],[-0.9696012805603503],[9.013783973628627],[-1.6540545748886977],[-0.39306491606839056],[2.88022236740299],[1.7518727616172887],[-1.6517688943967634],[-6.459592826705383],[9.605103363269457],[1.5981685203128206],[5.710154548866848],[-1.0805690339808633],[2.0349721424806755],[-12.699546020451832],[2.740386275258011],[0.5231418449037762],[-1.7893599316150832],[7.370643962795612],[-10.797640817312958],[-0.7155627522525488],[2.204686235241471],[2.8503674822102085],[1.147677089419391],[-0.46166517200259916],[-3.660574918034646],[-0.9857048777408355],[0.1140633858000652],[1.8254793009525347],[-1.995028386911105],[-0.8194831381944837],[-0.4419901675981609],[1.847077521161363],[4.975500866978763],[-1.9919190300063483],[9.899366928672885],[0.7149643087445431],[4.649269283890667],[-0.7001066227867784],[-0.9357447459687517],[5.098612696774553],[-0.2758539710040997],[-4.118951007188705],[-1.2283410936491477],[-2.9246851471116657],[-0.8284155253939451],[1.3579459123470619],[-0.7576940678995817],[1.338183494770933],[-3.569146109045092],[0.0749996499502242],[-0.10297903519591924],[5.7829064065916125],[-5.272676113750992],[-2.988657243358011],[2.792877879694358],[7.39999669915908],[2.3539495629352993]],[[-2.629928953411144],[2.6131451422372747]]],"weights":[[[-0.8074452512445564,-1.3336468372336232,-1.8360241673335738,-2.3184818336328137,-1.357517361039788,-1.5957310225268786,-1.1146827746825954,-1.1943971335011403,-1.3770080246729666,-1.47369113939245,-0.4367415801534719,-1.2544259404489093,-0.510455683322312,-2.0449745965212105,-1.8181428059323295,0.4993028593892684],[-1.8669658995597331,-0.04334902584485317,-0.9682203995813554,0.6044928115851546,-1.023822419198501,-1.748403695056014,-0.5858058653734857,-0.6723532029666204,-1.7896754428967914,-1.3832107749678468,-1.7936752362409962,-0.3787770210611201,-1.0724789333839577,-1.8257303332198485,-0.9826160553407334,-0.12796698551019697],[64.61109275740186,-54.51649804968062,-147.46538691041528,261.43234734547804,169.96767108518688,-135.88047911077692,76.77823191282737,-137.0044658030133,-135.14836138510864,-44.91205909821328,101.41608411446273,74.73428876785296,209.4265912541628,-92.02794207262006,-244.06927831012885,292.6952550582513],[-0.7246688980050051,-0.434443843043817,-1.5653158033558312,-1.7256463235514785,-0.8517407030986764,-1.4431421884692885,-2.32545441733483,-1.5235487597002333,-0.599152660065256,-1.846092028967071,-0.9919499927389273,-1.2881960071193335,-1.5217766655550036,-0.944014202275627,-1.8575650863226034,0.23206021269295526],[-67.86795706657423,-120.3504170687613,77.70440603781599,70.25306513088202,-77.05085804529818,70.4162139811259,-70.5327949574018,99.70194879821328,146.53166283995992,-19.45045333579945,-94.42328068009735,-88.73127019800926,26.535781553752063,246.56645825693477,-170.13236110656464,46.42911280958429],[46.54268926548257,-256.1067492332844,-57.212634443865554,74.44132854391712,203.65237156824114,-20.920394544752398,-56.6103621872449,-56.09229931944791,-123.62431787290008,103.19203271718531,-148.69325851050127,113.8463585149485,102.69372607542697,-29.165710709292977,-19.958232117744952,-145.04829577784778],[-2.2093384827787395,-0.1552130037117862,-1.021309130530985,-0.5611874238967938,-0.7978929672405138,-0.6451258743316177,-1.9011449563319975,-1.0356425480883793,-0.9510369352874292,-1.025312796166449,-2.1485418605420405,-1.0031996846410598,-1.232638076292596,-1.4676227965380133,-1.0021321528609526,-0.4011936321041047],[-107.21926070124077,-164.98725101930862,-79.22074108302368,97.08199649477795,-86.19617755890198,-42.57609983457067,-16.07517432265722,-86.69177624140194,42.20616091543936,41.5211944842468,36.46286675624692,10.305378845331672,80.6698230263168,77.14965802410532,75.8129739315378,85.76916179171548],[-0.41993678560303327,-1.6583351171161502,-1.3233168811393428,-0.20171550408947242,-0.3291710009694317,-1.5834050174811902,-1.9289555061298673,-1.304472393663902,-1.5900689963772974,-1.9660166437216364,-1.1534242403560593,-0.784240520797844,-1.8073792659372108,-1.0489994751322398,-1.4167362349671122,-0.47887427023058954],[-25.151218279916122,29.79871919447683,14.513396646712103,-209.00293188302064,65.12756871612058,201.19553144825116,-34.45877954293621,76.68519892452228,10.41051763869683,-27.038092407414144,126.17560839403431,-60.05923330018803,-57.16750456873377,153.81683095260473,-14.626469151287463,-188.52378029357726],[-82.61325674019065,3.0980269886758385,1.3955616998486124,55.43738411663177,-258.9670754574639,-272.73174004676054,-237.89296112585885,165.311873181616,157.466905921213,-219.1190001043435,-180.45532743061293,-241.9286963640829,-119.07339576492386,650.5667537418091,-8.217723212974548,25.87792822927867],[-15.27199098610589,6.920166877664764,-4.9911854361685535,-31.576890345971087,0.6782953595405212,0.8684405322013835,8.280213319057063,2.2359012911155434,2.9288268277964735,0.6014591978845135,-0.5547386256014025,4.591344211254421,-3.376263889345862,6.541645009142723,-1.7867922749647691,-1.6126076715672106],[-30.786144462803467,-141.6097628145128,-108.11630572094111,-19.351122006859217,0.3704735032305747,-246.96268931375877,-223.482997031292,-77.60401399554912,288.45045346362224,-9.811649578551542,145.37939603413076,188.36509242309154,91.6324260234211,7.142422270429059,254.49692701074102,286.7001706760234],[16.87820495941051,117.56468330534095,-24.91685053762269,137.82069940937342,-56.98487833833011,224.138320007286,212.44852906661382,36.0956293227174,236.2975570259813,54.269758524128086,-217.83339976472885,-132.15414012448306,-190.15679101705945,-58.08504513149707,-114.88821538100589,-138.14671580186976],[286.3222553349341,-5.842001087406933,5.8028319849692735,-27.29667808208156,-89.41362083001268,-169.19733216753178,-88.69757203051968,63.49111973758916,-21.410152982449542,169.3996519089247,-121.70308737394086,-246.37201959822747,172.83632289360048,-353.22702775029677,-49.65141113020171,36.38838790810343],[-75.2564434419171,-26.30795589739175,11.111131840776622,-53.89946486999317,-28.796288089404364,-64.25064827430663,6.210175531404007,7.306330969487802,235.22163027121712,157.86571481990788,-120.61658263535637,66.6544650159739,154.00922883378357,11.218302048804384,-99.83850421143592,-63.18356276865636],[-7.887158615042334,-224.2698304579889,-50.74365859081188,37.10220936624605,-47.856283581191036,101.67917263082198,153.48190733357768,125.62262673475239,-17.831391678333215,-37.527592661417046,-155.23197286000604,-100.41451119138016,52.62383641342224,107.06880113133415,-157.24274328337307,16.081685351817438],[51.71977666534015,-11.27703687203231,-21.359608227716386,146.3751984438383,-167.2099072772557,51.6336526732556,13.556910277291475,-130.03680726704997,81.35726002277801,-123.19437860188283,264.88163864568804,138.29004597420274,52.90622561965822,2.151241008257786,-54.31359776421652,63.330635245515566],[-0.28766358175902296,-0.36148106982303635,-2.091487433201361,-1.0096069384484805,-1.703994022463038,-1.7458131325267008,-1.182262383904029,-2.035101234872556,-0.011996946128938302,-0.6496304333454544,-1.2278208604542766,-1.413257546330221,-0.22289076001799613,-0.7534201582613311,-2.1345853346776216,-0.5013252645293927],[-32.94923481796612,-3.8592958848183643,90.6026191132182,17.78814441911393,-67.47149954591092,-193.45765480067845,203.55125712780784,175.1116025144446,-161.63435367178184,-131.84867048794504,-127.19169770645303,158.90731438905922,-43.62209685739579,235.0089466588754,64.57547655863823,13.160492011807406],[-31.154601911685376,3.744231241768825,22.881366751109177,32.4625514950263,181.516648909883,91.34442284208957,-127.49703198434804,-186.45746183112158,13.842569413445224,-75.0939082511008,45.10536976685242,-232.18244108349805,54.469188899050394,136.77454503281893,202.00598259466045,-36.986088410894496],[37.988726374173005,6.662712034623774,-51.86278019831073,201.7679448099354,81.6948800073884,-16.48961856266241,132.8321734114517,-50.96366252553153,-193.43144508983863,-33.68484483500419,-0.12404420000913469,-111.81233482555889,175.55479078139678,16.694571160912997,-190.95988358151203,-4.884651692957215],[-75.6271018403433,10.143442336198929,-79.94218926077599,-199.2792376369738,-56.137591487782004,79.52392496879668,25.604122619757664,11.13748315460405,34.38723821888237,-21.277239566612252,-31.39443880735354,126.77304746405694,25.4330115874095,-5.87882288474321,-52.72730637431217,6.087538993392707],[-6.467812523142214,73.07387951653328,-12.089826652240472,-138.7232020576163,211.2012760771018,4.241778701205643,76.72777273836468,121.99455379920256,-51.47460423221084,93.65946657128057,-24.33705991369028,-36.255410142663756,-1.8779041690051765,10.539241234315032,-151.63190334063862,99.44694652900733],[-5.221968213188926,-115.87376132789385,-121.12171771842462,19.428184444448814,91.85027788276089,-79.76597665186551,298.6404101502131,-22.179728356578188,-94.48766214020462,-6.116583430841082,-581.6620515491762,130.75924390468282,191.13577271174302,115.36034040666964,181.53278568920368,133.4248351440949],[33.678894941228485,-296.3375211426696,-189.51730960163917,164.22802927190165,245.4978534877826,1.1349570211996058,138.36802867598473,-144.82852201951485,33.269099899359986,-316.80849007600386,-128.76160493002774,249.67885945794302,-16.723422342769503,335.43538140509526,-83.57741720572382,148.01583776279065],[-1.1966214515135074,-0.7477931268490551,-1.3921518250910365,-2.226409474840264,-0.43955607078460296,-1.9208184380154498,-1.3017306927080556,-1.7034657539824385,-1.4372206415145365,-1.702874283145919,-2.455981207000781,-1.8181757579921238,-0.9558590666025768,-0.6839445717667471,-1.1066139322189665,-0.714904026723853],[43.0335139112899,-141.30910807500558,9.042838855094068,-51.74138923517146,-32.36970990648894,-154.52362650163715,132.70438448208972,-213.46918562396544,119.42711995567556,-218.00449291961297,391.06364170628547,260.2390732922401,-40.04487804973942,44.60663447328259,-56.692966825427284,22.054257343137262],[-90.57789474279596,2.634038397287992,118.24357879878201,-211.52324518061343,132.2710114846548,-50.7020130475239,133.735099236267,-50.91659290242539,87.6237194945742,-69.16241449970984,-179.06381292070066,-86.79672367300739,101.49812124512886,166.95303311235213,-63.47767769242008,-90.42753372896046],[-1.2112807545373343,-127.02486563399661,-22.55424013907301,31.058413810757994,-161.50630441853062,-78.25048503338876,148.71909906180744,79.37502767509125,125.51503094926602,-89.40780748761044,-101.12065033474721,147.7365871291961,-45.96974059829161,-263.39887282806035,257.3227582936102,-14.807278888896077],[-129.69755628052317,100.14059988351322,88.08110073582937,-86.64975835375661,-157.05653071662692,121.43458883890912,225.81196177330898,-63.456797719398544,43.52674257178176,68.85500258969117,-129.19604696219795,-18.815162194044554,85.98086993045882,3.644361796308452,-85.26561790378028,185.64000240002872],[-1.0582925764184261,-1.1226012683993105,-0.988344999901372,-1.5215555100816405,-1.121403769491028,-0.26068703847373714,-0.4853930934083759,-2.081655523693453,-1.1199416973159428,-0.31511444741589545,-0.6170813459269345,-1.3796680011748637,-0.3442243543047907,-1.5295546427264455,-1.0626828273659423,-0.14346723728923635],[-97.0399712836388,-233.09485242977138,-74.35556203284489,146.92550427042482,-185.48150169186655,27.56408679361121,191.8468042343401,-47.96694528378189,15.967164678020138,32.270271881305376,74.65077906006991,161.50773087123034,-23.97335517531565,-161.15952105934576,-114.09708357829138,72.17584048337237],[7.439698905239165,-7.220036529560337,3.0393378489177683,-72.53714771019052,-116.69297411933199,-183.7613749694066,19.286906855071837,-38.05375863819383,-16.09035372281677,66.77869573433833,181.41417763941038,48.6834513702436,24.6730509592462,-36.129880830594125,122.44650627254634,-16.638895025571056],[-142.77588660297351,94.41702479942695,146.72123993649745,102.33305580960875,9.830473887931577,23.729088937988156,28.136051721633333,62.629051324195274,14.3551734755993,-43.42344103738259,77.1473915430065,-12.879800478801977,35.27063609204202,-138.3835334343113,169.6255685865897,-158.79502883595282],[-23.820973699267693,16.627022522482076,39.43580962648411,253.7357259923425,457.701014437962,-87.84072048465943,194.35389681404249,-53.8060830633636,-102.74264850442688,-96.4210420628233,-134.54207307925162,-154.3855691216419,-201.13141007489557,71.13305370092144,-52.25596247935482,-66.98765777744796],[-34.28426637601972,17.76521709552369,36.82512243823805,367.4341547216453,-115.82147509935524,47.04099982372158,113.42195122860753,27.76969075125014,70.57510823791299,99.2810232078766,-76.95971628794089,-18.347458184705076,-32.6910334957284,-10.513162003970923,-159.2760451013814,64.00280382850477],[-62.26576394613295,144.94774917767688,-202.44329817673832,271.18679600489605,7.409777040683812,33.756883882987054,72.9985639539861,26.964117783941617,-53.73887538987988,-35.25746978981701,60.56381026358523,-50.84457733044519,-20.266766163763595,21.125712577289285,-60.57277604684723,-26.998252936137774],[-102.88285687129293,73.07959975468746,77.61851399516353,9.381920317258615,-105.76198110319373,27.66044102537334,86.18627649639664,-59.81453393862831,-123.14727401918803,-107.03870522666352,127.57444703458519,124.56983791150729,121.39844026604388,68.3499023720003,64.64023561070715,138.3741043822349],[-268.3814305436982,-113.45878138795791,-88.52639014221182,353.5290902167339,103.9901552048834,-146.3172079791304,208.52341679951797,14.352908569771825,-60.1622526933484,-128.88863203653762,91.50319911074749,31.909562141023677,9.174087134960393,71.15086449976395,145.75171698353046,-3.708523266712439],[29.704871502267206,8.676464606631983,-17.95976516171574,-161.87842269327905,-136.07018112701556,-144.1207961985339,-125.05649405570115,69.66992055417602,-35.65861916087085,184.80686475642338,-46.61575304807695,261.6785401834962,115.31239742787157,8.305968301734968,180.62712611613748,-95.26741452938036],[-144.55248749754742,29.4028090042027,52.321916184364134,91.6258497918215,399.5898414963053,21.250370196296124,-237.63890992493165,-11.630857620734291,-147.14066094890694,-125.50667206949258,-356.34916589885114,-143.99080818922855,123.61005892608199,147.75349160304086,-243.57041346880968,-76.87570916204437],[-17.10112921470174,-56.84378653458883,-12.633428501946169,-39.52606600418931,-11.731585932434408,-13.089537530920898,69.26534085479834,4.033124146501794,162.77268806241483,21.256806277923037,28.074659897468333,-73.04138670069182,-23.602455808285452,17.7681434464793,-46.18955668531394,34.812729444329634],[-4.168030758271624,-12.779635835835931,-16.732915859728717,16.330686717981322,-5.2052522559015415,30.60513873783525,-75.1805891101931,-96.27301256930772,86.4357020416569,-11.347099756132492,-45.73749347966747,100.1279312662074,-80.86956358815961,97.15823087067645,32.345875014330296,10.43805437285706],[-48.2696293569716,-7.751173490992123,0.4201863820828574,-145.71499666330885,0.49131638241974634,-30.995064627987706,-89.08951206483842,-4.648149914334962,-38.57275914645011,-18.389323549028983,-24.81619962404236,46.838505646679664,-89.82274276951975,103.6957504323686,47.67968818780007,4.183109795368883],[18.993183537776133,-36.79991718628793,16.600788547932034,-33.2969378348764,41.450239389020226,33.479080765648575,-100.29360649227213,10.596499499788258,44.95538626562054,15.883447179680134,34.04900583797116,42.74095656860438,-29.538185652940594,2.3747571258978724,-54.671148300468374,-2.709228483872291],[55.07869649947143,176.4959799457051,122.41875102556513,64.44609521584502,-108.19644911041131,-180.75584574750985,48.21770844545977,86.4441181190596,-61.591823963094576,-41.07557690502168,-105.4314217943334,110.46855960373068,114.52855589496097,33.060469528252526,-47.632482252164465,103.42342299038363],[45.514923346335316,-14.823625782600464,-21.291712706756144,213.4409751860608,-134.5549098191477,49.385183021434614,-118.53592970879286,110.6288294044668,-8.947831720473527,186.03289330360016,-220.35719958465847,-276.37967417163287,241.62112248575576,147.80756160838163,122.39552123780622,-134.11467743966554],[34.44048637058134,98.47617917188363,-32.549756099683414,-47.44346283065048,190.75000311106788,172.13692673261693,104.46151456677336,-57.18702902774685,-85.64592439111809,8.76665482868763,-75.81705912264702,66.63125999715871,73.39785592123879,-416.7807689817814,19.42494345724455,8.610398366082602],[-52.267296039802176,-0.5117249681961875,-6.196537841638963,-129.44712207633535,112.5981560476094,-34.917497617216675,-69.09359165956967,42.04478521098877,18.15774425894032,-13.107736632731829,-37.72282356264756,23.69422355327114,-148.5366848939733,43.78294584201769,-112.56675767833966,-13.831493933328737],[-0.4280675951610682,-0.5503174347777358,-2.23362430229912,-1.666601640157517,-0.416484894737696,-1.1902467296728663,-1.2442333505021352,-1.5465009534877645,-1.683265576276692,-1.8309096776221678,-0.5189515775285858,-1.9882520254639626,-1.4278425636338816,-0.6869412216695259,-1.6226627481063294,0.4071250047079635],[0.46884037356891073,-0.4169665781406194,-0.6491837784938784,-2.5669174188389103,-0.16624784601664014,-0.7251710489731633,-2.2563588947727835,-1.4381739200302537,-0.6468350925143012,-2.537416607606594,-1.547519836392442,-0.7411351803183274,-2.0614876861804876,-0.4028343327675233,-3.3237158525161483,0.09276114979358038],[101.34022041954672,61.77107708682048,-136.914232486782,6.19200693899802,222.86960929115213,-35.06357273085497,-113.60409817667319,6.903645506834062,50.52213527820959,-100.92705622426902,-59.293837023832396,-58.177364058204255,164.8298321891822,-38.536660823506736,169.36691733813882,105.4005252845378],[52.87034584509269,289.6222500537782,82.84493643484228,-242.7598197587979,-72.56678363483853,148.0438858198032,7.424637669499341,88.41189553799688,-135.28045274781977,-185.98256839325236,-167.60767572401687,140.75996533474913,88.84043413614947,8.584089952319239,-10.34472680151092,-36.378092646904044],[-154.90851073082422,-47.228634087844206,48.861261713213025,41.879712139584996,149.08069929496244,229.83039793763024,-159.12038527375418,153.12775036425685,167.88390809502758,-103.11345266460152,69.49046765409233,106.7747025156806,82.64842160876334,40.29993575607893,-33.796328807271784,-48.49089713158999],[-0.9061307091022344,-1.4205242215739378,-1.051611987935766,-1.1028932273577474,-1.0442176380683135,-1.8408090680891571,-1.3498363776492435,-1.1992509681147634,-1.7267742777801682,-0.917550497683985,-1.7054101188610278,-1.6889270466241237,-0.9932400356426049,-1.5019874083595324,-1.1011459156751373,-0.03344386590477309],[24.082323985631973,-60.18730572477818,-14.339354469299375,97.54124967316064,224.73958460897902,58.810353874045944,-25.785584892729716,-408.15638366415703,255.37996941335223,59.06542123605122,-277.994905865557,119.26593052540701,141.05122331979265,233.08532086691335,-387.99182470496356,-93.42203306909846],[-46.97740687160654,115.60879879000365,47.52449208299171,86.55934063220614,31.443973980562458,-5.104278092957625,-125.91398908862412,60.1583277949489,-72.60395365471634,-5.380480280467099,-100.47902983270478,-68.20755389699659,146.57430803461318,-0.8399682342218815,117.79970820188002,-175.94458792421904],[26.017604191423104,37.91792387685941,-23.14177396770458,-7.19091467997532,-35.21287401058637,18.49984421587336,-271.7665453156341,-87.94323058422513,198.0556334036603,151.2749029277442,-130.52540516542476,163.57997063342697,-126.40752076915685,198.95159359727344,52.3912810532083,-9.111958826080738],[-27.448623901434857,-9.403989474324476,4.352246365843258,25.028549580463523,25.436716620759867,-22.030078665972777,23.788660921056646,-22.191127005590843,-8.112071919308404,9.938959588532192,-13.420474428682537,4.588523982717697,-4.129177151521384,8.642564850931487,-12.478686460552204,-36.244798242637835],[-1.0001909684807875,-0.4313644225927753,-1.5053354992560877,-2.1125304492434704,-1.27487446617055,-1.1033168461145575,-0.618561692213607,-1.3720988662779523,-1.4179391510725348,-0.7743195731188955,-1.0705618899817957,-0.38974647425380293,-1.5428613631368127,-1.3581392134647403,-1.5731882900258756,0.6133323436946274],[165.88669335076003,-34.09332762356986,6.605871683037439,-48.67925011264856,-55.10926080533724,-39.8631369543787,-2.3734481228417965,55.62386256247106,-8.233754272348506,-97.00085821567993,-26.74325486670681,157.28964047494264,-187.86445089772857,52.89866582237884,12.823952776500075,111.5860349765816],[13.55681084528298,7.436360330608018,13.924276731484438,-37.35572036711147,-268.68065446491596,31.758981907043903,-345.35927237586003,-123.87547249758607,-268.6534180117034,485.9032012677091,149.24398410574034,-366.44994242307797,-329.99647731571616,65.60571017275866,421.52812393241544,-4.22132166371029],[-50.01556829686678,-27.69299746522814,-8.972368919455297,7.350542596316171,-145.80475376232826,-229.57750495441917,-17.0348526853915,182.40319183412214,122.34313398193044,158.55932263576548,-94.46455899376382,29.42670371696311,-118.86450379124568,-103.17645429627834,32.02213564469521,-21.78965054156913]],[[-1.0876191839288076,0.4781174725790559,0.2806486512219259,-0.08698557424538626,0.7972000837850711,-1.0798226629572825,-0.7807719085134459,-1.0259927613650954,0.21050514708522947,1.230863202015449,-0.6934120085031102,0.7311976735115114,1.4466924793885398,0.6299473890093398,-0.27578778259752756,0.7683103330535507,-0.3155178000535377,0.3182225348643406,0.7804038022449005,0.30781176494343904,-0.36268891338983195,0.6593372322019567,0.6625598230250942,0.45428719805622336,-0.04921430680269188,0.17731904898517023,-0.2853282305823407,-0.21117258246903353,0.6125736133155544,0.2941480483577701,-1.0034723464854542,-0.08149542594669065,0.860374318757925,1.0866484591120498,1.4520396958803852,1.1666630210367466,-0.23951890294407335,0.6947820910733954,0.8626651971897563,0.743911953850638,0.33114164179610595,-0.7579062651945966,-0.25356829648498674,-0.33248152174932905,0.8959066685984317,-0.4770100865840515,0.6490757663386911,-0.040435054113516576,1.1780935714533598,-0.3058537356349442,0.8067809475617838,0.4997137491366389,-0.3409906381681965,-0.4846020451018442,0.526400099388696,-0.557265764590774,0.5767529953865478,0.20316525702364016,0.752935746616162,-0.19413361542497098,-0.9837621515234698,0.3627528607944324,0.5129284004520154,0.22436869060369038],[-0.6681810826439414,-0.922607232835049,-11.339097676531885,-1.1018043006843752,9.466701998199992,1.8644830776292003,-0.9300275143593901,2.3094430696964268,0.8018686239330723,-10.377515298062391,6.520223284127723,0.14357779231847392,-4.0169576003697935,-0.7270179353353341,-1.1217994874110147,0.4079595804496472,-6.129735856742559,-5.329870267327199,0.30312965909765494,-19.19221150525621,12.921154808551833,-1.4129285111035836,6.040918022073277,-2.4459181421218203,-4.268695982615733,6.711074094455608,-0.3078103965982184,-19.468350560261687,-10.428432111809512,0.37414709616139785,3.696575185553738,-0.8641464581859137,7.924849753662798,11.332606261133678,0.07630770363452093,2.507898650588008,-3.5929265776476407,3.7964423629459674,-11.925129640640227,8.86332229292308,-0.9123076982622081,5.963624449810039,-9.786618560524115,6.666304352817385,-0.46530145308674714,-6.082718656321555,10.004466938796245,-6.280847260837661,-2.069810169203752,9.019489227587016,-1.7288500228892913,-0.09543593380284644,-0.20412987801867963,3.272438990486507,6.9588075663196465,-0.5544162402058922,-5.642268528594054,1.6537060087343078,2.223845688523429,1.2441645373649644,-1.277084283352946,0.06992741736476157,10.76069441760154,1.8846077329480062],[0.913513139035265,0.6421199359241536,9.349807655332288,-0.6908700720705402,-3.4424761851253476,-16.621214127519874,0.1700766275574171,12.533585692618917,-0.4401599855815,4.65087459055222,-4.5225446775655636,-0.700794771577394,3.1013029413117517,22.45170859714948,5.833173239661029,-1.2626022363590996,6.185358939608811,-22.02266140193637,0.4140424520139106,-0.29020592041398363,9.433521880844498,-16.419616929320096,-2.260808417714113,3.4746572959062303,1.048633375975549,-1.1824816292960514,1.0455246444444242,9.189572965903317,-4.947312490572027,10.934198137178823,-3.5429304471040215,-0.6257459811916969,-1.530877591251569,-2.253032103278233,3.727319094853118,34.069008707314794,-1.0187401129868987,-11.176372890682266,12.915938362680334,-11.008267474223162,-15.598793840576633,4.863880156815194,2.722183675993704,-3.261786445547378,2.706252684734637,-1.7647157927983304,8.633239692749704,1.2121807380307463,-4.265738272900363,-0.8886983995561664,-0.04020730664722429,-0.37817836985945535,-3.278949910326071,-8.775991881653212,-13.372105827168594,-0.5665821919523926,-4.30156906018074,-1.0528333978276063,8.36253927599628,-1.1833105313763699,-0.8552741383007483,-2.012713027049052,-16.22930122525743,2.0618561600750294],[0.06581920388648327,0.625949213793299,5.037296320578481,-0.4233933937816207,2.0298796126510696,-1.7490411581254364,0.04191027069514185,0.8065074396654459,0.0353054197369866,-14.583658574877532,-7.638308166508254,-0.1864389050901704,-5.787229549338367,5.902723474330682,-7.126306856242898,-5.645696459355098,-1.197095478808861,2.1315231470440366,0.8507022187385507,2.59810712626494,-17.12116622480677,-0.06902924599151701,-0.9382539875427076,9.114331707541282,-3.5898708641975214,-16.985637871982792,0.4271728704245176,5.530725809074576,13.392111992995515,14.799870724832841,18.871391634589834,0.2378724176200522,5.052241789109462,14.855230334057003,6.674586781950455,19.931249581401072,-1.648675494589276,-12.01732190857031,-5.915476641100775,-13.861883100018188,-9.28904784508753,3.714912237174579,0.6616452032787812,-2.4345478328931622,-3.119805671720664,4.299117741823346,-0.9270491512003486,3.5788998215701096,5.01732750040924,11.943203660861922,-0.6795069671107096,-1.0396837575266797,-1.4858174527985994,1.7014694476074588,-1.431397494749883,0.3212977552702895,-2.0612571732100484,-12.068563374035026,-2.7899324876082487,1.3855172780190064,-0.24799029363925382,-0.29819865264806494,-4.789259332582162,3.5382936582908364],[-0.36866984899458927,0.9486699746514895,-16.26569082725307,-0.5149082717037377,11.537620159043087,-16.93126024451421,-0.7600722341662198,-9.23849565949826,0.8511048258335089,-5.434271778683535,9.763191552464356,0.2974893494917878,13.242404820734812,-2.082214299028794,-8.293470259885735,-8.842712016931085,-8.911912833416183,-9.452576601802356,-0.9824433063125062,-5.651889854705112,-7.623552273329017,11.047656872889542,9.509180080608365,-13.6629793906478,8.929921045916206,12.635869299143755,0.22368053835766433,-4.338351936350207,4.21236599768483,6.589301971756701,-14.569390804995587,-0.12407713417677498,15.719289646800686,13.809563318201484,0.45487432486544627,7.298006358911752,1.4717463966667899,-17.470172010812746,-3.1207775290272664,21.871366668123944,-2.7019916489674363,4.376311776470311,-0.26910363311843577,-1.7600276565154707,-2.110594440890994,-6.676409966028823,-8.174586342344314,1.8171087412478664,18.15620428404665,12.003709918716998,-0.863498183998608,-0.3659650920356352,18.40305817936963,2.792539301473841,4.784978810993452,0.9460284484309888,-2.6682233202532726,-9.748402050531492,11.233013834821737,-3.573956239820654,-0.2516599096110318,-1.9054775560789203,13.579760644068397,-1.8893151900947505],[0.5686150436177386,-0.5313543865185248,-0.564250357622377,0.15358505516141835,-0.7218032519140868,-0.3086952652923353,-0.3519905590742099,-0.40219414543638815,-0.39777718500622083,0.545348453780416,-0.7363935701696653,-0.695068735566318,-0.9889175144116696,0.11148151279882455,0.22907398996979744,-0.2030065999159544,0.16623724909399995,0.9521937861027081,-0.8454054034240069,-1.0579262758960541,-0.043547992450884226,-0.543144840971452,-0.8345893422754678,-0.7487073361673947,-0.1804230765649048,0.4281052321027044,-0.10694501267089246,0.39506022386353856,0.15644121314858883,0.020768177103835224,0.34024302415659435,-0.32794984066345517,-0.7616832914738166,-0.29861918871118,-0.6808438923053497,-1.2153162681583844,-1.3634221475928539,-0.11150973887470404,0.8441341055123506,0.43848572605208447,-0.03344730680387666,-0.22780677049659817,0.050154994379592276,0.1251193827452368,0.026500747185749293,-1.3331775652001958,0.03835285282242929,0.5437602522046299,-0.4656853078763322,-0.8072127412433009,0.23600972230986988,-0.17130086285440918,-1.25785815739945,-0.353606486295503,-0.4079861835127998,0.9243747798479013,-0.759305173018858,-1.0808385719624347,0.6412035052209456,-0.4700603051518586,0.5454317568498968,-0.5118969456725924,0.995016367445545,0.7689217267971415],[-0.36559645224027854,0.34370438689423616,-7.519165585972556,-0.22881847893021454,-4.824606610973975,-9.241615637435748,-0.3966998361069605,0.10783054813493884,-0.6336325486947015,-10.05175875738867,-3.2003949717466122,0.7607445480718839,6.860802340633484,-3.177990649059245,-12.348432380759673,-9.249660202608592,6.407832253315742,7.758101048206804,0.5314719967732233,-8.086696472434113,-6.398656324427631,10.17881224460421,12.715001008748656,-6.31968668732183,5.401809598901677,-19.300138679954586,0.564822368710723,3.8237328818372216,-1.1807304011023463,-14.907349391944082,2.4416610187118857,-0.0544423797280565,-11.68440030281644,6.173213432276257,-10.305112705529538,-7.146047417539446,-1.5779829098974316,3.2938874361974033,5.840695518718093,2.582264831605744,8.795218200345541,-3.395344253080509,2.705002733113024,1.7637419903343063,-8.188330634237314,1.2574115879819519,2.219332476119079,1.8155657175163817,12.029580466978524,7.565944269998479,1.270250513230883,1.0072568966548943,-11.107656222216926,10.249948369573556,33.21954270968598,-0.1433182155627767,9.384754392325013,-3.98891418284405,10.163978853514022,0.33946841385234094,0.451711739196863,2.3752775951757723,3.7989587952163877,10.401603172794823],[-0.6972180818240339,0.062196122554875846,-0.8319643427217005,0.7750882774573841,-0.5721404176254005,-0.43434678826676476,0.2869200095524717,0.6934179195363718,-0.4782775864794738,0.4361520666379673,0.5002541486231519,-0.516184191062609,-1.080627882196879,-0.47800570269677234,0.7028489185027755,-0.8714116494802179,-0.5427394875091303,-1.0022579901131814,-0.5157982272527502,0.3291248188156976,-0.6611442988945381,0.3438330215328505,-0.19304118087284727,-0.10894552410435669,0.31498418115771815,0.7936535171204503,0.4783652032838671,-0.9103593741477766,-0.9040000175156968,-0.8003404657096579,-0.34299346535158315,-0.7738283891729213,0.23825950718610586,-0.7745389947899413,-0.36652330844911607,0.5151583519312692,-0.6774004726990044,-0.585382117988147,0.6812068389189038,-0.9212305816798939,-0.9795753716091307,-0.25978251667539926,-0.8156009842015874,-0.6640974327690473,-0.10931984490564639,-0.82824461326975,0.6812896882034563,0.7301255539144843,0.8101134579842811,0.1708658358659496,0.5975311262885087,0.5919644288967632,-0.8796329638495545,-1.184994457612181,0.6056550333214725,-0.5261475754080271,-0.997184889693494,-0.702706649257588,-0.7594326221039748,0.6425581282227133,-0.6524549373715643,-0.9286330689848878,-0.5480625556311757,-0.5050180277399448],[-0.046763919904636124,-0.2006851815569149,-16.230640153347615,0.0539944790773036,-5.664835826396608,6.80500670754492,0.8226081320569913,7.480475445982496,-0.823030462768343,3.761365160296645,7.7979956623470175,-0.04854602073789829,-3.9783225211329003,4.334979436873646,-5.781248978425918,5.286330895576318,-12.573601253444863,-6.579231597662744,0.8585720808809558,4.775630790474207,3.5662511077769317,5.405923482794683,11.700140818866727,-4.781068448567152,-1.8454681923294365,3.8443504157985813,-0.21864791614740564,-19.519579479246616,0.7284139911991231,-7.495027453385862,12.889975836913584,-0.3992012142837633,5.169704207209558,5.192438016257819,15.687059943942662,-17.83122925666248,-20.49010722563877,3.2250831419431134,11.991361035451488,13.030600030281711,8.987203522108011,6.164371499693103,-8.605531917112826,-3.075904866210856,-0.008875462649732269,3.4299034377768867,5.874664158773591,2.6240276438336663,-3.990610999165182,5.740969152891276,-0.5183364061008088,0.705418885886188,-10.549497324862909,8.887583106771064,3.689865159904324,0.6064641453331958,-0.2008899528552748,10.738374421791647,-3.429889181928537,-4.037768553783249,-0.09499165925532871,4.080897608384302,-11.377129432249326,8.19638842732149],[1.1921175882314414,-0.16964679000592187,-10.84710471143559,0.8355198673403189,-20.06228431930124,-10.854447422249457,0.5000394466590958,10.685766908793841,-0.36054083150149585,-10.450858645253637,12.37629585317036,0.5734618696177828,14.467426777043446,23.82421169899778,2.1345136217982135,-4.638622459020302,19.44350014222539,-0.41362150490635696,-0.49725034969024334,1.6818391577138976,-15.342779762491002,-2.468761731766679,9.641741169722014,3.339101434140899,-6.388374419486083,-13.48490254781649,0.4903356314116804,-2.1469644263707646,4.173944140991978,-12.179466567190419,8.821351043874191,-0.20656988451603728,-10.719816254800051,-5.8129137525411165,22.09833843602806,-6.419677732263557,9.965157116286662,16.463717829109857,-17.72219361326409,-2.2355790186393785,3.397031539965777,8.109836653077217,-2.4224261500391764,5.246674698634447,0.5947219454467616,4.300682106753764,-12.681258295774034,4.446824367245818,1.9168977837949612,6.999933650228873,-0.44300111239656803,-0.4386417399217051,-8.689260854573325,-4.664023470041417,-4.612744986895529,-0.8756631316507313,-2.5299423701062533,-5.28644512669646,-2.561707235637562,-2.425316811844053,0.7784544717730131,2.9700692195305565,-8.859759025187648,-3.5766660829921357],[-0.3572496774518005,-0.8745957285166303,-0.9844420542865782,-0.6320687495514766,0.0012985162451141946,0.7509588542526823,0.6333381504209292,-0.23198169507651054,-0.16442116802053808,-1.0616984445627045,0.8810837115575407,0.2974932328878333,-1.1706299794582604,-0.0770933971130864,0.38489909281879325,-0.273166002936679,0.3855512995844662,0.4849033287905339,0.17258071218066934,-0.8794951709993495,0.01990419402550513,0.5163360215544036,0.7777779078382824,-0.9020201756805105,0.4501493077739902,-0.9530462614282488,0.7490583238971332,0.5396447131599396,-0.8744720667965298,-0.3134229533035766,-0.5643927843090222,0.39984437082038515,-0.8513649788052554,-0.09348311584878896,0.33113657412472025,-0.33407670773121934,-0.2896145150959565,0.25931102045593646,-0.9072901352281451,0.7150496681470343,0.40281736792436046,-1.0500161099716785,0.6209174517042035,-0.15413233301957077,-0.2297041505103988,-0.6284459337333541,-0.442493987318586,-0.919866649193621,-0.8026666826225234,0.09536219659558996,-0.9584162435982947,-1.1020139823036077,0.08238011926881501,-0.49671681421064406,-0.2625036283280937,0.4397586198822764,-0.8696959076837556,-0.6558807818384736,-0.9522435844928788,0.3767328012906782,-0.8371052206379949,-0.8073929013595433,-0.6961253194919925,0.7045333339717659],[-0.9732483701269439,-0.1978962952295468,4.816120700716307,-0.09923841417410001,-14.260638873133697,5.391500069263751,-0.3176979534781691,6.586404343794624,0.730013637641675,-4.768387338463521,-9.369951066338338,-1.0790047938843585,-5.392005106929889,-10.951716959125267,-0.5703444232312382,7.351773264382138,-2.5599652610415955,-4.120958788414718,-0.8227430883053612,12.506307325465869,3.3267526798533225,-1.2958799049817287,-3.5947457623392736,3.436293220426694,-3.0803494441536676,-4.2651717145714665,0.27411141083578555,-11.832180224929978,22.286424777351048,-6.9903034864157325,-4.455313067741811,-1.0243996636996548,-4.105521678731405,7.822322467081547,9.463064819218323,3.6901774800711427,-7.920168900584153,-5.163071875098151,16.06875401036642,-3.1784828150084943,-9.724057662645126,-22.32205954769699,6.356117164925117,4.414197371124366,2.152245245832673,6.6947313610187535,1.0715960418988086,9.125107027414316,2.8250201317552426,-8.576487668914165,-0.5608541051365179,0.28752442891197566,-2.153765210174142,-5.79506807735271,-15.328501035678483,-0.050243432934631044,2.4986556040359242,-0.4350491100656131,-2.1751194702481733,-4.811251734356513,0.09613950902508919,-0.35712532821338416,10.265360157829098,1.2649557630639006],[-0.17593473839542534,0.6884803506706899,3.2775248400604,0.054593454225892415,-14.049628591093708,13.490841406821996,-0.11966516730000203,-3.4951506145090625,0.3918266470712824,7.200461773526717,-25.55986542201341,-0.2171934145293804,12.0887427742982,-16.589784032394235,-0.12766730636807871,-2.2974091143747004,6.38083137566228,18.54417356324879,-0.8243028322122633,3.4523875491593423,3.536889313916708,8.00143698896708,-1.8131907833187915,-0.5975128577004052,-13.284030211285724,0.5834093601096386,-0.8727400848161966,8.83221400028511,-9.349813171693553,5.526593885927662,-9.781916517741912,-0.8260490711361288,-14.16203392243208,-2.2328412729295564,-2.712768693946278,-1.2306793640509004,2.4425795866926605,-6.965373814936672,-10.60139566784901,3.3916799814816265,11.787477414250008,-7.797668489219179,2.9976026061460908,-3.598556142944671,1.4919632242168919,-1.9291982118841509,-8.83379071565673,9.735465126695358,4.93573186271993,-2.6390507536080245,0.029973743579486397,0.043544224554552216,0.7657751364345244,22.189427848653125,-10.704695153157619,-0.3239594562223599,-2.7316582801159366,-10.043450882734234,4.3225730012628665,0.18498463468898638,0.5889698933878427,8.71527411905052,0.49596821205525554,-5.524068051960537],[0.5211072977052338,0.8895186084281289,2.6045786792501464,-1.1599204830831134,-4.653231956303029,1.9907081111613476,0.03769765895021834,7.844266724643027,0.8731535520781667,3.9622431676746195,-3.7979378240759614,-0.17013669477934049,6.351549339843032,-5.415705491925997,0.6736046633489131,-2.146730852954497,-0.8625364885845166,-0.4113788418561694,0.3890209889139094,1.9776569459138782,5.13319631627262,-14.61781023723391,1.9501123431313352,0.18549099826149257,-7.2798891182522185,-4.63743142520018,0.43833689886464267,-6.850534018456046,-3.0224371853188408,-2.341287782036002,2.733595698302446,-0.2496538235644285,-4.150858139480386,-1.868223124171691,-2.975095303634952,-6.291162733729441,1.9118822094609993,-2.9458979450078253,-0.7913270390885729,-3.886152174368144,2.1770310720051778,1.4868263019341368,7.404072962586994,1.44535646546297,0.2849697443187538,-2.0248963957205612,-2.5010519969289153,2.418516365449766,0.6294012625050954,-0.7467912264738927,-0.5491815996594157,-0.3662091650410249,4.330717333937187,0.3442922640894375,8.018784761525257,0.7830452537789447,15.534889581510084,-1.4466191436450864,6.937534275434551,0.29886187249336077,-0.03350917762699791,-0.7268036497453297,-0.7547147700216259,-2.1249320445409356],[1.0200988071402617,0.4543725167735274,25.162678398781082,-0.5248227935053075,11.690161657271709,-10.607588471837097,0.9788634824496716,14.109663898352432,0.9232832578118729,1.9390742808414334,-1.713137599319838,-0.33376530802444304,26.098146141424444,5.094195378310414,12.51603949185467,-0.4504154868146186,-0.7357024506318837,-3.907582026256151,-0.4751445736854338,4.6678127084679595,-12.574009420906087,-9.488765771344113,2.7667723504484316,-1.715744078838608,-4.2158654767677035,7.5150877492287425,-0.5805621644042882,2.2918375267791897,0.34582510637403036,-15.413883710986743,-6.143626034071383,1.1160224011121203,-8.078849714157194,-3.366532015861818,2.1879383284037695,-10.256669548262506,-6.247562930454383,10.000248804516048,-1.9232726041025778,0.038677163845520016,-11.125067783635327,-15.239441007431612,-3.6174058578603048,1.8095991992853293,13.08486555991329,-8.636494271744228,2.2194422426816316,-1.2825120249606683,13.638165131118408,-1.5599965477476003,1.1945732742936328,1.2745271728410479,-1.9038745291455663,-5.983225961476226,-4.783434919581885,-0.4682944397941499,2.9633735394707394,5.339712451468231,-0.10221088033921265,4.902386945342219,0.5497257920837055,-3.7761741809061333,9.052406539554863,-1.430759273336975],[-0.2248256780403463,0.3656380819798288,-5.693841726843187,-1.0209634988848348,-26.355794603944872,-4.86745975325835,-0.22715784454587964,5.740082910475534,0.9687400471948051,3.1086976124288515,7.637331055989256,-0.3872051757761801,-5.582272723414193,3.7029061844606703,0.48460393763292675,15.100522735009616,19.93271433715866,-11.47621539836513,-0.9098941990725979,-0.753733304673568,-14.81476892838147,6.007349682052279,1.16644825437731,-0.7016171314661894,4.876059213359203,-8.793729490688234,-0.6390328373767247,7.503095267259138,-1.5385086388256701,-3.6365495453397854,-4.846793683253534,-0.7002712826101976,1.7214286072330258,-4.339964010889034,-16.280137305011234,8.43047422830173,23.215878288649684,0.14235173432125092,18.21527750071924,-2.4115030936628368,-2.620642405002378,-0.351069780638135,0.6143129748820491,-1.1595054046766928,0.1199440015427566,4.675144317080176,8.081206728803172,5.095875051473665,-0.11267726336223624,1.2587050209835187,-0.935131020261504,-0.10704752828691586,8.026332448131944,2.368202168080557,-8.244981496504991,0.3416444402084881,-5.826891829836795,-13.060959115829975,-1.212284200596376,-4.962474489290903,-0.8923550406995604,2.812436585102457,-7.044274946865072,-5.619518485279063],[0.6161629622108469,0.6506906065332638,8.365759172495872,0.17192113403251238,-12.632057698876196,2.1991667991438737,0.15726571616799911,9.49441844146361,-0.9821880780210309,-7.6492548893438554,-6.25800040222817,-0.278144454662021,5.744593472707452,-6.369875754336132,19.73679745642396,-4.937397791762968,6.144397311311268,-3.7664032174162045,1.521840634945932,-2.415955968118025,4.935993598712153,-3.7736504420325643,-10.991290059942227,-0.09999755623027208,11.049041438470342,-4.73051190979786,0.7383311682736834,15.504950163541604,1.8319732124754196,5.214750266037037,-2.026683597245,-0.44429398235002254,-7.585169404765968,-14.85020449154223,-29.02139855257701,-10.04498104637014,-5.394466486114197,-23.91481144691215,-5.665803034500834,-5.48082818424118,-13.04767077875698,-5.853063466877931,-0.6362404808162007,2.11233670035112,6.002149586733659,-4.42076940993213,11.56373782997362,-0.2896640207939794,8.159252795335302,-3.0515286233377608,1.8991882497400194,1.836636817363508,0.4759919168319056,18.47321755621338,8.465072367544758,0.815119263177273,7.282496577438009,-0.7367281218161073,4.048080559269581,6.431415906821868,1.907314654743001,1.3206416995288672,13.324823319253706,-5.157245680969165],[-1.0335086138255578,-0.16323444107215926,6.57487835893857,0.49539293463257,-10.41034596817609,1.4471898696867935,0.5991471205135046,12.183962542916246,-0.5294635147726217,-23.103813024224813,-1.2766022597884001,2.133004610063498,8.349274643242403,-9.06893312177137,-5.518768061460564,8.661442069770489,-17.584000694008918,3.4407873115868175,-0.45425483577528736,-9.628356785667368,-21.498018356330558,9.303913224227143,1.3743752343679712,-0.5690726428325941,-11.279254048891799,14.020287568911183,0.22261049285496748,-7.286882375820379,5.980235311956861,21.657743319955326,-2.0153673984348863,-0.7029193773312962,-10.245347383869452,-7.48487599442535,-5.934112618508585,5.733770456616005,-8.718374809316147,-9.694406454133638,3.11582991683572,10.889454388006978,0.5883056716722807,11.574653652664713,-2.5575756651432084,-6.835258385541506,8.11613133979573,1.3834817733231857,6.503938381833765,0.7614392097989438,19.401446578270292,4.742488555695434,-0.0498589061896731,0.4380319902552485,14.45457003153407,5.442489541851916,2.99019732159829,0.5085085482539193,-4.783383095419447,-7.813738127072709,-9.98776717660727,-6.041785240450323,-0.05156386124752201,1.8984825481257892,-11.868360095986496,2.9290660934622776],[-0.5046489209300807,-0.649325485894123,5.123603259360167,-0.5982490155171463,5.919750672541415,-2.254825372783155,-0.6965099070329114,-0.5091228230582906,0.3335006737918947,3.5567888888199657,-13.481296310242335,1.2173050232932412,-3.8770940618061798,1.9337087529550925,-3.072503685017114,0.9991010673732965,-27.46828655420136,2.2518657999322316,0.6722675583620287,-4.564560926781537,-5.180936257558264,6.2599694918538695,-3.05836696039391,-4.448353110460319,13.17950316521548,8.085567645547595,-0.17002762831542897,-8.075143812405397,-2.964698135407465,-2.624933320349219,6.3695198654717196,-1.101736398277151,3.0275737764508746,2.66085432401666,12.43254447056841,16.342725997767726,-0.5178869447281019,-16.20203448850492,1.104827498694876,17.8963956142821,6.104003066379523,-9.864911595988497,4.0576589795706015,2.9974757365744034,-6.856586357895809,-2.0631689559468485,-8.711870032058876,1.547689147903507,3.0838839522260533,1.2825586852105049,-0.6414153764630429,0.5731837330099062,-8.152221519430617,13.732116742453638,-2.208647604205057,-0.9024977837922644,0.47316082868704196,-10.45994258837787,-4.441357289756304,-6.103265568512279,0.6333514362959516,-3.4041386248216186,5.98719957789677,13.515592409091258],[-0.007763500037898004,0.12758476332102034,-15.054721900388948,-0.7830322182275962,-6.03154620047801,-10.045010022132468,-0.2314993205518813,12.828020712891268,-0.8294028163017777,-7.259955833669173,9.94603223717564,-0.641246518715216,8.563443996718338,2.0809625978741577,-1.11635122761684,0.43076383485394076,5.496966923965511,-4.959169237608957,-0.13306135219622298,-4.552309725150357,3.3095179897356166,3.962670870807821,7.401346654668239,-1.5227660881677314,3.0456060367995397,-7.022276631231081,-0.5285028835370876,-2.7205585103200693,11.598580257038629,-1.3970556945966994,-3.6646042336354077,-0.43731047542610474,-6.229610277396052,6.561685334100285,18.260340078303525,6.406748962143259,21.517771470765226,-26.98846285766174,-6.797099544024143,-2.036696432993167,-3.9200454176107407,-9.609366629085743,2.1367848372884652,-3.975513965413709,1.0056166188641542,0.2372122108292409,0.9136061440726861,-8.776790224237429,16.924107477453926,1.4074448367160708,-0.2503554102154937,0.8155181437743884,7.416033955232281,9.394060127597834,-4.758173153320088,0.10358634926773436,0.4277981615286862,7.360952317442451,-3.470398895805316,0.7887874406127486,-0.012878879097505607,2.389037549711975,1.0719821323951957,1.5339515548320029],[-0.47325649345466186,-0.8396286309403943,2.2994976733463255,-0.6715716579192978,0.9959793300064045,-1.1636428072124196,0.009087123107922477,8.061538076558472,0.5956414883575075,6.433706865898765,18.67761464889497,-0.24463314901712135,-12.656947667822951,2.054169520959774,10.30365569217786,1.6592529522784971,-0.07993517667249762,9.557914012259117,0.12628181283055098,7.385322015892567,22.963326471647378,-0.6056034135726893,-5.4044151785610115,-15.758075010636796,-3.6989676130099203,7.944683735448198,0.8514308879700713,14.036044745486711,-14.889033699662896,-4.535657101093595,5.841766477378022,1.0702041601309467,2.0370505011792575,-2.2133498744607025,-1.0861063152592063,1.4373813998403493,-7.209598730983004,13.713609693804843,-5.034668863615067,-0.7178157957600241,-1.7520021570030382,-8.183074229190412,-3.5663623292674957,3.9388234953777226,20.211938135076178,-13.794131814671143,-0.17335958351429434,-5.3163916631667,-5.2302849875329605,-6.41097417721936,-0.8560409435337701,-0.5162797041248444,4.737563125211752,-2.2890213979834,-7.547061948128414,-0.40591061637363707,-3.9794099248445858,19.254867722666717,-2.9666948080908595,0.8073445934715807,-0.05909913984305342,0.36720678559034187,-5.586197368402878,-0.13210097208394267],[-0.8959114280439311,-0.1419177674451793,2.4405208853163214,-0.7461113711068894,4.541815171843213,11.286654969118208,0.9245374821353776,4.8163688469628365,-0.702408960277091,2.305694591385543,-1.0839350391702196,1.092333952086872,-7.143468741832154,-13.283467532611665,14.540438242415409,12.542578399051687,-7.148851571248557,-10.986918477148247,0.16798729908147245,-2.8610405296721955,-13.97142422977876,0.02753500082532485,-0.2956028074309592,3.772658221026332,-3.799647271468389,-16.67075344252741,0.6775261969514106,8.95167437966197,-9.965186265874374,9.936079727273874,3.3714816610073015,-0.7212741668077316,-9.612419764631683,-4.6435468758878535,11.168786150956922,-9.745564442838337,-17.266568281806055,9.67867819077935,0.7038636289206462,-1.018934546735443,3.1142588718821997,3.0066729307281768,-0.5497665265371076,0.9947387739146174,0.9226018718776442,2.675597634808641,-2.202295890869778,-0.6693484224101107,0.5133824412636141,3.0925444989679205,0.7530339636742275,-0.17300264770312884,-6.136888877539021,-8.703772893892676,-4.793895914107792,0.026212078934347804,9.823294907421175,6.99567558166578,8.249472458973852,0.2844227934615657,0.19962494945474496,-1.0899925003020745,1.1006857443839104,3.2799018816122683],[0.20219618553560845,0.31159350621106396,10.715689890176725,1.1012667553686781,-15.501845424521214,6.9874272816515335,1.1707387433089684,-7.055167540097879,-0.19622957942956706,11.121862632452174,1.476860220267919,0.8133423648580079,-2.547290847885089,4.30855326231871,2.2776327791921935,1.855982326070355,-0.1563257630523237,6.702265501210346,0.054165814570197104,1.84479301952547,-4.631012510561279,2.49646281795897,0.37118086732358313,4.079273057480198,10.097232903785658,0.5759947843858242,1.0972997959554134,1.3549006994137616,-4.03901101092521,-14.465463011577715,-2.7065317139730123,-0.2654526643106133,-0.40811680528204985,-2.6049592610303876,-0.8592128450321758,-1.2368262980188298,-7.8343228548625925,11.360958046375796,-15.018858189340458,0.2414503350088128,0.4808752446096195,-16.887547245981295,1.971137201542909,-3.4033266685752634,0.28973896230425145,-1.5255721867295067,-1.8387139731971702,-4.221990989146484,3.6849878240330787,-2.248462507028148,0.4391954225022138,1.1170043150606934,6.93122071424203,-1.48654996038173,2.5471804462676513,0.7216449629556353,-0.49326432013046206,0.5231304568047298,-5.879464553042075,-0.38206360249909144,0.7182956152007881,-2.4232708602795148,-7.880376717793454,5.436579272897492],[0.1219357075403279,-0.4441567903624159,-23.571136622622497,0.34912793652446733,-9.212414207567326,-14.946745025029202,1.04277921555179,4.547353389159384,0.22341930180366582,5.685517301785389,19.098935648202705,0.532751826065839,2.7001884005534658,3.840701413203418,15.611899265726446,-17.258991664210345,13.14412242429679,14.092912178094704,0.6318386780122477,11.673742590236053,-4.9998222661589375,-2.7090258238341414,7.327114609769018,3.6152104882854945,4.553026262016604,12.245963973635932,1.2454016130376524,3.747295605431136,-10.93965865838756,-1.31959326129742,8.032956931934518,-0.6538952261343282,4.271695501815278,-16.570933561177377,-15.054525113444345,-25.283005996575397,-6.882200037417102,-5.550013086278855,-4.777018533907158,11.515385954807918,-5.519928444250997,2.411524465869943,0.2620809897016341,-5.420225439189895,-3.817940180430804,-4.56397799962628,2.6365709353941114,12.275922304665784,-3.53255050867442,-8.07335692679796,-0.47126546146515014,0.12177403961264847,19.927112055835636,-1.2591939550495983,1.1326185218102685,-0.8175170593942991,-1.7776506252942417,8.418219621384436,-6.400105060564351,-4.319276638451584,0.24310883964627578,5.186166053685952,-7.0668569796777305,-15.100633680591052],[0.4880185096663874,-0.6880857492694893,-37.927111082271395,-0.20035332162167127,11.782905026479622,12.868222709302902,-0.7321732714206973,-11.098597357208243,0.08175231897727177,-2.9265446155796035,-3.924677240569603,-1.8808152930392863,13.573554471389937,-4.358354216084414,5.024659206754263,6.769518926609575,4.036747403193412,-3.3625157470341493,0.7822435064103721,8.679997236262212,3.542897598109959,7.37021654265428,-0.43452794192572247,6.804189005352593,3.7650483618136485,16.513762911133895,-0.516757155953059,20.198074000069912,5.758841397429695,13.674166556903552,-2.254121034450887,-0.5737232504107794,8.284077873005197,-2.826069670938133,-10.330179561482945,-5.935797236748507,8.348237679040897,-13.61112493284479,-5.627131670898788,-11.909853155607333,-10.89697096845329,-15.875522533462581,0.6105468829732982,5.062473023337183,-0.008213325123602896,8.48925596425685,-2.243247949879582,3.072351652621512,-7.450900900633793,-12.233659784745003,0.8037859309237535,0.8660491673613114,-5.358033418665728,2.6281520230360416,3.8396658839842126,0.8981593530859576,6.235833539546281,8.600162391031049,3.288746773870368,0.7601398955326163,-0.4270333151506781,0.18618245679464246,11.971914194383466,0.4332733660370889],[-0.5367416127262733,-0.020421377397417735,-21.09317691682887,-0.1204181308610418,-20.61863439054849,6.343797834543839,-1.4483914143024659,16.60102457144783,-0.9765276702831498,6.872091553966081,16.108059637515932,-0.14917462434613174,-15.079950210709757,-4.292547444907288,-6.045687609568279,-12.872394228236557,-4.330704497201885,-2.672185888927739,-0.8265508881276743,0.3599708804048283,13.250797083055232,9.660863788847111,9.471786969756462,-1.4776765998417773,-3.330635184995839,8.101717401469086,-0.8543514430324488,1.5637829244354526,4.652023816143153,11.385334847035834,5.0490013929872815,-1.5744232220356675,5.914932898613305,-2.1719897078344372,-1.5102823201185613,19.67229096370913,12.352601326590772,-4.243240968058675,-5.461374094078605,2.7145416738846455,2.2565661314573564,-0.8924356903296865,-4.232422303578688,6.856568537510674,-0.8134248187557693,-15.111711107432308,0.07036825492127365,-3.6712796463184314,13.502497093643914,3.707441146732728,-0.6080910327131733,-1.0933540184373423,-4.8861278868602955,-6.954494367562482,-12.233719215716722,-0.8788696499585953,2.3537831952796457,-7.263349627350453,-8.036595605338029,-1.577544375900625,-1.1573894483085585,-2.0774962793979186,-11.992501724050078,8.187976345131837],[-0.5044843256093721,0.24588945841452148,0.27477553056184606,0.7088106018688081,0.8823832587593163,0.14512300531914563,-0.854019302672072,-0.13554437317822937,-0.7213817965868609,-1.2604581662056404,-0.750537693908017,0.06483983404399499,-0.21478148305546868,-0.9614642411719987,-0.2943785524706395,-0.5283002060706722,-0.09807591417230273,-0.22482655205454413,0.1870442173919282,0.15399439635970633,-0.7560788890575906,-0.4900729171922715,0.1627563954304091,-0.8717339418274404,-0.2886639544709532,-0.23586529704020753,0.5234773080976444,0.6978250898493051,0.8292413567791644,0.40105367173567263,-0.44972110209688154,0.5470723392512921,0.18268038674433584,0.33675555061733453,-0.5409835180623112,0.33792067351393257,-0.27752971119694336,-0.4551489835408811,-0.9653918923452257,-0.8377187592805526,-0.6911651333210832,0.3486388762940212,0.5700083509299919,-1.0484602851801061,0.39160190826466534,-0.6744393071307709,0.40568195403076124,0.7516460262943735,-0.4945972591949085,0.46288883804737513,0.651656854097282,-0.15905941417198538,-0.8791295915824523,0.16427686349973897,-0.6903475223667658,-0.2267588732761854,-0.5594303308635686,-1.1648543104651168,-0.690491568100624,0.6890741284156905,-0.8404781946001822,0.692266237211249,0.12522265685027228,-0.9183157708281042],[-1.259725224289797,-0.7847650975985142,9.621406837004763,-0.2174548299335243,20.230176771438035,-7.833440057710336,-0.6515260956545037,1.0618669577739845,-0.04728485518202359,8.0560414256347,21.390040811455236,-0.6311887330994,23.982684040346324,-11.451147500942877,-8.138209630947182,7.96574557287726,7.324217977232926,8.551227310433642,-1.3608052869995375,-1.1660189014119904,5.288771451322751,-4.648331366069866,-4.818612061286849,-0.4536178684336884,9.70157839698917,-13.156769110225948,-0.6406734769347021,14.12299769501609,11.301839766863441,-19.117225036771867,-13.635239190374177,-0.6207173696112693,2.442656481935412,9.545791325036367,2.710446576603251,2.7547833390681595,-8.489840221532527,-12.56535047910688,9.174535494925715,-6.836961116614279,1.0098545097045701,-11.306028673215422,-0.36188813511477436,-0.530413786517247,4.817562395506596,-5.4299237648539656,-7.56944953674307,-6.985428088868481,-5.4991075265695555,-8.238698259981382,-1.4081144845892857,-1.6639911989595313,-4.593053432590724,1.2913872787597194,8.639893297131358,0.189745963288657,-0.10969854393308325,-0.08185215840954908,-0.34652421915026943,-0.10775898543364695,-0.4780335581255648,-1.4053400692676201,-12.369208515536032,-1.0787247692704884],[-0.07644471747284239,0.5058381376593613,-10.32815848089396,0.562152647787176,-10.305241438630713,-20.69055629467014,-0.015764003073499486,5.708750261965589,-0.4514842315643587,1.4796526368761425,-1.416137375813961,-0.8501973154345829,12.178029641484732,13.400955114344745,2.8992568666703646,-9.41398943708817,-2.9440080617867985,1.4911356531399418,-0.6055163519954369,8.566145882042441,-8.20608655576903,-10.846202068178375,-0.048772341210495215,5.0474507864775395,0.5823605867461852,2.8111911019360902,0.259233477924398,-13.636682412012888,-2.6501268046686888,-5.827286305510706,0.9665517713160935,-0.6945841320650732,-6.730574176138317,0.2568153524370121,-1.814672373166214,3.112492646838906,2.097464972855001,-8.719424746312756,9.648137478092684,4.489573606849287,4.489939788939692,-4.7168333018102215,-2.4154736198832394,-2.473180649727945,-5.015145195765326,2.55341422756677,14.0399136024567,-1.6755316338058341,4.836560939363733,-1.8728754323971653,-0.592440251360623,0.5311079010634393,8.622863721379796,8.277547027522075,4.843127547332355,-0.11601257330030008,-12.692354862594813,7.37415628348503,0.23876627200233252,-3.2247316853973267,-0.5430255085342119,3.9983774035451543,-0.5085885076591202,0.6162763360855684],[0.5715905086182215,-0.6396936200475258,14.271990129123807,0.0020796120010357797,-4.985996531131832,-5.71092747379157,-0.9819429667457947,-3.8612596054346406,0.11756210158502652,-21.966818345955588,-10.720089252590112,-0.3928887245905203,-6.709406892562968,-7.7042120837998285,9.67622206920183,7.783639799893154,-13.24425832389452,5.440939511395975,0.17351713046442654,0.8055588127583146,-10.357333474764816,-1.608078800133715,-9.27434416532574,3.8760608218824943,-16.7790609890995,4.960843024322608,-0.5687683205251208,-10.61312645013834,3.2023733872117126,-2.313771771184547,-4.020300794312715,0.7178057664446514,20.41522749867737,16.78424285342494,-9.56928746976427,-5.046977783077553,11.65998048669344,10.846661581273532,-7.8193784958069585,-3.385350824150459,7.886625933055917,-8.714533891675538,-2.0720419369547636,-2.1566815250236724,-1.270808983485365,2.6204543971840994,6.525650993649582,9.65275944937705,-9.280972047227486,-4.85699831660799,0.2981963684911023,0.7841944651268942,15.935390351372394,0.8974746047503831,-8.622186597935652,0.6042105447624547,4.59329520998044,-5.773361705558014,2.3191138581265376,-2.7179474884065,-0.7960380924607275,-4.523184385294581,-1.8486973227684154,0.8220372486736459],[0.5455313584534048,0.0008406778337011398,0.9964164041227486,-0.47589857478085973,0.26989900118066673,-0.591315823936398,-0.7613534258936614,-0.11720024147448237,0.4535950958520218,0.21815988674257053,-0.6532588588757459,0.6072524575101568,-0.09603557308670085,-0.7307597007704779,0.47574458146608406,1.2935274541889834,0.8604132996029132,0.016070269129102047,-0.4599239076231309,0.06346117275069034,-0.4626054073413601,0.7670541277895838,0.5285860961581409,1.3757886208146297,0.300301742879136,1.052549414821153,0.8489755266907392,0.02185031123714338,-0.4492136826515958,-0.22777628991277712,-0.043451222651017286,-0.5325826217277183,-0.2743033039509996,0.3949340404459036,0.4791572251269977,0.38305819235456057,0.17520414668313863,-0.18753063582891324,1.1426308242027052,1.0753294077280384,0.5139717245180118,-0.8681626142018039,-0.5329963405259138,0.8737979872760553,-0.32456625486338736,1.0558526195816076,0.5626109399876478,0.7197666884406886,1.1821004520590528,-0.7798620853700512,0.7818470584314359,0.8219856600521316,0.28051236029417126,1.298630829362758,0.5230808417735778,-0.3547980480673543,-0.6733968641173416,0.056257829575723936,-0.32998574189386054,-0.7158653777880242,0.7472180087328273,-0.33230748434112806,0.5115906591224011,0.47056325443656716],[1.0606046869504708,-0.8526060135848087,-3.8809902502399627,-0.24231320921115584,-1.6372975185036236,10.800907018845697,0.6862435739536172,6.306421449248363,0.11145834979219187,-3.6768753282026467,-8.017753292478442,0.40297520528970376,0.5018928369230127,4.913170228809052,-6.406592514689663,-10.24420438190951,14.47758626169076,-7.481384082811375,0.4212662754843231,8.693695535687503,-8.130209200732587,-1.7869290527307344,0.0724155131056138,-5.253120777779342,10.005207152681063,-6.150043848260723,-0.3004034954806357,7.069347606561883,-2.229456458204619,-1.4105834096337528,-9.238164837958676,1.1571207353933097,-10.553695332657586,8.341381753685926,-6.326319799416872,3.023278300636165,10.965528766185843,2.297807318176478,-9.938415320337871,4.7175866080094675,-1.8334837565969255,6.790552982688412,-5.347379287642059,-12.967962073268357,-0.3190818105488893,-4.942438155453536,-3.659613064006048,-1.8718503506851991,10.777338664945194,0.2362472669029291,-0.6708385441221968,0.4740588883987006,1.0162160895424326,-18.077181368989724,-3.5693883938953275,-0.5520166531655859,5.054461872625336,1.8421894166700754,-11.791435930315219,4.047699477059343,-0.12749723134357038,0.4946885597743823,22.99077376435034,-0.8683323901355136],[-0.2060804074960244,-0.28701155552777513,-13.956414233033872,-0.5435925584688482,8.980576601432343,-0.8940623846470036,0.6427975375281201,-11.041921751356114,0.7081695030564492,-8.630820175754705,14.445768941623099,-0.5097298225400272,17.13186534165591,12.75332612144175,-8.318173728671177,-3.942076753713745,10.27644893727562,-10.70953440832613,0.7994495362573931,0.5046658307425597,-11.690649171500151,-6.176519145494895,-11.71753673871377,-3.0959722220651757,-2.3268170185841925,-9.025758801779094,-0.833878777496275,-10.251481081909454,-6.69394075820336,-3.787773030332118,-1.2515169971252824,-0.5669495808934604,16.987858613921624,-6.569679507718563,-4.998192974044631,19.767085788739653,-1.0812642243607746,3.578839534724447,-1.4878371656300298,9.549260143044298,-4.499574514097512,2.415175543449379,-11.576587507543248,4.8519580694026985,-9.193374833924317,-1.3497846876404216,21.610857553239054,-3.745620934945417,17.458537364508885,-0.5696213076719576,1.1440859778342836,0.8965268945608592,11.642324346387799,3.475838248159526,1.2283463380671424,-0.5662876753739282,-4.947982874346012,-0.16814121679829633,-2.1755969604853513,6.7311245115630856,1.034837758540309,-8.384592087999671,4.4670708971047155,-3.8368872258716427],[0.3730859584731444,0.5374030721159572,-16.659752810680374,0.37630357432146755,14.430406777785578,-11.553875669563228,-0.6218742899588608,-4.518895258947555,0.7364459287936388,2.129038333269394,1.1178933299506122,-0.09854887092134837,-3.785272192648952,-11.850015918650469,0.8484356849521429,11.27732520328987,-13.28189169342846,1.0494001267669137,0.9507261562474392,-8.732801027430765,-2.926962640379769,-0.37703517761803695,-2.168654201376261,-0.3387419468903034,-12.969596062474634,9.568697764964961,0.3988590632622233,2.4687899561762943,8.151629977658757,0.6258803374388615,17.331614788168327,0.5430990534334323,-5.374102473774944,-1.5775984935420841,7.137986456465185,-6.444373898027986,-4.495487724310018,-1.2934217621313209,-0.5613926093636781,-4.633776658359666,1.0344782777089991,-22.68871749256189,0.9046661202610579,-1.1576816951715183,4.365590949404947,-0.17103428027681827,17.701068440808402,-2.2420256243374372,-1.428355654621963,-2.155880887346632,0.4719307010605731,0.615302880929548,-9.638223248724337,-1.6572617253243742,-6.6063802230356705,0.5882177556825211,16.82633799721297,3.8584983438154845,11.687483983059016,-2.1429430835427112,0.5213650422514697,-0.06802601482004847,-1.8345382759391324,0.5802122603001793],[-0.761798891710081,0.5383823957804705,-0.9442846303719997,0.3599510857181461,-0.5797951050287041,9.352338777782567,-0.26990053719716134,11.907546655457988,-0.1282759695872084,-19.99091622001536,-20.49948267348309,-0.24649617428188988,-6.179515647421113,-5.8261841842656805,-3.9600851916014883,-16.356580743124237,0.7535191920669867,-11.175706797174385,-0.9036068438469846,6.4306702754485405,9.348701116801326,4.561324013246105,21.261507746744694,-9.436995734817357,-5.243005302160857,10.190897964080516,-1.173772880399069,12.087525570701317,-9.239469380198209,3.296881269226719,-4.782373371729243,-0.3875907950913691,-3.814888665237909,-3.4378921884317584,9.783576082595706,8.447497655887016,-10.682609659217444,-5.531750755718,-3.9788474097431568,6.309005510737911,2.521417765485315,14.830947575165753,-5.057175799131792,-1.8604659888188455,-4.643808489401606,4.187362484562946,6.5502889645731095,2.7778607768324384,-10.655108408795128,6.198924287876361,0.32021200231206515,0.4896791975916317,15.007710842294411,9.661363597330096,1.1832940062148845,0.6001528067835414,-7.411555924564205,-9.147962681647204,6.5389089779120395,-0.34525132980184936,0.58301200255336,3.895449010925193,-8.372723060764606,-2.0948892162812727],[-0.27968270804636025,-0.9543502041757168,-18.863755177813335,-0.9756171307642303,4.1261426395943435,-3.6689473270954553,0.5543162077784437,-0.3183434865272553,-0.8281699179049009,-14.461622879462114,-11.783153155040585,-0.8634790706117683,8.569456610340353,10.448474176336033,0.7817616748186642,6.865491917076529,-9.462277976267167,-5.700614241487457,0.555661484040429,1.2577246268361808,13.763657425719195,7.690296919984635,0.5927909768566128,-2.480811525156706,0.6473943589446458,14.049464667095927,0.5719933211166648,10.979586908214001,3.479953087435509,6.167985503194565,7.912067372049963,0.33579142265098927,2.2257783626758028,-1.7309922458283515,-18.050705463182013,-12.231345011735485,-17.066184099141147,-19.85497011683553,-11.185670295417761,-6.360326271279229,9.877683921195826,3.6887275249378972,6.511728637095275,1.7915516029590661,0.794755677261459,0.8303202200011137,12.93498970379473,-2.851012919545394,-0.2125171888379654,-2.8762706142480257,0.6362859281148056,0.3659747354102674,-6.570297475610735,1.9491751316677783,-9.019802972776638,-0.4120430928294605,-8.879539895532488,6.716011675643873,-2.1468925314375666,0.25579259524523773,-0.47468295532388755,3.0624169485220514,-2.67098243995333,-6.1355298521237165],[-0.616096444235974,-0.44868674504359746,-1.251722878984645,0.668481281959307,2.0213035978103564,1.5326719723812987,-0.8388629654609493,-0.7439656696106668,0.9422178973507863,-0.6673775797884438,-0.14172116205989693,0.17773936800916723,0.4099438666065505,-1.4477978990277645,-0.42047441342602376,0.6110852675178183,-0.3089228457431296,-0.8447393995685454,-0.5447648879886897,1.183818539676281,1.4123968440560564,0.9128374557242478,-0.5524331394761192,-0.3791410132009579,0.1664201080136611,-0.6829469453547445,-0.015696297797866438,3.487175109844311,-0.47745242473086985,-1.9478559628816878,0.6412769510453921,0.4084724728438334,2.663151500220602,0.1589920562305198,-0.4503029524724367,-0.098041552162232,-1.0280991356509506,-0.18537293576354225,-0.13554986420548093,3.105092610078429,0.34961450150184653,-0.832072854001854,-1.850885787029086,1.3466102702204197,-1.2379204716741743,-0.30586536543175313,0.20760401532955008,0.14216702821157753,-2.1596412718664526,-0.6965027510827972,-0.7891240775947118,-0.38186477659594176,0.5324195956065364,-3.5231730527651477,0.5769670274522021,-0.9514000869145011,0.9627720097983575,0.5863357862685158,-0.13687700915693687,-0.18861967801121526,0.8777162331203437,-0.2827087264383884,1.5754195205271293,0.42318407500979416],[-0.8520618645447423,0.1520747875140231,0.763254984338272,-0.8185409710388083,0.1231209826997651,-2.9442613109539004,0.026219750965732487,-0.050245516319996145,-0.7537761059039239,0.04297507296917453,-1.030791631292411,-0.7171689026805947,-2.317386807893085,-0.6841597122781841,0.45708957841154313,0.25619383995475575,0.9870599459055842,0.37470543547076507,-0.2166140586828715,-0.7678380797653043,-0.28510520233873826,-0.9540232484743025,2.5758426950775943,-0.40652851722014705,0.03537861945647488,-4.182055968747983,-0.7451279779695398,-1.250021163082985,-1.9054527531310042,1.2845572954393834,-1.042409545498121,0.08315177341529856,2.4570100802235117,-2.7781469024562133,-1.7506823960928903,0.2404128366836648,-0.6671810654645348,0.8451880749414098,0.30388107773973,0.1925362687614771,-0.18631452416867064,2.2645320301826097,0.6528600528259919,-0.17468708161122842,0.34886993442678016,-0.028315692829678968,-1.0080673936052877,-0.8549828259701792,0.15862236575888122,1.2675436018917046,-0.13915555851220315,-0.7546482239047344,-4.134786961986809,-0.5454707404660879,-0.918368681599717,-0.03930681905352621,-0.8666525143412523,-0.9569172269820356,-0.6226313459945522,-0.19167164422325395,0.7987535345083385,-1.8758268594450462,-0.14054330469308293,0.8618263037866252],[-1.1640537951355987,0.9184277744665469,16.750836420709618,0.6714913147275676,-0.5596977780421971,-9.204310698096863,-0.8039008839484383,-1.6636139738540028,0.7730465801561888,7.44656446845552,17.387163509786813,0.028755598809795113,-0.6415787213744037,-6.613631497914199,-36.561945258173026,-4.620422794654061,-1.146130067744045,-2.22180129662531,-0.201593298072464,-1.6394371222713253,-1.2077789076194019,-2.5572352360615893,-4.495938245454666,-0.7516195219982416,16.45132439671133,1.8871328765633824,-1.144303339936574,-16.352547406904147,1.3140000915302557,3.9120053564170942,-6.7904149639986615,0.4832141007995154,10.248300555885615,3.1503337410758023,27.511098972058356,-1.867808875522529,-14.89359794495748,-9.841467717063018,-4.8804736204659465,9.096522076091313,8.297294376470662,-0.44698205843241307,0.3394305840601094,1.3054486236102498,-1.1390150135439898,1.261628330375933,2.35197739044419,-16.928195348475526,-16.1875859605418,-2.362268592833157,-1.5386116498362568,0.18614611266591252,7.55175828803337,10.254140272822754,10.290351954748532,0.5813756620651082,-0.1444166117825895,-2.175720349246469,-2.155949015855263,0.9142192558558965,-0.6017839038764717,5.767768256181645,4.306857346626945,5.075110571702895],[0.8390720946942519,-0.03368225202872662,18.37824647640633,0.15037414156515072,-10.198448217566881,0.7493703698257889,-0.308147666244491,-3.1814395074335153,0.5291399017233746,-15.091802619219052,16.417349859908555,-0.036721285342511026,-8.710257902596641,18.892063589866567,-7.456105871928214,4.711188785462104,-3.087608306543036,9.974715427090326,-0.04040031399821332,-0.9448756888620059,1.5492293389549685,-13.409798186464545,-3.171670117731699,-7.775196320996185,6.36614717938451,1.272227695587018,0.34746868708863116,2.063976840806403,3.367266308050898,0.3860435488670624,-8.630815941204615,-0.6053072538755493,-4.164017656562406,-20.000930105192765,3.3880542154123923,-6.084556919123496,-19.22192457728715,4.9760767776899,10.81239140565183,5.021399408145489,2.3917897551147957,1.0395227464458263,1.4994303782457723,-1.571349276643533,-8.284292321227552,5.527358870227598,-2.7407594769067742,-3.5731386676553947,1.3325552580421554,6.336670446825403,-0.05664388796887469,0.10492944129548162,-10.85268570194199,9.873218875861538,20.025420071581035,-0.8048126787996832,-10.813306714577273,7.275400794377339,2.616063672226786,-0.7652342966052909,1.0274354895723004,3.177400923070429,2.199997787753633,-0.12501785203278276],[1.159596681254378,0.304713786278021,-9.854488700048428,-0.6481584867688978,0.009395065753659426,10.972931998863885,-0.38368331334808536,7.614699240045559,0.5390297660617814,-4.550003394563364,4.27151540515187,-0.48581659547856115,7.765787169133644,-1.907689046158363,-3.6267777892606214,-5.910324108841575,-2.0940829935217584,-12.49616171600724,0.8552441294531079,9.327511865424693,7.046782070164102,-2.4790258296455097,23.831258357002575,0.8959953440919478,-3.7846193456033803,-5.684981039359173,0.08122673667317581,0.647495694747579,1.7209380077673562,6.916294356640881,-5.89503114147631,-0.6772346572880591,-0.6266540234755569,0.2928195764168758,-5.700451666390214,-3.1292128634022602,4.628389533427138,1.3998484525455237,0.5969289101073023,1.380660139506514,3.532461694743774,0.12742978462143334,3.2034078947798363,0.007760442492462205,4.88113370283291,-3.401470237755426,-5.212833643002979,2.1820243368808234,-9.60349571215725,-0.7911452140375551,-0.4763179502287438,0.4444705224905771,-4.641619145845885,7.557037428056192,3.009059845474511,-0.535698124811851,8.813519369183082,-19.174853713084723,2.6733534595763655,1.8462350690829217,0.34719270081298625,-2.030910799218157,2.992078134444765,-7.912236356898304],[-0.4415131155447729,0.6895266358844815,-3.08786749344121,-0.29079971718977043,18.934071310386525,-20.769096004175896,0.17645915167537743,5.136709531347014,0.4728191765708922,6.9343921928842756,-10.487035699484569,1.2648278742326795,-5.477499479960858,-1.614228217594516,-0.11129180707092914,-3.0646722883997355,-18.732149242738217,11.866799259062338,-0.18287867125898466,2.3141713868585354,-13.960183963413632,-18.788043065712827,2.3377689138081883,3.3366427596959696,3.1287822721354677,-6.596102469738825,-0.8559735745668482,1.5799173272582812,21.931829041964985,12.851121088407119,-0.318622880042855,-0.8367094125118006,-0.24136342069877056,-2.4351468502282727,-22.074703220422773,6.254558619501648,4.424032351561789,17.648216764881237,-2.8354081175324284,-5.021592742346398,12.623643053787541,-7.497471051482859,-10.180379859707738,-0.1556177153992543,-7.996261351074341,-0.10791809417870353,12.659183027527964,7.723847683028345,-2.3396140518028563,-4.48643733047653,0.09449050093027136,-0.6219823543769178,-8.163100114488902,-6.325858418687881,5.020636407179765,0.2259995924787794,6.755405025298668,1.0877781842022494,-0.25602107524932244,-0.8971834502327952,-0.5350733145292219,2.8779742526469088,16.042553442383735,3.651834053310365],[-0.6041390647809333,0.6581368043018622,-9.607703904843472,-1.1407086103916888,3.531982600072352,0.3209380782529008,0.25538651344793756,-6.492450833799203,-0.5818445052439196,4.180405744662854,0.3765858282217834,-0.4785397619887647,0.9404082246577333,5.404510801130348,1.656933618025161,-2.3243574289968794,7.786107994283886,-15.492611880264894,-0.6209278389402542,6.969781314013139,-12.418383660797096,-3.1960345611109067,-4.5067461218391065,1.554869868553194,3.4135342951717917,12.198541826456774,-0.25747345545650735,17.19243309435141,10.756828845933498,5.611792643499549,-9.48852355576098,0.37875902444017356,6.615547458661669,1.505825891198672,8.076416998242449,-7.671669541564731,-9.646930338304458,3.0867857242812096,-16.026827406009144,6.661659312210991,3.903809348474308,-5.286769802535993,-0.0667516902636059,2.7652162568127245,-2.814210755060977,0.5685778748848825,-3.865004924942414,0.008020550768139033,-22.96615738800868,-2.3824486841303987,-0.8528582831810819,0.0018393824917817536,-27.45529677984081,-0.9675610798031776,1.8430930074559622,0.8462315191511964,9.73318997536344,5.36507527102608,-1.6275499840833254,-1.8549368629501903,-0.7738722952910269,0.5136301235062212,-2.163559070373807,-12.305577528881571],[-0.14591586683965463,0.7692764814016984,22.322457891951757,-0.0475245204372473,10.767479702941257,-0.3217748984583259,-0.44935332904012415,13.136725723081298,0.5378797717980357,8.855718381195862,-16.3267713029103,-1.7133116576167498,-0.8988776103279539,6.270929056562801,10.848767050990451,-5.8546967168527235,-12.643591735247947,12.654005636596857,-0.4712201951920574,-7.2735630211788775,12.035290031736647,-1.9437199232087417,-9.94529570005892,32.628339374140026,-1.6316049151536904,3.809264404448499,-1.5852379469130489,-6.778381858106223,-22.332732300737398,-2.454232520715065,18.082409072522076,-0.6767981479369298,6.7237309698298695,-8.549720877751025,-17.328952973889336,0.6152948521832344,-7.093300459532219,-8.556542570172283,-9.75555978986765,-6.904615012111919,-2.399225920836045,0.6569260658263252,1.4165408947709126,3.107824664089096,-0.8910767909437837,6.11291702748167,-3.359270525076661,-3.6567545187353256,-12.43082815032195,-13.651543235500874,-0.32476458153302834,0.16269344548103604,-7.306665120274158,-0.49928575159090155,4.357104935404253,0.29021436560402036,-5.8499793707715195,1.6434147042961067,-0.15775753068666853,-5.242541322629928,-1.0209358538974127,-5.968655985824386,6.089384312718282,-31.047654749859454],[-0.23643914547906225,-0.7702015598033977,4.931162274203316,-0.8303439438586879,17.77052763731866,0.42647886162297655,-0.9952678225039332,-2.8186926095668414,0.28325088557421757,14.916623340896823,-13.956505288197754,-0.05110401207173091,15.250503579363224,9.396470099789877,5.328160470144835,2.32608337054215,-12.767656579368614,0.5993613444536303,0.4144257757328666,3.110875043126992,-4.047980259527873,-10.924055932566597,-8.531614948475887,-0.637027689972737,-11.867602085221629,3.7330146008587075,0.046190522104443195,1.9038739381475762,-7.982393315811236,-6.544504703768064,-12.44081500515884,-0.558513649068561,9.933722526150436,-9.202413001500211,5.098523847881965,0.2573173098053909,5.659869151506266,-14.021336027973692,0.9058608319866411,-2.4299729483486416,-2.953362502866771,-1.3130633499942976,1.3818594006196088,2.4998266608856103,-2.7636507729222646,7.531345723678625,-1.2885529196516172,14.671727526811479,-0.6355533814171268,-8.19392058035448,-0.225047798794457,0.6591563794751714,-2.749824906878672,5.026338884160006,7.538622868530853,0.6369365852754402,-10.225995290419503,-14.27214314098487,-0.6619106898490539,0.47025157083755503,-0.16407241956562588,1.8236699317957132,-7.230040337364038,-6.36704316963029],[-0.2932474624524322,0.8554200030825586,0.36650284862890936,0.3920818318573177,-0.6801940609025618,-1.7753814196187205,0.4232371320684885,-0.9927079268426532,0.29817161160015193,-0.3077912707339502,-0.6234702226589259,-0.7366916843940907,-1.2298726203957295,-0.5032020458882063,0.01528831179822506,-1.2323059541319472,-1.5481029687163865,0.13273724475317164,-0.6246404262974339,0.4520742500666339,-0.016096873727925624,0.7188542395242424,-0.6467047386253794,-0.005558995405775665,0.4309244397309823,-0.4920337781212698,0.9615476366056226,-0.9512109422318977,-0.38724658431858294,0.6997164919264134,-0.7563960274472198,-0.2999274053221179,1.1765089554369648,0.20518483683155606,0.17765324574501798,-1.0614369482931871,0.48698629338801175,-0.3385045746785287,-0.03475617657429873,-0.7932852416994385,0.19283844365235417,0.752608261450993,0.1505677678739067,-0.23721181413464215,0.9902968111889098,-1.1149237242372765,-0.732929711161058,-0.9606024530201863,0.5325850127336609,-0.2648476304755779,1.0718781825521093,-0.5285048840015611,-0.760542247786317,-0.19551451400752412,-0.7331909308434197,0.9638504296426607,-0.19607942333155362,-1.5173313819965637,0.1383520758319505,0.09801098364914808,0.9266917965533146,-0.90984224879292,0.7788451823424533,0.02986765361019695],[0.2136054061874053,-0.6098508140467133,3.4127653075853894,-1.1726837480121994,-0.08664800228041888,-13.79932280968632,-1.2757685001679515,7.979939662798056,-0.031009834210404572,17.895452269396614,4.151140873492294,0.474431393394105,-2.6522816016031676,-14.82344261051087,-5.0119288113309555,-4.03824005518566,-2.1710601419645887,4.2169242322063605,-0.5641029660843513,-3.09052288840186,9.62085187275502,-3.671167657919555,-0.18296874488775364,0.04279661959305561,5.263665315116665,-10.16016460555205,0.28291316081192786,1.2294289149444892,5.903658468649753,10.259000395813839,-4.886006040530195,-0.30206329978165103,-4.6032764466173,3.121174972652137,-9.576842955948294,9.988431489569821,0.9888150054588203,-4.031910013181546,3.31663191920469,12.385876750563842,14.337092771037643,3.9513203111029402,0.7206579056590753,0.2719989385798055,1.139759867627084,5.864628660875122,-7.411654964502127,-9.326322240920282,16.960538881330287,0.9261450556869192,0.5582014406413166,-1.1997808793625508,-7.15273428650058,1.8376816122046837,-3.149797159191151,0.3985194368268459,0.4788151444412647,-0.3749967277425298,-1.1044231933746542,-1.5883285054965561,0.512576180076886,1.1486405242940005,8.969743457470301,-6.112151667824854],[-0.7930960067375645,0.6982828296836079,0.11144600885206275,0.495628259339351,0.10660818306775674,-0.4757046634132699,0.04897335767815451,0.32264895885719036,-0.6724408528324756,-0.8787729259649283,0.9318397558893158,-0.5028915747371167,-0.6812183945903815,-0.8555408356208644,-0.23795235194433748,-0.16519781703613035,-0.45003969617753936,-0.47142414414931294,0.44493465767403123,0.5131779097478127,-0.00614759359306393,-0.04802209015287194,0.3701477184091961,0.5066263599498915,0.22827010937669306,0.15751874561075124,-0.6734911577885107,-0.3905394629791319,-0.9529213873902724,0.28207041498326657,-0.9707017297674956,-0.11648417631072178,-1.1991049109254133,-0.7529619859328572,-1.065506156455445,-0.8282712920315638,-0.31734428941107506,-0.5654167922157454,0.3667550959186741,-0.5946507021097134,-0.8484406005780627,-0.5566607235585098,-0.8853263302977258,-0.418352321456227,0.809413174795776,0.02837393743128227,-0.3491830774391182,-1.1112774827551761,-0.4188819311545685,0.10572059505363463,0.3542113569534601,-0.15490399459218446,0.10129936918076135,-0.6986871469240957,0.5130654608540336,0.811313867371531,0.6905022342594133,-1.1402233305890273,-0.34493801893491643,0.7051186515499591,-0.9615851859237964,0.30826998771294634,0.9929325805111902,0.037946894509763233],[-0.03737268462162466,-0.8061522401467723,6.762080379274325,-0.023739508805970796,-0.23601611612311066,9.142529510399585,-0.9191309957338705,-8.223024897139847,-0.5824750698445897,9.895561105904378,-5.4392665389606645,-0.5108348814702042,5.425305016290648,4.125059951470385,2.715568451562654,2.7156935525745958,5.476262237218065,3.9465203860530247,0.7885581041444807,1.85334596837441,6.794742929178567,11.801963160444853,3.0818998458989224,-3.8823113082109577,-5.549682654750387,6.736384697626039,0.7151732559151437,-6.298863791936897,4.8842580312376045,-5.058311319934609,1.3096509833207064,-0.7079085275261774,-8.938740473364508,-3.022206266094174,-5.121731732396441,-3.4971066942519164,3.8895485851807927,4.918716012743117,11.520363276344863,-12.190424758659216,0.4552805456014594,8.72915711343977,0.5313488507436225,4.459500874910617,-0.2052271555748284,-2.973740869502693,-8.348661289668579,7.981671904939341,0.7967543470981487,-1.829478651177448,0.4002706796510693,-0.020266180068755444,-22.117660023753864,-0.9940911373912927,-24.96036242869295,0.4990597990827434,3.1716832429475117,1.7120698861172239,7.948251382688993,-0.8895133477008677,0.29804047301126185,-2.478900007227877,14.68359019234468,-2.456940501292651],[0.39146760857588364,1.0037337822592252,-9.717325212388543,0.38174550101481886,29.648271056580604,7.600829435784249,-0.7737739489847902,-8.175816834386833,-0.041314616852269205,12.832458976546652,13.111040602516416,0.9025653213458984,-6.2922708941326295,1.6824661361416935,8.19770678194177,2.41122070038456,8.863050583154871,-7.027766623446837,0.296457493766773,10.245013916922495,20.917409608259444,4.235116146756652,2.1411872610440636,-4.743798882012139,-5.904454757966475,-11.943438911234603,-0.5352336192032042,1.7487233532453754,-5.899637695932144,5.148610744683124,-11.655857277619567,0.9526885350724255,1.8595444247458766,-4.179639393003139,7.786072340384003,-0.2565269305254919,-10.042861202876539,16.102663917048773,10.699909535833138,-5.719378914377265,-10.090994581799986,3.205423308031515,-2.1575029801600856,-4.337657641553029,1.8412761675224094,4.381385756685504,9.54324786907721,-2.54273021568511,3.754059591889717,1.3241253136445323,0.34766755224485635,-0.3639564845207278,-14.62112349036244,-1.638323164240961,9.31703054861207,-0.7840288763924178,9.70984433815982,-2.763366399226959,20.27806570127175,5.474001123949603,0.484579526769595,-2.8611072435196405,11.37247138077833,-0.0793567348791115],[-2.2694667354089924,-0.4997064850555241,-0.5102776272192889,-1.6409100847754958,-1.9151877667995547,-13.916497693101979,-2.0439959433422676,8.126218278446048,0.6913539447649573,7.318322971233631,11.849179263307185,0.0324172968091802,24.155598214636097,-13.999622833640665,-2.5088186255507603,11.275113894379075,-18.027774331518412,-4.593531388722705,-0.19106979492754464,0.8158657693531227,-5.177850405752348,20.603415046216224,-1.8715763472969797,-8.01136580236427,10.93763628364607,8.461399975443339,-1.2548909852910104,-2.4652014750371807,4.797259324245845,-21.639421725174913,0.08787147817397468,-0.5521906810279488,2.7768451356696997,17.239824097715594,-14.977552617164307,-6.698547779143991,0.12085408361350723,5.530452178330601,-5.111597700999787,-5.287158777608664,12.06957998718921,9.694043821210885,4.430113224397497,-3.0425818700242586,-0.23617800919334328,-5.537647404607921,-10.08806514927892,1.6583906879285142,-11.094981680090623,9.25682004721225,-0.844599241862456,-2.058432873332553,3.580422290080378,-4.454445440367399,0.7670632125507966,-0.6827446973892259,3.0173078653672145,-12.834701671180314,-4.521219358028577,-3.3311655946259977,-1.2130544082702168,7.924172014605198,5.5784646330781475,1.4193514416257667],[-1.1097047374403395,0.5065655345854047,0.5150047786029852,0.6816523665403518,0.3745773671842851,-0.13430520435234558,0.490730820102984,-0.5794639449787092,-0.7358314302097017,0.4564072883607269,0.011934044244730125,-0.5707339292173458,-0.7576888995842329,-1.1026537906721974,0.3668213472720485,-0.9272669465243867,0.6190545205241402,-0.46461224189692296,0.807412250125922,0.5846355762103022,-0.2868477011104052,-0.6287885012070934,-0.11703183199778751,0.0862753034726186,-0.2339122701827781,-1.0846139583359478,-0.8628702416952794,-0.9755066265458081,0.4988902982690092,0.18767730799668236,-1.1183304340105136,-0.2602752890761571,0.16087870140700433,-0.6985056044410782,-0.9759698793628171,0.6384572825869695,-0.5589898130175911,-0.271836835524288,-0.9430671951819148,0.6493286498088175,-0.8778037987244203,-0.6082959818276394,-0.8811041872208195,-0.34038146786435125,0.21381881483418236,0.13182619876710247,-0.6679719180814074,0.2508473730198257,-0.6802494539803514,0.12386413272122816,-0.6056997998960976,-0.6129223845940212,-0.4860597802445182,-0.20000987438224657,0.11765144978543166,-0.5769959928814254,0.40633662863681874,-0.47698264326345297,0.40929697015404676,-0.7274934697214278,-0.7319191758337047,0.12853350866217947,-0.6834092823939879,-0.4490564228103464],[1.0941020282231473,-0.25764164886339247,-4.907937586005891,0.40921797253898384,-13.037988939798009,0.5768771267974573,0.8983057661508618,14.457236883935856,-0.44268615520765764,11.386899846796384,-24.43601231446485,-0.42932463832174955,-6.861285141775197,-0.4405960769326403,11.014000046495315,-5.564268561910805,9.700209660598789,0.8116822671049303,-0.06981370152799499,2.3182674508836656,-7.641915164131948,-1.5375786029616927,4.133374840716457,2.6810083551727146,-8.370022037850836,4.857563898703064,-0.525727335115505,6.9712516364260875,4.7350578332515445,-13.890901165706005,6.639183501130828,0.5264820193014154,11.474837707621687,7.008166441038961,-4.893991769652537,-7.865998512837721,3.084988275218893,0.019328681383358987,8.374443339493547,3.1557987364259867,-9.452777780346427,-3.447760992400098,6.59296647987212,-0.6508679645609782,0.7559482791018348,1.21307111559505,-0.08598358995845592,8.60848928342966,-4.4194080670961275,9.734961560573629,0.33993389444331124,0.586038996957271,2.0835897096825797,-18.751406584565196,-2.473450683970127,0.058516825530310505,-2.09615597921174,6.640008991310655,0.639997515771767,1.1910402932047526,-0.7356981525479278,-8.784816761687079,9.036260273914246,10.154756879495142],[0.32861930091115515,-0.7536662347843903,-14.707203319402868,-0.7698262128899808,-6.098084095332148,9.757981753864502,-0.033659676859901955,16.377407621996685,-0.74508009651755,-4.730631609751286,-19.0504785061734,0.3678121844895454,24.116116336657996,-8.457298290575814,-4.086173330579245,1.7693861596263496,20.11352642107409,5.406113824414724,-0.7203321836040818,-3.3321372170925754,-1.3138745637917548,-1.223926642261382,4.7798690633934475,-1.614679349933082,7.202331425275921,-5.968672869395937,-0.7794538157230746,4.489325250958565,-0.24051788291046508,12.557140973180928,-1.6436721060793098,0.6117055887185008,14.02518179005237,-2.037005043111713,6.002330479683987,3.8493840925339926,-4.659423543511589,-7.032515125045481,12.088251039012254,-11.493362391412298,5.819036273189864,-0.5977577579833482,0.4671240530628564,3.436054094898503,-1.6362740984724455,-7.465196364069436,-2.741051194922986,-3.302035640737515,6.217084817014039,-12.200744037962458,-0.593093182209559,0.6563690652693327,6.246781865016023,19.684541080953586,0.7007903321104734,-0.4428767828973984,-3.1547110654391437,2.851490454290405,-3.8527025798984647,2.589767738495396,0.5190281770600278,-2.6842654087357323,15.593588150724539,-0.45520561511967406],[-0.1517313437370778,-0.055221804848874255,2.978909774615155,-0.5360276908257554,-4.986073602704697,-0.9841089784988492,0.6540304012688564,13.091864452329942,-0.94554115769431,-2.6860324695309576,16.021152196344687,0.1840552835158467,-8.951496194034945,3.7053476042909197,-10.87724151399269,1.6506251773733447,-10.35842694644569,38.5456241472692,-0.25641808388529785,0.43261611638530895,-8.803352814122707,-3.442773892841956,3.1745119325968676,-1.5924271984360194,6.887823762343308,-7.569981743643836,-0.4501166158515899,3.635559352878289,-3.7610209800719767,7.250835739048977,3.424566972826988,1.0885223680156983,9.182413415045296,2.3476018155157736,3.0954345158618124,8.666720878231734,-18.996115120942566,1.2050565985490356,0.3950586449910081,-4.919003500235006,1.612125390729608,-1.697918474356975,6.479947234834239,-0.6523356383192971,-6.488714560796735,-1.0361953442417227,-0.03378235509543352,-21.00975779983049,8.621851713733726,-0.44527710625950045,0.4258888762382368,0.9765283950542953,-1.82552004683767,-0.1823184324932563,-7.000080101265737,0.36562693684176484,4.909306942028675,0.16985911194915954,-7.677987706961089,-5.616842343855891,-0.17186363417551817,1.2058330221258962,-3.174427851540129,-0.4137434094938098],[-0.4313769824400478,-0.14881486529848323,10.579538862602133,-0.5827756813805448,6.065198407273566,-10.621204990028467,-0.2920503860362173,-9.86799487633284,0.4741786263471933,6.974302327955523,-14.635259645358518,-0.6876587774082841,-6.653622136169092,-1.44203996020896,4.711680030529157,3.2445786993619032,-18.690102557488817,12.535757178095842,0.4801581478367696,-13.489371687631971,-4.0739607939034155,-0.45772430781161344,-16.741357459945515,-0.07412930950649643,-8.377075306198561,0.940237369476263,0.8524204612990008,-1.2219559974751626,0.4767586508860527,-17.28706123946528,6.46740746098947,-1.1036609234020085,4.24859161513372,1.5879786726524583,13.255166321583973,6.198109147147699,4.60859758420597,-14.65023319506981,5.385352694827105,0.7588326890065453,-2.133887116014791,-4.905756306219957,-0.34035700075413095,0.8967686435556089,3.8111540721810617,-2.7171940949061524,8.380334252486392,-5.372420841243698,21.14410193584159,-8.19793818826134,-0.8146948480982379,-1.0831727692259776,6.170051616696129,3.0616083186895713,-2.1714506623748195,0.072811233223887,3.1845242882594396,1.7172234233547243,-1.6032888409035,6.564054863305949,-0.66634088665866,-1.9992581222729378,-3.004121925706823,-5.1033386454700524],[-0.41255789261954073,0.2502602325867772,-7.821297277491784,-0.24107890643296265,12.041991510192627,-4.677380625272294,-0.2050170331623338,-14.101209177869018,-0.33311273375436606,-18.789351887774515,-4.065167249277657,0.05747349609021086,-0.26390759897377847,5.1129196955206,4.424664346051042,5.4978370570845865,6.146424455030403,6.418324967580876,-0.4675809413445574,-5.578100175513929,6.825727432547354,-3.2516063503577404,2.5622864466121977,2.992386876894358,1.5104638633009935,2.8153284557957785,0.1743069253730043,23.45021626733734,-23.50809321274871,5.530489175245689,-4.763250623259183,-0.7286716625885825,3.7280038066609054,-9.184196722356281,-5.184193357325435,-11.137756071329745,-18.79286028378303,-3.3265812806826536,-7.360991659001197,-0.5626538922159546,5.9237053032984885,-14.356676343584724,-0.5020981640524079,-2.0763603467362106,12.945358103788015,-0.09716488036843653,1.8334158613158351,-2.6864871848506278,1.7888187148797068,-1.1867032525929742,-0.8385748320220064,0.38479273593703,-6.014829588835701,-18.4040531109036,4.733084686391832,0.24945492866820473,-4.927382927106178,3.3758489673607097,-4.179409260313695,-4.065891790800226,0.3623521050305373,-2.5707533927151234,-2.680902500521793,-7.734918391825491],[0.11012662420666486,-0.4358253675849145,-2.657641213850497,-0.8869663116497922,0.35392680380902347,-3.518108006302082,0.670379628113735,-2.3730589055000095,-1.0024301042838617,1.9831944837449713,1.4051520033805676,0.35491173224359573,-0.20880483429950977,-5.987653101786138,-1.397520736073918,-0.3174493749076839,2.567211196428512,6.253150919479297,0.4439354898516848,-2.3316685486988997,2.881014551662146,-13.317079482187044,-0.1837857312152293,-3.9428628373393666,-7.499108902856443,-9.621588013925697,-0.15526544564652914,-12.969247400416453,6.536904958204135,8.66523237257132,6.136392097234732,0.8239767314718406,0.20571925409218048,1.691784069863739,0.544455650217346,2.9935562570720005,6.115487529029368,13.406909137781122,3.166392583443519,4.146483725224494,-2.2193400255973454,2.7733835826042594,-0.9747697471818904,-7.912034653250855,-10.102801611723889,-0.4238144916272187,-0.5331676834991664,0.5553207520048802,0.854773872224046,-0.5969619488874651,-0.7223862088037272,-0.34196305607334404,9.246881492208766,-8.319434143251149,6.750649626803525,-0.5991752174526284,-8.348086979113026,7.287055142999654,9.088150010600232,-0.3637517036952172,-1.0718641403839708,-5.439959490387108,8.839967253742737,-2.3813846571864143],[0.6352167857112592,-0.18082733418802735,6.555131420810889,1.0246356913232881,1.9361131322357192,-8.10836448120567,0.28587338362625675,5.208758526432531,-0.6184158610837969,14.057314412407214,1.205878709524927,-0.03313528426776547,-0.43658910986237504,4.9304356421197335,-4.527803709281477,-0.27005981598453704,-16.37875085210523,-1.9145942442901385,0.2870948565219594,-7.698969418681765,5.630322317470172,0.5695166473818901,5.046752781426512,-0.765364754533045,2.184300924595918,-2.5471297681501786,-0.7585598626293336,-5.565301825774398,4.947668195789257,-22.12941565922309,13.454837564489923,-0.27252512379836297,-9.406235655174898,3.5102001109744636,15.895702750252035,14.326547832855017,-3.578089298556986,-14.565157912141844,-3.5120550622800843,-6.994822581346772,8.580684649877409,3.763011759874859,5.541641983286623,-0.35422039952218987,6.255562316093303,6.095416085910176,-23.79111160600512,0.7504438964697898,-4.113657077658223,-0.3404364467942773,0.316144817463508,0.5091247560751789,3.0918378746241375,1.33849611025894,-0.8829444508446368,-0.714097178464408,-0.8234034788436745,13.163902924544663,-0.9382344983173109,3.5914654661437777,0.41044195231857916,5.222724118779951,-0.01846182869008659,10.345349862844579],[-0.13831229823684382,-0.9362684421827532,16.502063271501672,0.5533642145003286,-12.407024403290844,12.55372407498468,-0.2775765497784394,-22.08602467992637,0.23080206711233012,-8.37149087159548,-17.282509992143883,0.6230602371679947,-7.055633143643117,10.775399919350127,-0.4675402061915369,-19.585289114601647,9.481873841994576,-7.863375759491424,0.11982170716544269,6.674250051758268,-1.2003847138696124,33.09738940028097,-6.31836723031656,-3.4954114960450267,-0.7398500559213229,-2.476679504219934,0.6545561299070033,-1.2385994518594152,9.066700148574718,-4.978494613660494,8.877824662000512,-0.1849825547603104,-10.154514451996091,-1.3393609785511424,-2.335908557139768,14.721258641652135,11.09855243357937,-12.169573672111751,-8.178937448273482,2.6637710709923943,1.069291865436024,-7.51944371816176,-2.0097449896240502,7.577786709177415,1.0881599791617667,-4.363967436611742,1.4519996002306712,-7.145381960911899,-2.0672681933656105,-8.314433974958005,-0.3064938029529323,1.1150584493741837,-7.9694429324014875,11.167213714543553,-12.473333919607603,0.9123311706504497,7.348771915900102,-2.8596113372864065,-0.11111505603426101,-8.66735170756378,-0.39803192933770976,-1.2199401418379299,-11.714521722089072,0.25628201885596286],[-1.6777179656494323,-0.10877286690368287,-14.870365108768855,-0.6487313472694914,8.131461687817866,0.7325278583400986,-0.433022642570062,-5.80227869563047,-0.11759811009581875,-3.882139378156172,-8.742446113993232,0.1985705320693119,-0.1016990262991164,10.42301260248545,-5.964083600023297,-0.7703424465187573,4.0306968956139615,-2.545585152501873,-0.3334620704169757,4.372176458079498,7.485613260644625,14.102590183044287,2.624688870222286,-2.1077334732486337,-13.331882781104456,2.923691952254991,-1.043998509748069,6.646087237085986,-7.880485060800238,-3.533033268227015,-2.6434552512481324,-0.5313821168947099,-5.353271000697758,-0.17151128712287933,7.455587988104765,1.1673394577991418,-9.845141991925232,-1.6506859873514985,-8.963311241609246,11.386820573080934,7.949124058443082,11.782525422007318,-6.325568631500435,-9.221108246291788,-2.26086491076998,-10.403097780261401,-13.318976550897418,-4.723680112745246,3.8424421242658493,0.6535791826755813,-1.250147683209319,-0.22530364162863448,47.2398810715172,-14.449335441563013,-1.5814728660881985,-0.037397920281521696,-3.056093006764405,-12.652055617832334,14.343052133006099,2.014139704614575,-0.7619971888121264,4.235030098253603,12.769001702691822,0.5048882168911047],[1.4128317719946721,-0.7159536632822883,-1.304074862315966,1.0874075777852903,-13.071161933014618,5.685333060901045,0.006519561370337356,-4.414468843076991,0.0014035451153478387,-9.475594988614162,-7.296321876617409,0.16131763140668104,4.845433463887506,-6.9615700036145345,6.06197023533111,-0.37056169360441543,18.687037142660127,-9.675587688703953,0.92789164874121,-8.174471141420128,13.767517571589991,-6.303055776534892,-24.430216652087157,10.492153991659844,-13.30825656531667,4.547501295030023,1.188900919714237,-5.80895893782507,-0.5878376371485281,-3.5908138317233944,11.13644675828411,-0.19701100172328975,-25.589927830704365,13.667427049354245,-13.99925686342152,9.607280048852761,20.741159460088184,-2.6528629005978948,17.07962634578618,8.73048251885288,-10.416134567133614,3.280996601602999,1.6893792008910988,3.0482064530639055,7.085190977740821,9.40628989949069,-0.8085518801941673,7.276573128118504,-1.7375272563145736,-6.560313440078368,1.41372600025901,0.18098834224780452,-4.819451414219931,8.379295125356782,-0.10562458869377622,0.4575864227798166,-2.4486355085215186,9.564447185160446,5.6000488759845615,0.5626723709130829,1.2512719123391929,0.2247021090912715,-1.6536352648756307,2.8126727240761893],[0.48440006211617087,-0.042219309961315774,10.759541397866494,1.189937419760475,-16.14694713606225,9.89849093901464,1.5538895424793093,1.0757430477014793,-0.3065153876348056,10.76587281549704,-14.572306662852123,0.1423562217971993,0.8719949301227343,-5.635488400610094,7.202696667793884,14.538074257719721,-5.981723404063694,-4.870537288870515,-0.25401439394753095,3.9167013218795645,-6.026666744888495,-6.1018212824035745,15.461569744874744,9.708401747858291,-10.546689862958084,-12.46038954210582,0.23406629885320482,4.0473556972133675,-13.521385534043155,-11.131991042468998,-8.939438759907132,1.3975351308901771,-8.641421062245657,4.017719451324426,-0.7111433106878011,-27.278151593038256,-4.569549463824918,-6.530785934490917,19.507750484070186,16.038642330673937,13.608046696900647,11.65776365648954,4.701138916185272,3.6051554310704588,7.099416500595558,14.789326281730956,1.7554258175415165,-2.7392447911481312,1.701707403688671,-7.4022556745906245,1.358340709048,2.015670648357095,14.755774288443895,-17.691169433575183,