{"biases":[[[8.779253607349549],[2.3083124474017085],[38.1758570461691],[2.0332821592347328],[8.633871816045655],[6.04789158213732],[-159.01588975656514],[3.9671460342371425],[-3.7878532614907265],[-75.10519334167755],[2.8737214155745527],[-30.098310494090015],[12.94523595454878],[-108.92994251809203],[-80.90930098467992],[27.594905845650043],[1.7031820243968248],[119.50909636809479],[-80.08637623693433],[-24.800816329688587],[-166.57640809645704],[40.21839417205421],[14.228868785398767],[31.432490809250588],[42.167444143703136],[-23.397159092800248],[147.06895344232333],[-28.153872607393037],[43.15574385399789],[69.73042959885875],[-10.35642602379427],[-1.183138710243323],[-31.860385898593123],[-68.79580034612464],[111.468111700726],[2.041809114628982],[57.34569662671265],[-13.364216779590386],[-51.91449157367602],[122.58125513877937],[67.27139979355384],[4.596190906813413],[-148.35086983737932],[-6.669056453411836],[-17.7807300183854],[-128.98046365011547],[-81.03583451485417],[-0.20103804798358524],[55.064291684904745],[3.135715173130024],[43.18062572956763],[-36.27944458431721],[-84.35995516107812],[22.249052841514665],[5.01953864076375],[3.103930128908557],[44.989960233256845],[-9.160310105744264],[-174.18773267954597],[-85.53176199370746],[-84.68896782755445],[4.749435354985191],[3.093773678905986],[151.28156830412814]],[[-1.4494202591222767],[0.2386879036702819],[-0.028592033809963908],[1.6452638182142834],[3.217566432688635],[0.9904828833657133],[0.7686893912305667],[0.9065527664617741],[0.8159913452620311],[-0.8547889458651536],[-0.9938671532880233],[-0.3006771061348175],[-2.639101479129021],[2.101722119977102],[-0.35375867908852265],[-1.5193139577767296],[-0.6166156800295911],[-0.08622589991537695],[1.3123836408109082],[1.0283494593943734],[0.08209988069492036],[-0.8062335307020212],[-4.957321808937099],[-0.9904904465380011],[-2.3830617039004656],[-2.521394439864833],[-0.40334391368875405],[0.8738243502702806],[1.7638292408349083],[0.6280602134429444],[2.5755471095225073],[-1.6848968405759492],[1.5989837109338356],[0.9798053824241117],[1.4232646965380746],[-0.3996096844892371],[-0.525928424404277],[-1.0338169575505323],[-0.3213948542567915],[-0.8031696031641775],[-0.893639047921478],[0.26675303778395304],[-0.8315319779124102],[1.1336184694726492],[-0.9238617919234008],[-0.12325842377957587],[-1.082479326747948],[1.7649172938654076],[0.09568324498882795],[-1.4324903283050703],[-0.10186002502501479],[1.0918901023283603],[-1.2508062297883258],[-1.1165515242109336],[1.5002049381483697],[-1.2051170672854559],[0.9905848549874471],[-3.5886579962853307],[-0.358563063184245],[-4.4761730333443595],[-0.35870674747689973],[1.8188439174935795],[-1.3037337823047925],[0.27937418465039016]],[[0.4623057173615129],[-1.0365394717004126]]],"weights":[[[104.49091010068346,37.62717668032737,-68.34420966924075,-94.57323482778173,23.960988115211197,8.657600909652862,84.7423953373162,-31.429253867726985,-70.20459910569734,-82.41197082682723,-20.350680366641598,53.26839718996344,-45.16262528284439,-47.08325017312461,31.371713401605774],[1.8797477626858157,1.405533083322719,-0.14638907873246573,1.0958239777429963,1.5255002731629828,1.4399290354521095,1.3871494603794912,0.09821301054937262,0.9013953283856952,2.1347964592784754,2.5638863777981755,0.5103461466033793,1.0617257847636095,0.5666307672115887,1.4971246911447196],[25.67834141504463,-38.00149143712726,125.48186293815621,-44.8637630583163,25.961294400875044,-26.72920428055593,76.29995048684971,-25.757102907548223,-78.4583052265187,78.84658872519603,6.366372840649252,-37.522740246413775,1.624508846282297,-41.19643649055366,-88.8227880904148],[1.1414060482385726,0.4828297104227429,1.8299768926370066,1.4409724604103256,2.18225655755065,0.8628526290866031,1.8497213061850015,1.5162438089398362,0.48585227806798986,1.4529772559060745,1.2070173574445136,1.3897787978229754,0.39059440480386376,1.5307538648494323,0.7381902180020905],[56.62522205831507,38.620747218669656,-124.10085186277402,21.006799379287923,-18.668758907007835,76.42547715497867,134.59622353804784,45.82847936132106,-47.709069238458596,208.60632395797705,-130.00820203830565,-70.9217292208527,10.448785303102028,-70.29019104327331,-41.019756699344825],[1.719153533215706,1.1434715724986901,0.4033512155401962,-0.3484072782819118,-0.35794864840519575,0.33972482472351345,0.8917948881647746,-0.9858975099504574,0.059969080789186384,0.5399487270580934,3.0654877374845246,2.824386008970938,1.6265143866643985,-1.539602564089648,-1.0993649994507124],[79.72590157285205,53.34377354493037,107.05713461508259,15.48224231013789,97.30350503881733,-90.41356843257569,-17.654583388578246,-130.59761041896058,218.8633277702208,-76.8978393407155,76.84046046514958,-179.45806607634697,148.0057993418627,-46.89647820260369,-67.61859813882741],[2.856083971574973,1.2665723773982482,6.645264137161139,3.4350217730757184,1.1293406757094218,-0.5167492347419502,0.6586188971478965,-1.8146404860305199,-0.8613859960759652,1.1503572355803808,2.7996006274232887,0.3134609263581856,0.22551741546230206,-0.6975225828423648,5.152917785366563],[0.043848574252481634,0.05865609975603249,0.11045375905216598,-0.4538912981724869,-1.682168854683537,-0.9681730439016292,-2.2091722103746805,1.0116350709747803,-2.52690808294244,-2.419451188194038,-1.9694351329190625,1.6232552161454583,-1.250758929170413,0.8340651024848579,-0.06491585200872003],[51.09070919302643,-38.15392245070596,27.23524588649921,-48.97007150966142,167.9187325321243,-122.99672156733598,101.6501935319937,80.73521084214913,51.5435322380293,-87.87251303046179,11.064584809758887,88.52306900235358,-76.82887278871091,-57.2982651507202,110.8781844398785],[1.8326967093123037,0.7587992097751336,0.5585182138506837,0.9311317946463921,0.9716674719764217,2.152808523966509,1.6074937014723814,1.2225031580828551,1.442200902413906,0.8069515267158197,1.8890685328915822,0.2890829533403137,0.6604920180713596,1.584497735796431,1.0265022777902506],[40.91307666369305,-2.7486024113109466,87.40076492342719,149.287045393384,-42.17400685822637,61.001384654531435,-74.00066145514528,-40.243753704671796,-48.42617970590556,51.33228511234638,20.598554681658463,77.52612908613139,-57.14674156126846,-38.298890677197,50.82245587575125],[24.71410915591137,-193.96617952196954,83.60472619488017,-59.054873997276275,-87.19242247266484,-108.4676841477063,-77.6899158698046,83.93645494519463,169.9896404062783,10.337199181828902,-124.59106248151058,126.321720928287,155.22988117554414,-3.7967011097417904,-5.5905710406004845],[-160.7688827578187,225.89856090642672,227.26914978765967,118.00640579422964,68.037171443616,-3.7326481443819572,-149.8371546275527,20.888032301019535,-251.72678345589324,-153.5416396698947,89.80669454162691,15.84007030713342,10.826039140459486,95.12440831721602,8.81375520716239],[-6.101358740102647,32.371366972733895,-4.895108522543203,14.782516249235135,-31.303645059535082,-53.64050723508681,-198.73793868593134,37.082044756356396,-23.4831284468616,34.71056849129555,-35.17523156184096,234.19889306206406,100.5718507334094,99.22896420766017,7.240897715027088],[-17.614927068241872,114.03266639492458,-33.28752050177415,24.63978945068619,-44.29741458012848,-38.59700788571627,70.23955362051338,28.85869225815273,22.540141529474983,-25.09145859303356,24.71962552028577,-221.62523280294616,-143.78723155185287,145.0487543912765,52.05707642893659],[1.1254747223230097,0.6880210904180564,0.6509540733869082,1.251823721873774,2.209595114681144,0.6936661250691952,1.724004560843717,2.102186262798012,0.5395234356310012,0.8061148421211505,1.3833683259945422,0.3863265759347472,1.4634215114192644,2.5719556438146682,0.9052340601183035],[-89.50282035489971,91.87011739476188,-20.70918687478201,58.967656804333515,5.070412417899406,107.23357723482631,168.29293325863745,-119.33428876729644,-3.9494311372715085,-17.231852107820277,-24.43560041462837,-142.05095861042537,-66.30128835738456,-109.72260867534969,-130.90442598968235],[107.33394187358768,-94.51043345162387,-24.849204316220096,-15.918640888501725,42.39444994513889,-44.72103836317942,136.54138889105394,39.20503527198902,-119.90943767333337,33.49346290236665,-31.687669957847582,-51.09530097943172,5.193535172933609,19.147151137474015,12.364257458439685],[-65.3546351336234,-118.97183236197328,-20.606109728396532,12.54672660416275,71.08759213648682,57.85647841676419,48.00485272231784,27.748308355870424,-33.39691722782385,-8.922022659327462,-63.47658029505265,-14.775957612267376,37.614794229425165,-26.599174430881646,-26.785972779411647],[9.359872969844986,44.259722482414986,13.335800573820995,-119.74276733980955,127.95702620956365,166.1620502985984,-89.40630662162471,34.605525587147284,-83.78759824969939,41.818639259716164,-44.75612888439409,-15.147661408572123,86.4166325918255,67.2616480575459,42.634635932062814],[-54.214869787010926,-21.27612262530948,50.080873923626676,70.33793609957993,39.2822208295387,58.61747186209718,37.912571819373234,16.639091591205016,-150.69891095189251,31.10046843511567,-72.57805602817523,48.82922438356245,48.24110801121635,-94.64042953257972,-8.5820847019222],[-14.03487567729961,-93.9558230654189,-174.655751980846,0.8330813861505798,-4.9042581059280215,109.38618677208352,70.83161501741135,139.37296748278618,34.54370766971166,-77.28183546133377,-42.60408361646911,33.027884725926356,-148.66621401995818,42.31655501035511,76.74134062496009],[76.84368205723018,46.68680842699319,-36.90652412007801,55.08353923933309,-156.34546020510192,2.404747332814894,76.09018578009002,25.536027994726318,-26.291460022643015,-58.273783476915675,-59.95928600251752,108.3790481154964,-38.5215581641032,43.9469091592511,-94.32637294778101],[-92.07571171257763,-26.568710922725366,-31.513129022105797,-94.77009371774483,41.99903834943978,-3.3228946988959076,203.51333324324597,-80.78347182685945,29.138999327482203,13.105112700919419,-3.2829594514900955,-49.9257999441525,-124.306043907676,34.1115228615572,14.320852319110665],[-126.888203476911,-29.64293110725382,42.05864650330289,-70.42537748857754,231.71198278153858,-313.50727584493876,-104.86971284798838,79.2994137472815,-133.2011872806797,55.693424774520054,136.87944030034603,18.33940222103849,280.59872190756056,-92.98983476247636,-6.860482454165137],[51.307195480018216,27.841212421970177,62.70653939388237,-17.526225454554783,100.95987087477269,92.44967166240154,5.136536048482426,-328.54091056965075,122.85536469135917,42.76117444171725,-153.12737308914956,-120.62355438738946,-186.45688474339244,-37.33924456103457,85.09826614871115],[79.42539275558238,89.08404882525768,6.742171180489263,68.86609904854915,12.61643363052049,-78.99216219464823,21.512428138837492,8.420712130031292,-53.85179346128751,23.457499134023212,-98.13246318524818,49.973132989033125,29.27698083259474,44.96721605831209,-7.89247251492408],[19.274888995363348,-31.437192126116994,17.28649276371009,-3.2818239893765164,-65.01808707163693,45.55093333313502,-52.17413858171981,18.24570085958445,41.061450768910724,-37.09244318969482,-45.87950756772952,-31.71509019397068,27.838334348821686,9.303284495582794,-4.900236776405482],[61.77131089520886,-42.30293053891278,75.86410632616341,102.83209795510237,-32.9745840790454,-43.641508851421506,3.976490375141347,81.28377571297945,-114.78610590425245,120.95709306305555,-38.75438759434664,-3.429369669755626,-114.46057321157605,-36.64144121680633,-214.84731375557683],[7.5239083839090055,19.569737971030374,57.89127899543188,-58.77860683044745,13.330568568957336,-17.066810762896942,-77.13678386369888,88.97683741920375,-3.4463559696341073,-21.301096178972696,-110.25618888843582,-38.11052711894914,168.71814730031767,35.019323126110436,81.75758426232929],[97.26710165880333,195.87393091744954,-142.90631046715455,96.93675044510528,-23.055979404703915,46.454671861325224,-53.29820143743717,123.75197604567977,-15.27752612632151,-84.66836747609231,38.31180141238714,1.9689973395917924,-2.9069279752143706,-65.53795848303152,-70.20930528077824],[38.17058989676084,-50.92915516695115,171.42497178557736,18.885900819258694,23.58417288344399,-8.935553017859462,-21.136047128136866,-58.38255066376958,-0.7725273959569937,-72.81790604972402,131.2524810805034,-35.807588065237304,-173.91802101582348,-56.50335813420927,-124.12356402827159],[104.69705923425892,74.26349469113944,-65.5500060743349,100.32369053859192,12.575806201075805,-3.035224398863646,139.72802191318235,-123.73095256534296,-63.21984749784266,9.164966656225594,-22.863106998101177,-61.655354893412344,109.72308334451527,-1.9737824323723487,199.6212467052581],[-196.64360244790302,-48.208957812407746,-0.4148408927398072,107.77942907454408,63.01865767601124,-41.266530843477234,-48.30513918260559,37.412943368339754,-29.34935706452329,-150.53462832054137,7.494291738272672,44.55458682655583,87.9537164011244,59.29229563163978,66.5489890032666],[101.69562449663425,21.180468028935465,-23.47802944277876,-58.91741815477169,-17.214785437136026,-41.59924288904462,-73.07084891210076,1.5446699983320435,-83.43341238815903,-96.15581110002367,72.49155116418964,85.91983236536682,43.37746122213332,28.171632021417608,-57.96170889943522],[103.83996399819962,-102.96344330999351,-19.644443998566036,-2.8863662554238743,70.60902807319212,-48.61247130455519,-69.2246541141251,-63.62622624385336,-63.57552277391775,-102.37142473527241,54.10643502078861,50.95930173596954,25.156354912464355,-106.06126575051279,-1.5831676607562326],[43.958891825855815,126.77471971784814,16.937137274477312,-75.08455074317499,-3.688829351376636,19.19702904980064,71.35885611122177,-34.237538486356975,11.360140210914937,-70.96812227894713,-11.662098649982179,-19.473976034522643,-23.301835736933853,2.8114564239922126,10.980702541526137],[-21.652218877440728,-25.297517985617077,19.16092603763582,168.73286864544917,119.94617768581955,24.203516881041544,10.745103713191925,9.54940752710918,12.377243475571515,39.02911493097337,-48.22841622859521,2.6830118662080737,-109.54746836843233,-176.9294404193654,-87.3863673519811],[94.49609980905741,-107.22140291257303,-209.22827768205585,-15.36482372650138,26.17449675505853,-56.67103456965028,-88.63298209398671,101.77821670512071,18.500699075621963,30.115438204904677,-16.374249723408496,-150.24890868905686,-24.16140827285287,60.481193272456714,-91.8164900161491],[131.4929059602754,-25.821410576732085,60.27668385353325,-123.16593517151328,-144.43382803616024,-13.810987872535138,-33.49284450566198,22.879327175908962,5.238172279460185,-112.90231668253897,161.2798610963843,28.11474168689598,25.6413396884785,-8.536328082743884,5.392889015261257],[15.709541738806491,-23.892917821080815,32.88310567610695,-0.06424821992949348,-63.38122300263586,90.06384260891603,-107.08474616773297,252.32034987860374,-103.48374001867218,1.763601995325992,23.877115833066032,117.32648458711832,-272.1065025924611,69.7148186705444,-29.795818367215094],[-24.908830955162408,2.287563974202229,0.49528272338893925,-27.853706316447767,63.5621612454403,156.5375432496354,-10.82791806281451,184.15828004116685,-109.73902239620242,57.123161361230686,11.186427272585687,-145.7762049878365,115.84121638913788,12.516901059093863,2.5536424864261624],[-15.158292608108543,94.0779255811267,115.64158572072749,32.43124104739397,-9.58374859287636,-125.49161603095817,-20.297928879526626,-30.818569218238522,33.66033636656841,32.35076207347351,-65.30481454643657,-7.205915546395912,73.9611151940388,75.1154892686864,-61.43084364173397],[-50.94630807208271,14.524768937163527,111.27981733738153,53.09725502860431,-74.47189482444904,23.27728294775554,-41.7410652273735,203.84499261718952,20.73725875354407,160.37628347346777,-113.73165055219027,-12.266877631784974,-77.33910473818105,-179.2356814401062,105.64333640010996],[-11.918098379416284,-20.414744471772856,-14.829194616387625,91.0176591452063,-252.62270028942604,-25.910678856366477,45.560193801473694,14.522296825699101,65.72276533880813,141.24579256730692,234.39046266252964,26.732502454654348,-73.3554518447644,-29.887446018283992,-28.717159497766527],[92.99516744128081,73.23368445393179,3.7496451193766434,120.11063552216652,-70.74632273280751,58.58953538145949,-98.58795330739555,13.973991435546036,-154.69713216513205,-2.521080699003093,-130.87071822951356,-17.643479228123738,200.60717893112303,-0.012410174548690292,-51.62433615526434],[1.190021858871154,0.920380777211679,2.495746790773234,0.9082917893724307,3.0788955450188773,0.970610701614385,1.7844317118502557,2.627444955855072,1.1339881315433562,1.6142617529185228,-0.3474324931094797,2.067976688829482,1.668404936766241,3.3215496435179293,1.5794628371696393],[-43.68974384756815,216.12399071151685,35.341345791197085,-35.58535509021629,69.09053978542623,-89.64928206866348,48.65302046381636,-65.87067303020811,1.5900941087018103,-22.905043679732984,-25.22956670896677,-136.87981125040486,-92.28250474526823,-175.58111165890716,220.4040629896451],[1.3753479136156384,1.2684713805515675,0.13477599020596526,1.293988469204092,0.4787043863690445,0.9326022835431828,1.2627959550064272,0.8361763612688934,2.3796392634156196,0.5748122617368047,1.0569820940809822,1.8942904312411977,1.041330680745873,0.8430648811357712,0.3812795286947187],[67.47386921665736,27.595457492731622,-1.1095232876663697,-4.601203872221581,-200.65650364869094,-1.0671029074773135,107.30315955629588,-69.52386752224359,-34.623736006713834,-236.41103349705898,-78.83999154029772,54.185155173161945,263.07288303979504,-50.409035336508715,-9.434660698338437],[42.712485059909625,-59.39215549377764,-78.53912335202142,-26.386578546011137,126.06036666724972,-203.89334531177943,-81.38300507876721,15.364206384051958,124.0798278670863,83.26684898655347,-267.834865585727,-168.0243377424241,271.9941450208624,321.769012576789,-32.37159286930212],[-149.10124078005748,-6.630619366632919,-44.762086663800744,89.8839796464263,180.9697750148487,-149.69003320194443,83.53848063917394,-5.543313216839095,57.02341266221035,-216.7906273000824,54.82128340879069,180.47899525512804,23.253300694064084,18.267437799112727,-17.14492373898753],[2.201108492071358,-54.33993763149099,0.6310823779436684,-6.569672445208236,-154.0983081184186,139.07877946224065,40.49066838688109,31.503797431680674,78.978969397747,96.68945783914221,-159.38346652836017,150.77602782508384,-204.7739461343702,-46.90965685769017,-7.047395952530988],[1.5344769524591135,0.05293372916470457,0.5609454921149405,1.6463579141577074,0.6315503406925563,0.46654618196630687,2.979549145233815,0.10225643318618699,2.2112619054101943,0.9442455453894596,2.1835528311632264,-0.43949043647945013,0.9205464860100657,0.6994192176147132,-2.4344977786219597],[2.1398176001220706,0.29155266360745813,1.0278825827205513,1.2758486828132285,0.520541182898554,0.5372980744508672,2.1079935534862164,0.5819951133358544,1.4905654846557592,1.143581391191196,3.386296491791564,0.8792084696462089,0.38084483933382185,0.0679754797772098,0.37553066316838696],[25.254581177393444,-34.86923369873616,-64.29003399290981,34.80891625656387,-31.60327571984974,-18.14959541057614,0.6045156876047901,3.8222113086033054,-21.806213591385468,-4.025855508870312,10.468263924524196,10.627672119861389,-26.48273484980239,24.77737893357113,24.148115454827284],[12.271228658950717,52.600851460961465,-189.1690855664311,35.390371367825,-40.32871753066467,14.390393089522693,43.529195567335066,35.89049737095026,-86.2389731833486,6.433388119324499,-48.51835282752762,-9.785658536842798,91.73474062225056,-59.336289052370596,73.0296192327175],[-5.875662341982745,6.612287225943254,-1.5407330977387772,61.473512755481046,41.96421727002579,60.72911887508828,151.12825934504835,-30.448397490558207,-21.188390940736692,41.990921628822946,61.91650534243456,28.91913667643321,50.46269956311531,-65.17359131664783,74.86456577421986],[-40.40780513801443,-61.81792440878672,-212.116737972865,-78.39769114227474,-62.58808879623752,70.11596213809136,209.0870891703057,149.35651311488118,247.86485103647348,0.2893052537902694,10.893228654358373,178.7589136362934,-68.78412058263923,-261.5953163753425,197.32814460626318],[175.72675088059563,46.768379447225335,-15.749414668358085,160.8395239044672,42.82098035053453,60.487589089055994,-25.364566741965138,-163.79047577009985,19.1215610480053,-75.2150172287695,-11.942911634102824,-16.155698419418528,-98.89576643161642,-55.6873752881488,22.892122681885795],[75.73671315439516,-82.73946286134738,-11.619759868789389,20.168131806618085,41.3619069720026,-114.93905039770031,70.72946334969592,-8.993585755437092,-30.475984744610564,34.25816485351681,145.26491280962205,-132.85987649733525,189.03987472628756,-81.19203178441346,13.895021314140314],[2.0672161079598794,1.2991555690276653,0.016940823748330214,0.3534010360814759,1.0155183562308883,0.5159499698070343,0.8362423995999377,1.7920397195885225,1.7296726635706876,1.2852076978749372,1.774100659114864,0.7973203827482563,1.790038787600863,1.5538901847005258,-0.11333252638400347],[-160.96742704016089,4.047717198261721,45.298651779648104,106.87862222938085,109.82175512560487,3.2384390313829816,112.49188184907668,-2.074782751891443,44.52141886313528,50.30278396437288,-270.86750601825884,73.81644945879007,-303.0158308217396,0.731993598922231,-111.06398467328985]],[[9.26403174428918,-3.0437616085203696,7.10747526534727,-0.07997100092820132,-22.933660950866578,-3.2562012092070804,5.146996433349858,-3.345321504896213,-0.5699246818476519,0.7041460280378711,-3.244400790471544,18.90445137356063,-7.026898761236371,-0.8925584670508421,2.1891501195709133,7.41946035047353,-0.6024394413136497,-0.623908769302882,-7.584384609276218,1.305943205697442,2.1201483600573843,8.86399325092313,-6.827001425878786,1.4825494155735108,-12.81901193552106,8.604283668295196,-3.462425111713136,0.34206044144869197,-1.6012383641547918,1.9932183942982395,4.166270666150661,-11.358604795777067,14.708513992338812,-0.49742998247043513,8.063800740137888,8.48766416794319,-13.089640334517057,3.864993620072278,-3.7735090496954946,9.591859349345189,1.3310238782893236,-6.62819411194209,-0.6784757054528193,8.38893271220345,2.899719330849722,4.167686480575515,2.5440618478393673,-2.6113671571548616,-26.2842101970141,-0.7116283991534443,-3.226159267255491,-3.462945121430636,-10.368623841095278,18.791254703954525,-3.004893786749462,-1.987223315830023,3.212780993579315,1.6066548265113643,-5.057869272132563,4.356393142838713,-4.272274290193116,-5.26458408356466,-1.9915031474036873,-2.588188520280451],[3.9514868489037065,0.46459987827521526,-1.4706553709464842,-0.5044187691448759,0.7629162473582243,-0.624246485626196,5.560772615853225,-0.8629138895435885,0.6907292537035528,-4.128325731822522,0.032680959253916675,3.6673620377238927,4.884592433209707,4.163661817578202,0.43211672440921983,3.127139457562678,-0.6629903847108484,1.7388248663959684,-0.3549876588428983,-1.6234020328228453,-1.5820175724704504,-6.132506479551424,-1.6657061471451464,-0.9948937880574734,1.2474143495291554,-3.152993074219795,2.4258628533193325,0.21766222033849328,-1.4369193296752116,1.011123724147079,-0.8322510789289999,-0.9908337723805931,-6.762806949837766,-4.973035631397774,6.988049856147841,-1.001736407653105,-1.2474543724144447,8.777057728394324,-2.217692349261257,4.835755207217578,0.9120056303126274,1.5333717203597497,-2.4208652376672015,-1.1771917409116677,-2.1539940416183043,-0.2686980267283918,-1.1468033234088713,-0.528299236238169,3.7283044019565996,0.6161063279331671,3.8884647572067905,2.883006193131275,2.0556770651579686,0.9419342930566837,-0.7176851386611705,-0.6240578057007253,0.2962731352860551,4.375256670894298,-2.001637584243499,-1.9703233662574768,-1.6301809225298136,-1.2155459340258967,-0.12084007248023318,-0.1925549434277789],[-19.244871551325677,-1.2091915751280657,3.79291332177902,-0.40005021336134944,3.1760546721131933,-0.6480850489052201,4.375794389739659,0.08219782578559882,0.31460958922485277,-6.038729343956347,0.22425275958896568,-5.377086922661577,-0.06880345797907551,2.586962687511633,-0.32116125108048443,2.2575923260828947,-0.40686453695868396,-0.0909909369031714,6.571993515226963,0.8337936178696896,-3.769067122655787,7.960795375836731,-13.496768715184178,-2.351921954786955,-8.965064735855867,-12.648471663346085,-13.224250887303654,0.3362808342110521,-2.191807638667155,5.042705327240524,-3.8765068186330693,18.484223860079766,-10.475550358665943,2.5264775176078684,-6.2558119509975825,-2.481692790421073,2.1489647308994466,8.117200748113826,-2.5529792510753486,-22.008611703308603,-4.35766105559167,4.273816205317509,-7.293767978573276,-8.648295905146671,1.2457161149335927,-4.894898370152302,-7.012236054900989,-0.26730002840383604,-6.490983042594144,-1.5460662799138876,-3.719668806105682,4.195449815328598,3.455534294118149,-7.7144822710034635,0.17965179875755455,-0.7825407339554802,1.3593254078931423,-11.654679254885771,13.30722355590807,1.0106661512164126,-7.092932872778202,-7.654453859754215,-0.8343894240309541,1.4623996003860786],[-2.61281617767291,1.8280555986329077,11.816777544667179,1.1034251919168472,12.47744369934775,1.8064694735786175,-1.4184769446803767,0.08107697099345022,0.21999544659455458,1.2833357741027194,0.6710564593322698,-11.901818673024573,8.41299506881925,-5.103013261763083,0.9884276988163847,0.17166284574744778,1.247363210715807,-11.084596728134107,-0.4095471682190516,-0.7696653339172148,-7.4529583354109095,1.839343663173315,4.769082923223163,2.2467842242659883,-12.122662712105395,-7.064525898583134,-4.175000538708641,-4.112643159814841,3.363167296702405,-7.714649824662357,-2.7278585351370026,-2.1228301965708547,1.4244950552882056,-6.247273690710884,4.05663237262668,3.6837404491910197,0.1423427719837338,2.3432705904139133,-4.043577231038165,7.345338903839022,3.8586950044242734,0.005922412827621325,-1.5825438132779606,-0.005225590117851333,-12.478866118027067,5.856400619013059,3.7894253106990603,0.6265416503646015,3.836126439204641,1.8438018556565123,-2.7803350151447916,-6.193785188335041,3.991298292738014,5.717643674105917,0.42112453313453,0.7032249060637581,1.4959282894600692,-8.988791374514015,8.286405990635311,16.925894693939977,11.853813322514794,0.9611994950030385,1.6512473105580818,9.345654594187785],[-11.325404726970334,1.8009442625378658,-3.432472231018444,0.9150564443926484,-8.166475489241225,2.889211339392924,10.722803502697465,0.18902589040835638,0.5593619441982105,-17.2331767423447,2.202641007092873,3.126097387126637,8.159352327222388,2.769081198639314,-19.12485126581455,8.781053587165959,0.9291020777944489,7.072259250654832,2.7136976030473905,2.4952257656280836,2.0455642424577722,2.7378362402806458,6.973912180534269,-1.6114075835740302,12.828544416116692,1.17621781120678,1.0086705663080435,3.3856801029370835,0.7449057404624563,6.978983292134495,8.724630869674721,0.9723576833226532,1.7140978726898464,-9.605957750640554,2.814687455593288,-11.202854195675108,12.51130758132765,-6.128635292651459,2.022936393043566,-8.914950544093449,-0.5922074979099705,-6.3020611498511805,-2.2768156975179403,-7.7204064770098375,1.2730491665899193,-6.72504217628252,0.514291244685334,1.6425938398368725,5.688384851633958,2.318609402882299,-3.3851388593150897,8.642809070235984,6.533161130352615,4.838670527836941,1.9301147887817236,1.7765101835593906,-1.9335910816267108,5.105430027610537,-2.503617058153552,-6.537111459324463,21.538079299214345,2.095089991492926,2.3145076034220504,3.3481877733204786],[8.0627407213163,0.4660811417148282,-1.8988351804167423,-0.6111328178344462,-6.227597035914198,0.24787300589311329,7.522500130585438,1.6900980484880208,-0.04513703397027471,-6.720861617244004,2.042475110978848,5.534132877391599,12.534534747532492,-8.740737404381616,2.1501704932506094,-9.04042208926413,0.16057765625545783,-10.081263492204542,8.831270106402375,-7.168858720646647,0.7981975878240521,-9.004191579976917,-6.220506283955981,2.6460455477874874,20.306056323556753,11.07624110548077,-5.07444644031032,-2.086094071379222,0.015192705000696131,-9.45501097362477,2.4843401971002455,10.872026989956485,-5.642463660788343,-2.6640763144116284,-1.1758316905001824,-5.370795518289291,-6.416590989895842,-2.740202987585832,7.692619021471772,-4.698052204574282,2.898484661036036,6.009950775010871,-5.165717309834876,-6.647557686798946,7.975971601701377,-11.879601958014002,7.2367711407520225,0.2531099231861593,13.683909158854862,-0.2692058226342341,4.309935147961516,11.250392961211615,-5.972401362720182,-4.252709302858624,1.6523469032227802,0.4721715418607395,2.2213180162839294,6.825709567265142,16.219360279647685,-20.45767328266392,-3.940017324364757,-6.69618233410571,0.6170964508039675,2.8048881184243375],[6.364701494435227,2.0015146192443485,-4.151412519998124,1.0317995305372805,-4.61876459851134,2.2562063085423243,6.354082595530329,2.1891574700152767,0.7701186483576687,-4.036413660835951,1.1832618930288652,-7.110466168455437,-11.235310175373504,-7.936275423940919,1.401830960920904,11.219873283120508,1.4823464942447697,-5.7650675355905125,-3.1292695641184736,-5.204041247511702,17.254198248844848,3.2381662818347015,-6.90088362599474,6.913390175283866,2.4795012151525553,8.87838142031304,9.73736447387727,2.290083569665705,-1.6344248187125257,-6.938145912296507,3.6201837662241876,2.1177306681223835,-6.318377652085032,-0.867616867140804,-1.5542367620369708,-5.567083420118851,-3.425747070924758,-0.3525280663015121,-2.432403153896405,-22.297744690724603,0.14958797644180968,15.754951574005352,5.578582403400285,-2.177915743464464,-10.89904546215865,-5.534026992653267,6.865981883034664,1.8222619624909835,8.72288953367272,0.429883429454919,2.6816439676941797,0.8616998365013501,6.024985451963542,-7.6180354248835656,-0.09892075452868784,0.7029091256310553,-0.8811218611019737,8.390152483271159,-3.82163884020378,14.564613843544262,10.902826185790449,1.0554838585737358,1.140504711004036,3.6428462066062304],[-4.458287526763662,0.08554017080863525,-11.07775713078684,-1.3895593468743057,-10.818454155720548,0.2509018347204329,-7.694705528579125,-1.0191532168028,-1.0179615915292597,-0.8240485832868668,-0.12516718180068295,11.088535680528553,9.613888920634903,-13.302836442317055,0.28288995988339716,3.300382560545841,-0.09918410318416962,0.3858334294181688,0.7995794869767094,9.221270952880076,-13.76567904896038,-5.621346216424269,2.1779195941205964,2.967482136022316,-6.26468328038912,9.061145867187367,-2.2626606714473527,0.0362230349095434,-3.4013501615685424,12.830880111517944,-11.065112863098213,-3.2950784217611235,15.843128268921932,1.5234955893682627,-7.746992899852587,14.87957698107548,11.41317383349991,-0.32446224135136853,-12.567854717397566,10.7285862712621,-3.439452918043665,-9.857749173497352,-6.5265238957515255,-5.410762310783905,-3.1760351967708473,11.596781853207053,-1.3192658176921515,0.5570553901254541,-0.19168959703802202,-0.7948918199436151,-4.485386461867094,0.28678666354822735,6.936543207281804,2.471141718091399,1.2472847386334345,0.09067120997984958,-4.449603852039377,3.2392466497573964,11.406304589445451,2.229743878508967,1.8494101440923942,-2.6860168563673077,-0.32005167136218143,-5.196626083573623],[-5.6015439633716335,-0.4840121553995186,-0.7448194288764269,1.3056370107741648,0.4960290225961682,0.7203868805584682,-5.578776979149295,-0.1939132653643311,-0.4548205926401011,-0.5046701781643245,0.5509801987341163,-17.39709236880664,1.7726214056085314,1.2995269623038723,8.429776810090623,1.7370831674746985,0.23458611088823997,0.024813542807937197,8.89301194038,-2.393143017529892,15.973385425737115,3.5449157459047465,-0.526084546380276,-1.594025495314699,5.286871397094636,-9.695076516136435,-2.8432605596053824,-4.579725313185943,2.6034331079878577,-1.863652032606678,-6.432212664845547,2.203432929205593,-1.097262901282724,-5.5902323025708744,-1.540942530134387,7.87609961752172,2.485861953983854,-2.358546793525991,-0.286149291377058,18.234261412002567,4.924118187914744,-2.429694937929202,18.90937705195711,7.071373265935953,15.165268001541216,-2.5664843334227414,12.11117245356018,0.46556175143256656,1.0000213551606083,-1.0376239911997727,-11.276986461958185,-0.9517156287239011,5.7927047725035745,-3.1998004759405183,-0.8447824254586632,-0.47304185458696263,-3.29566762384209,-10.235699763976651,7.205721830178781,-7.382504920353471,-9.917151297700801,-3.8552601620890727,0.7520663530983852,14.691613242821601],[1.7015695795136188,0.39499645793330856,2.092387328204632,0.5205689607808092,2.1773794118576286,0.5828945336530061,2.943442759747341,0.1715595906254835,0.7876614862927042,4.541792626350513,-0.8181149926973218,4.939560644721883,-0.9822156378623838,-2.3404018532952677,-0.5916281570636637,-5.41862560711398,-0.4557121530352174,-1.00076204690821,-0.3372811306500245,0.17590615988730232,-3.254152066364534,-2.114183550300311,-1.1443786477169322,-0.5456915977632867,-5.563313172098447,-0.9096405412419548,1.366212502826986,0.9386353418993195,8.599859618436028,-1.5818183261275216,2.981573580882152,-1.4381760291232986,0.9311429425073366,0.515191232233754,2.5986715432797265,-2.5328028009805674,0.26017953783419895,2.882563948731147,4.803898006473228,0.627971970923495,-3.9378156876989454,-0.8816977914957957,4.826459028630178,-0.44706066380847265,-1.5508482895949476,0.4636128667350771,-4.9241807968106,-0.8563878688585562,-10.098334300475901,-0.5182250495009039,0.6061611795511929,2.9678765999264534,0.21741831459321273,1.352905296786969,0.8720807600189011,0.7270056842227706,-2.2573565229158072,-3.5906398410424463,3.10788977148571,-7.551464534065581,0.5035209890259842,2.4129797335271475,-0.0933494093102993,1.6612849694153113],[-0.7707560305035716,-0.10003349828690215,-1.0446509577509429,0.07426397800097592,-0.7046294619691117,-0.23374979431758472,-0.1675686506225105,-0.0436140132230997,-1.130209600027502,-0.08679807113224279,0.3444125125515247,0.0784113290959142,0.2950445408048734,0.629432418931113,0.08150059391445254,-0.014398822988208269,-0.5913120480425594,-1.027114038276754,0.7373578674352649,-0.38381544408226403,-0.6182137283173839,-0.5322597421328952,-0.10372633482461537,-1.0696405866521632,-0.7698806398574047,0.31756670336962384,-0.22593964126633662,-1.036425216759083,0.7205119139037074,-0.13054584658722101,-0.13843713031260613,-0.5651354713370097,0.10890309070939856,-0.1339035387602179,0.1276022918232628,0.22806418725412966,-0.8079508520436827,0.33793827099722606,0.010856760010854137,0.12567738906498496,-0.31867942209442174,0.24439719007228417,0.6911374185007579,-1.2157670093315014,-0.34578005047283805,0.6046130243335087,-0.8118707989381693,0.3607811618464933,-0.17938254475303106,-0.7092046365086415,-0.24711781381926337,0.765958912481234,0.2522617418438591,-0.701446312582194,-0.5391725545645731,-0.47902730094073703,-0.31775527068282533,-0.7027611121830772,0.32885293161734364,-0.23123162981625583,0.588285718519997,0.07445880484163146,-0.8477518819459746,-0.87053885056879],[-18.46830943024522,-1.0771670293614566,3.0558181207726864,-0.2678719621412889,-0.22566385781368034,-0.18110906877067656,5.454742693259074,0.47061287255097434,0.3027896672378649,-11.305038564388937,0.6226628666231585,-0.3955496282888909,-7.50458319373715,3.35980712975815,8.097326701509584,-2.1887864181348764,-0.06170298020856093,1.1418530020955326,-5.2106082885806115,-8.754347045249103,6.620504087775845,7.368900240354892,2.4751148226248207,2.232989857368103,7.689809876068065,0.9989086897297861,3.81782860290877,-8.553606816991424,4.525774834202859,5.9165265109720035,-3.793287862991801,-3.571000353008588,6.0885044013659995,-7.680677266798072,-0.7696704428165948,0.8959830067650156,-7.64317813325021,-4.826006036061789,-2.4320504880932217,11.673339018246462,4.123799067853668,8.645351259100282,3.338239353060605,11.383300972511199,1.065216459364417,-0.7605956976259839,3.1065823799309924,-0.7528314808214188,-14.534301778939838,-0.0630399178534932,-3.1577389521805816,12.295525088211457,-3.808644300022544,-5.362379703796269,-0.34756925969338603,0.1490036074563338,1.8461262583950504,-4.769874402505491,-18.21128349481112,10.07660670984578,-9.099265756556841,-11.115386425227008,0.3595010593063481,-4.410139315118904],[11.837134520882602,-2.7732284782233156,1.1430611743060057,-0.8240017304624772,-6.623063297930074,-1.1667455838411533,-13.271285594723333,-2.9879807126474605,-0.9858565030079883,10.129864139159023,-2.0442690774548393,6.105367400120649,-5.088762367500823,4.611527926597043,9.74352294751341,6.10871443429052,-2.0716362786439415,-8.997219751074592,1.358848769558884,1.3522817784577954,4.364536620753634,-6.235006447826974,0.6384737441144607,2.9836907145740748,-8.059218303675474,-12.499937890610248,5.438320389018915,-1.154119046631016,2.100631558303301,20.590232596873857,3.906141770068231,-9.255288296221607,6.185705371968225,0.7087534443878348,0.926986817328467,-3.474408171956966,-2.9361526025227134,-2.9161544051077066,-2.531089873028957,1.2660765106471312,-3.741391384676748,5.752828148958483,0.5052756826386268,-0.5049837442296727,-2.3356466531064872,1.1088192740840839,-3.361780043221158,-1.3082616127609412,1.9040016912849425,-1.0500331404325585,3.9661341105949455,1.5103893810552418,-10.437650863430543,-15.1937839309081,-1.0838775120097175,-2.1980444929035348,3.5760806816505513,2.4644229874284154,-10.700192560079998,-5.718875444713657,1.123663611823249,0.0242114391033228,-1.2355158643949862,-16.81389709550152],[-6.018369180025161,0.4376695912225235,-0.472733527702705,1.9939112868086515,8.8083529103318,2.0157300463080565,12.862084943732908,2.2363398445146423,-0.08368416335567959,-5.191135661153202,2.421203353358538,-8.342980646326856,-6.091762805370204,1.738271170901853,-3.4392164204665905,-3.1791242007116023,0.5506342299274651,-11.055219807876385,-1.0883548474126894,9.33707106486765,10.630628777289129,4.21550643270441,4.70509181319449,-8.947799159190875,-14.105128266602355,3.631305000291743,2.8637475998099804,12.197967994344031,-0.7400871434457991,14.703586056942399,6.442612503434795,0.25352573660162636,1.7000731450186843,3.1498278798170847,-4.46043264289704,12.464927180004363,6.29032891443195,-1.6374165231849591,1.3273367802679177,2.161905133536639,8.009594391010546,-5.304275156424812,-3.8025047357160906,3.9770011586732146,-7.883287845444483,-10.293624565261768,-8.89019496456192,1.4988458079434155,-14.057601059990812,2.143596677127937,-0.7954502455084268,-13.187682480163657,-4.433769082373341,0.7466266464011987,2.005858800066414,0.7739925612774985,-0.6909756082349771,-1.8407027230065587,2.4251074826198717,-6.0243824756939,3.5557678093149576,-5.967122445050524,1.795888086157719,1.2773475349583905],[5.938711209599534,-1.3171860789216359,-7.948096968303767,0.09894158420260989,4.386549074195716,0.25234054234210235,-4.1706007205527085,-2.0947029830150297,0.7182181554198618,2.5960864670292194,-1.4524176939911135,-10.535817770755688,15.470783870538897,-7.9790770338076795,-1.5096423106740855,0.1360234296339209,0.23599745263292451,-2.536829941037425,-9.286060069552299,7.575374616692841,-1.892587650445985,10.991431447906155,-1.441956756817156,-3.188612671421453,5.6562150233550454,2.6896626667943977,-2.8272913548149097,6.289290603434298,-0.849688479573155,-8.398667460421363,19.46090549686212,-4.258320455612024,3.055499821452037,-8.053133018163807,0.8422757572294992,-4.740201111906946,1.1420680084274932,-9.641766308881184,-5.994307165569133,6.481594126032628,-4.797502906858483,-15.07392546177049,-4.882914009143226,-7.670997970296931,3.716357599604107,-4.242078221505392,-3.8793292967311985,-1.2175733501742025,5.752376874170617,0.09633294788077382,24.15977761300345,4.163421747756157,-0.8088063294854844,-1.2885065254845294,-0.11723687986542558,-0.6353130370809227,1.3219134421250678,2.5283856638176383,4.866298923648469,1.4189959163045147,2.165544293634998,9.867474110648882,-0.9426939567332128,-7.989156123606506],[1.4999369293637956,-0.41823277789045366,-1.256694421510448,-1.2753603942922815,-2.663564400240866,-1.957274125224001,14.619391295355847,-0.5264282912979737,-0.45713733051987704,-0.39412437016855095,-1.4569174772020346,7.987079920624339,-2.083344463118205,11.114429573969824,0.05834027531802191,6.435350242184873,-0.7154736816524006,3.1600281958032412,-5.989621365486162,1.2908607595840411,-17.417253031662533,-5.609795695900801,-9.318207421233804,0.3830215944790077,-4.13672793271721,-9.760293541452002,-6.566098860074822,3.1578529302247564,-4.411231818952444,-11.805893148873935,6.860047531493244,-22.56316956696839,-3.0304562629420664,-4.479238732187523,-1.053086417954159,-7.544258843903137,-2.1577453316079303,-4.868447170914235,-8.506418895760829,13.365360564648652,14.086944013968278,-3.2916214104820662,4.415097938352571,0.800108592492883,7.197776111337604,-10.926042959400263,5.655860508482292,-0.7032084088498074,-0.07423438462975859,-2.0537708563433337,2.774320181230975,4.055399886576015,1.9869127329405494,-1.4478810573827328,-1.5786922834581656,-0.18538341047534337,3.1789233309648215,-1.2005622241593639,16.45177120252381,-3.0338858308013577,-2.7190814475267895,8.59736419044689,-0.09441503657327677,-3.9868765302992046],[-5.312631767491871,-1.6730398044578285,1.0046939268871355,-0.678693189145774,-2.7861121373575344,-0.3819807882656774,0.06044014033663815,-0.6683969326038424,-0.506880907608551,-1.7451727699132384,-1.0607819687187041,9.95528361426622,8.874642512813633,14.11414363463454,-8.623705505205905,1.1718723764952261,-0.17176776759596432,-5.740274519758908,3.2693362270592887,-1.6773380080079603,5.0395413702560266,-11.295981289183013,-6.693676736651383,-1.056317709665421,3.679551640073778,1.7901010609016172,6.084306146467502,4.016976619751062,-3.3943393475933923,2.6268776951923205,-5.1440671475419775,3.1155685787365264,-0.5633819196774233,3.375995220363881,-9.970843630526835,4.485619868853295,-5.759657225738876,2.9897591381756476,2.2271824592279734,-16.1340591179119,6.435559389712773,8.947879295906764,-6.746277682062201,-0.06217236829922367,-3.3448386789808655,-8.376327611711924,12.86997160474972,0.3921321982287551,-10.237294647543347,-1.256496403145268,4.836513153913472,1.992374212171481,6.939975078415257,21.830662765019824,-0.27196483171916414,-1.1341091030009243,-0.33240067450749733,14.468399720791574,3.9948246226107376,-4.684623122108017,0.7654196487490753,-0.2011634903496962,-0.3689949870006374,-11.209277964585509],[-0.3810173953470743,-0.03615631252005685,-0.8380126417349744,-0.9985172509330451,-0.4763263101934969,-0.40820780672354684,-0.9322082034667467,0.07289958273947238,-0.42550801947882066,-0.7721761251079089,0.11711335538081633,0.5640654685998614,-0.7572194594631831,-0.8197735925398915,-0.749020709855415,0.0163234842699944,-0.41815581580093003,0.46988016055111026,0.21578388875481336,-0.520166205674395,-0.8193255403907986,-0.3594575157136103,0.3726992808074376,0.9253115251170438,0.6829004937975522,0.6326892133942029,-0.30732808361959985,0.04490769718819575,-0.5238106225010581,-0.9336121233447237,-0.5720983757005926,0.31634122813462917,0.03603783465078981,-0.4755422869433123,-0.8734676037497606,-0.8785160801219617,-0.9060475711487188,-0.35418998287610576,-0.5433325340612472,-0.03706923538867663,0.9149763830179166,0.4610423365778384,0.26412634588555595,-0.30857651977955075,0.822633235810464,0.838709682263406,-0.4505082449312838,-0.9544428333381302,-0.7391924956537129,-0.5423069874064745,0.09795260433904109,-0.6835055038626209,0.9221805232953144,0.594400203903808,-0.8486981370239068,-0.40878928908885587,-0.84222656415256,-0.3940093466180105,-0.2955097655444446,-0.34233600582263307,0.06451620996936087,-0.5423729390766869,0.16553235701077212,-0.29050706856030173],[-3.55547877882682,-0.12632137228222967,5.0487964624939785,1.4274116936485814,3.900422683089932,1.2138027041888415,4.938574955322452,1.1183322292650597,-0.14673612993063392,-11.120235517037859,0.40702097819984795,3.8364595635824768,-12.449926848034046,-1.3201148833181726,-2.5862214404962818,-2.6036689657829464,0.2478906728224477,-6.9038644353540475,-0.9429434310043315,4.339052672644152,-16.63397585705498,4.1655648288090905,8.898501941003165,-14.588360815544103,-7.033864836780518,11.811276599101966,-2.2850642462682393,6.497205963007749,1.4947487370203048,0.9614892301167431,-4.288693887164528,14.199552958736136,-6.003708091874082,9.70843540448679,-8.810616912785726,-0.5619365715925503,-2.8480918559007566,-1.1943677314135586,-10.578202219224279,7.557957966266682,18.314554365618918,-7.4390199383126765,10.174644827718511,-0.6658490304554532,-7.838601509563866,-0.516539127904754,-17.005561191377083,1.6457430114923979,15.786399075355035,0.13809857361781525,-6.921878708305908,5.743692106137147,3.7978876090986478,-2.536870011076545,1.2325603704060608,0.12156368393101961,1.088388223461713,0.9186276244540357,-4.462124482179242,-0.02517783100747637,7.9165069953232345,1.7457386491090472,0.8649511454209446,-3.142513685555064],[1.6198800851906268,1.6394072208388484,-1.6768792060336022,-0.14340177811476604,8.063600951556749,2.410626079431696,-14.35952064053665,2.2574266322439804,0.34172990766284894,-4.935918192258606,0.9200630412883621,-6.018842341161343,7.7475402198601895,12.451749312632174,4.191440043668165,2.2218041011801946,1.325504351951159,0.182240263781987,4.127285036530618,3.9430481759676663,-7.614304629140983,8.301889772712046,-4.054005793270446,-3.8892445865690366,-6.591019884124727,11.31563373724528,-2.2125478259410083,-2.1767404343050876,0.7088015838828211,-6.264410041673247,11.659164361872712,1.0089837468735647,-5.110092114136775,-8.02143696486642,0.18693202084446453,0.12103113705611979,8.835234567932481,-3.297797942764801,-4.2376272303292035,-8.655303324903766,-3.69103799918686,6.914339110998012,1.9326427312528767,-10.647362253179523,-1.7808885788493738,-11.189846513457582,4.3705761236080045,1.240960216261056,9.616035864716553,1.907747848139726,4.973268437244168,7.772351841364005,-8.993312098886218,-12.578811648632895,1.4032616191355627,1.7177270057026786,-0.06212519509515929,-6.936123229287809,-3.9689076016164484,-10.461962496765702,7.132293957833848,3.0576548150933607,2.070642481896798,4.8854394529078435],[-1.9402035586672464,1.418559988564282,1.965283074958387,1.470057369189866,1.466725664229718,-0.15250772202344273,-0.029303561485873864,-0.3854138472852449,0.8582510866576263,0.6848897655724614,1.0923808764293124,0.5050364181189814,0.20610458472563886,-1.1047481195620885,0.4302118715194178,-0.12221677858956033,1.2507811254605796,0.34890453909100155,1.8090285474479928,-0.5557990179254999,0.5083659669420195,-0.24311334136054602,-0.9200446672083834,-0.3535342102781357,-0.10940398589618307,-1.2476636129189222,-0.21534425247639535,0.9669815739363713,-0.4892449907747819,1.1019989839467077,-1.4810958224230386,0.2890707367542849,-0.5534596599295399,-0.10706706758173216,-0.035148162535133094,1.438345204377444,0.5351534821400069,0.8920428651906688,-0.08519710256990555,-0.10013685903497693,-1.1418837873472616,1.019571177054379,0.23399724120997129,-0.23777779902054016,-0.01734047790782697,2.5074545758626963,0.2619579666858971,-0.09372312679530016,-0.3443832850666174,0.3880293268842262,0.9782939631320998,1.0999600137916927,-1.8095944982312704,1.8425377180775202,-0.18406442742007517,-0.13372298371639607,0.7689509861414094,1.0702896623177423,-0.7877743968861625,0.45919801682923034,1.1962827885727698,0.28808418516870027,0.7536778155546865,0.08923101936152626],[6.487940380616045,-1.2317121004972444,-3.7488074158405795,-0.6867896364841284,2.378207552093711,0.4527143311302212,-3.2511160616228736,-0.515156656326094,0.3398814059883035,3.0840115021986225,-1.5054515649910072,17.15810526138819,-5.596411966564329,0.31893976606333724,-14.552135190172605,14.977666764411723,-0.04665566081092259,-3.2075774165214206,8.490016445588438,-5.217171907548716,-7.8753817423457235,-5.5594827328218965,7.210828987733186,1.908567122539641,-13.52207080430795,-4.736381246928326,5.707615889041721,2.6824295894582235,-2.0883051809959157,-0.9418775738378512,-3.5013277998075196,-11.642400413417208,7.487204909221948,3.102834444431167,-8.096412698759135,15.885668456986707,-10.5652041649799,1.9268541357711078,12.974038456524513,-7.619007304606147,3.7503584010910433,0.009792040467483365,3.6810734456511502,7.449030976936245,-7.560221046082935,-2.32287502346594,10.791199437199667,-1.7004744021560738,-8.774472693397282,0.36176454286230375,-1.9510276725814708,-0.3903605623191628,-18.769054088240583,12.31155590224749,-1.3482089787612832,-0.85304924871631,-0.869697896432501,-2.2489326361400988,-3.4009105010224085,4.874521617899185,4.975809944025076,1.5442993163376937,-1.3653707558991675,-2.2878512263071786],[-12.895928021999854,-3.6883075380494095,10.934484792988188,-1.7367038042827425,12.394369802898396,-3.928991619124398,0.95262999984938,-4.799682172385601,-0.752744580080998,-4.343380993823255,-3.200373488808736,9.102490812725291,0.9119397666856845,-10.13978812946134,-9.795052521423683,-3.7520155466518115,-3.300154796525294,-2.3819868245892546,-6.567734826351687,3.030498841460384,-5.575551627802988,-1.8807198141515944,3.95076033178672,-6.277371625484356,2.017415541546568,3.959461703702316,-9.612284093164908,0.13535878921052513,-0.7717946325939803,1.9202307886106915,11.48977318479138,14.88617611376239,3.234901725777692,-3.6715227092202514,-9.35762830288976,-9.463279963622172,1.8688561781764288,-1.1574006680330036,7.466555587095685,-15.072092525218766,4.255016479368227,-2.0408177558242886,1.861553653211718,2.630345536062316,11.150098084428718,2.328237530581104,4.268464678921511,-4.335769263284757,2.792852405102247,-3.780433038687125,-0.4580225345599488,2.6944694844421817,1.784114625683806,4.3562559913778545,-4.534441115492134,-3.332505774345205,-1.5941592279008625,1.8579038244100634,8.044122999428673,-2.1905197171505173,13.389560205115657,-1.8703423863696824,-4.453379219752941,-5.956078808845679],[2.009782751044302,-0.8682015494077329,4.430857363403311,-0.7236317498068676,1.5849364677423137,-1.8119249174327934,2.7594683313209987,-2.0990417958260057,-0.6731368338048749,12.6772825042029,-2.1720583915939438,3.935521825158282,-7.484457157528993,-1.6086075101941288,8.779323010834005,-3.7191787439103816,-1.2620476135097387,-9.951608183267385,-0.8788124316495066,-0.05401044668703888,12.201378832776053,-2.367025731689165,3.28017234057975,11.623908108590125,0.33819162208976167,10.45957345734218,-13.829021284592619,1.005108496616291,-2.3153689412772547,-13.103118199651403,-1.6252789230673055,10.543551239503152,-10.284265933607706,5.210296608989366,2.670597627276966,1.4063949046874933,-3.039922644643349,-3.3466936311737143,9.318527862615673,-20.960139490268816,2.843581791644345,-0.20699083980593969,4.315344576028191,4.077533264796994,4.320245056420397,-8.60658087350006,-7.417369505096428,-1.596357787577014,1.2729437180185437,-2.0598004541481023,-4.61574795785679,0.4630023749576915,-4.911922063324231,-10.907183027555918,-1.7094572117480786,-2.245753115387302,2.723825326970356,-2.8009362434386404,-10.227081304670648,0.642483894503588,6.362132865332612,-14.588790620300314,-0.22392973042502892,2.7424022639912087],[-13.239990748170529,-3.275114906007138,11.42862003659136,-1.3565989819372624,1.5668638182027996,-2.277049006046282,0.2622538206349497,-3.245843348547119,-0.9691680559349932,0.47903137674475854,-3.546814396847845,3.81552837047185,7.341293631644318,-7.222980213354733,7.190425378768003,-5.808455693476312,-2.1857349509581154,-6.85693903931358,4.766461097433275,-8.992556250663773,-2.409972265835638,-9.608138339369697,-17.28532413823097,7.857059754361481,15.445739685240493,4.428914332409227,0.7687585899294874,3.70944957539549,-3.3071410655480475,1.813590198261025,6.3742027917426505,-3.4283725095579305,-10.422452206543912,-4.64767645186344,4.365192281985901,6.1938902710001855,2.7771616456853305,-3.806343037567833,-3.2281750798577336,13.774547875483519,-0.11560565845971932,-2.164355298825555,-4.326010370929272,-6.227692293132423,-6.300359201812585,-2.5876078587620683,0.7978852771383396,-3.1287660822867265,-9.18518612343545,-1.9518231189759834,-6.44012320439489,12.739387689955812,7.545512659798129,-6.154797672291084,-1.6181268370867437,-1.6614088527609314,-0.6518998071336124,-19.487149255278492,11.552206573334026,5.111457355123262,-0.7640415218713767,-2.053562237117755,-2.3490568281000854,-1.7795219044324937],[-2.9727495148639638,-3.7727752446138827,5.682146010810069,-2.6415553331996615,1.2679178799197077,-3.6405339992762555,-8.200239544616819,-3.0478749035147543,0.6353695012830767,4.098285344255698,-3.4927806794918133,4.748022207496526,4.794505679100617,7.66697080051595,-0.9325808607699885,-7.208950735765031,-2.43973947061291,2.353528180936176,-2.0924926233370087,4.37215265613648,-4.575376148321335,9.622054841161562,2.8258338146802826,-4.15733617801263,0.8934461599261951,-8.488850947035054,1.9128706280527783,8.028445622417106,3.0282151939131103,-3.887738943801519,7.462215014955398,6.954385345587045,4.684787405412902,11.006052581014618,2.0072369687972618,5.1014976301659996,2.2343979767125703,-2.7731604430562182,1.9951776754775241,1.9786001907699402,-5.2218669945549525,-8.392022632095093,2.3624956546377245,-0.23048004095109342,-0.8782203008562216,5.8939287301428624,13.374094806682553,-2.8992676290932002,4.600543085623595,-3.2119734074853996,-8.96893820689525,8.102665471311958,-1.3805334684311685,-10.039970135836104,-3.165273635524922,-2.894388005663573,-0.0357753746125837,-5.688654989432895,2.6018998312906416,-5.913483259762906,-3.9440613934325426,9.33339099559283,-2.1420202921493345,5.088907397936805],[-11.866619042083899,-1.085309322063832,-3.798935346615475,-1.7136673633112551,-4.430883893709966,-2.0686889029975477,-5.320995603426173,-1.9952558881133156,-0.9433334379087113,6.35790203197636,-0.39429332283967167,-5.7038372547575,5.170892504502189,-5.616759817855571,0.9673239549156886,9.049403218636744,-1.9242614801906917,8.133179594486139,8.175919168581746,-6.660451344667826,1.5056911540414808,-4.467084413057337,-13.776833202355194,6.036976465587918,8.356616087690679,-4.561766241028999,-2.808775670260284,-6.595623163272077,3.761620898998557,13.963654357027753,-7.001421312634155,1.312902940122237,-5.336625109024362,4.86301382533011,13.22021595306346,-11.844654278931428,6.174217014474061,6.584309969394434,8.604245816559429,-6.959300638267433,-12.201221056714292,1.6212240979031716,13.105288433143889,1.492896224541323,1.2277991331594127,3.356566611099005,4.059115658032625,-1.4736698535685395,8.3611548047339,-1.5392394487785264,-14.603711460352363,4.023826767111439,-6.657686989270549,19.475768006824723,-0.8766575425116161,-1.6456601223956218,-3.7543412580175843,-7.5708975049814065,-2.3616198947150333,4.513413830773449,-2.601768976467082,-8.979356746867614,-1.1552079034910556,7.361020041290193],[-3.0127503905067172,0.14544192797278774,2.2630590607249803,0.9061328645182145,-7.275974366200421,0.44264874786834485,-1.0874600650808373,1.3142369704338714,-0.8971173027549603,-6.747283311240925,1.1434186518933467,-2.0590623541390447,-8.088224569408746,6.168788444337863,-5.93448566995204,4.664905411852216,0.9696655373320208,-9.338443834646517,7.599894945416886,-0.7218268143572663,5.073962102969948,6.777610981118134,0.4029718180717142,-6.8845269402092715,-1.9155984404309716,-17.064984118473042,-3.466502941273491,0.8002958088214379,-1.93877634272523,-1.7374730012046702,8.656528690532866,-4.549006963356378,6.971466907312602,-3.1973802899379242,1.0077128343381714,-6.7094638557275905,-3.687996597813372,-4.224263767290545,2.448927437252241,5.454436929966753,4.848356365450578,1.910969082790158,-0.05769094115813089,13.462060405366593,8.212676527781916,-0.7492088249964884,8.29374485602296,-0.26925978558014385,0.506454037370233,1.4289328618748562,0.6342194609684103,-0.8729548761323619,5.533911643285694,6.57434276711319,0.9293737403783138,0.607266984542939,1.8394981486259507,-1.467962649303335,-10.76450653871578,-4.1028989540622485,-14.8277104732047,0.30491673412674225,0.23729808681077647,-20.494487983389355],[6.412612373058425,0.7996620139810108,-3.734586320764442,0.2365695666566188,-4.770038594568879,1.5548939871208598,12.922634865110124,1.1388863669397724,-0.09846700972750687,6.757274055932922,0.6103265806328234,-3.6395066683508968,-14.07631985904077,9.513190078990926,7.826045607484565,-5.424989486953491,-0.1449776295131829,1.0532170272738253,-2.901374985160271,-9.974984580020406,-3.8655217644349387,2.479172071943763,-2.1685078493800622,-0.1819811986696869,14.852714079638632,-7.52251887078199,-6.285473781945118,-3.4112171720412268,-1.6435036263944511,-15.030094154112275,6.9093264842746605,-8.734477730295984,-4.892306647286041,5.821427532170893,1.9703208440290196,1.617125676819475,-5.162986600375134,0.5948790053340227,0.8352261004590662,0.9771017470860892,4.462848878063836,9.399092813239198,-5.117954107537105,-12.565424263102395,11.42348707950213,-1.882053887323871,-5.073889889349827,0.8665685675786536,-13.480310908433443,0.023696373102324992,19.280723222665426,4.346702165358819,7.538020745189166,2.3212000329832794,0.7666843829135422,0.5473275888169626,2.576293393869104,-12.150764513985639,3.6141444445378563,-0.4427651971909683,2.8229866930796548,5.28838736860203,1.2876490422151055,2.404468443553986],[1.0596779114926553,0.2661335688686873,7.1262397493419805,-0.7488667226717036,11.411933006129797,-0.784451759101491,4.0945545654135636,-1.1536557045698737,0.16196122158325815,-2.1202459091574855,-0.4784011956909705,-6.296065711546036,-5.452360622343473,9.749183809452893,-9.934703070443463,0.9574868696143417,-0.015106550169140602,-0.42135211526564786,-21.795152383330784,4.914094747002696,9.827943325581158,1.7328438824211623,11.24666843004706,-12.136571104868645,7.79786565244844,-4.216708775755468,-5.755866017142647,1.0908721501349428,4.52630774969204,-5.015692886766516,9.719827931443845,8.49094620457475,-3.0240697850227884,-2.294493770333767,0.8860772040588117,-13.628069412085287,-6.164018240003373,-8.039881018616914,1.421104528463114,0.28464490139205806,19.534532425232424,-1.0292929218694118,-4.641633384919805,-7.929547330734157,-10.943673192324875,4.263762627418112,-2.747265177856842,-1.1074015514012572,4.546954420127163,-0.920132465072912,4.634509189898365,10.192231975519157,2.5270286734011784,8.1685577241401,-1.193020966595845,0.4344474065913457,1.8196028756331055,0.42062736248300525,2.1852010372377286,-7.927586322793503,1.6455279087709573,7.84815748696475,0.5015210768200985,8.033781363354182],[-1.893951159925088,1.3076990338659396,9.930644491702953,1.680194345890098,2.329666509024666,1.547064585818678,-6.736453494173103,2.409253068022507,-0.18227195626209147,-6.352957731716984,1.6224887565991741,-5.965802565942255,-6.740199449387594,-10.571557880009031,-3.670767395535916,1.5255043084083433,1.7626222522981707,-2.245546694816813,2.9077310465574957,-1.3871239441644958,-2.941141685694515,8.033434562251266,-7.322713344788981,-2.840873679573922,-4.533082819406273,6.429983401277452,-0.7130542409102932,1.2048994364431032,0.15618528705325796,1.8797012678980913,-10.465187972109712,4.314510386236212,-2.685007991792877,-2.2836275497923326,6.388594645883511,13.110244234201623,4.461568341085466,7.491629727974167,1.4578252683596449,6.489725548209297,3.7546667960658224,12.30030554973358,4.052563422971864,-7.333427198257814,-6.329876173180477,-1.7349401861778726,-3.4524901492792317,1.9483730786680855,7.691466150879567,1.4707166942184822,0.8859901794956689,-5.187308626893595,-3.5742825060496277,-3.5027110171348395,3.2698314873769947,2.812961706430933,-1.868748028175418,-0.775564855762877,3.86923545039687,-6.089583436110784,-10.986614775867853,-0.8793820871741579,2.846073734454583,14.941409752149127],[-6.7446823443120305,-2.652474508886223,1.7012709357877065,-2.5384057553866537,0.6834748034633,-2.6632783614975546,18.323164096708947,-2.3338839392664745,0.6304072883727078,-1.6484770881450064,-1.5743407216460754,16.966866686090444,11.932336268262002,-1.0447165156920921,-7.2012379777792965,6.130983800694895,-2.596466314188014,2.580337545587731,-3.113672859169986,-5.041180674867424,-11.914931847580112,14.105036569284875,-9.824464420223341,-0.6793803158815375,-0.6576772058958128,-5.488687036887435,-14.721943857469817,-2.877486743954947,-3.041090858643735,-7.547510769737444,-7.0943268298424025,5.179001099199917,9.866567292561651,-4.364806305714471,-5.450063830940717,3.157233432118523,-12.5887271569375,2.189391848802874,-2.3496019803516495,6.093767153996166,3.318471905666375,-9.210572990008565,2.562657089221486,-0.4993153565930232,8.720475175527575,-6.127736787547766,7.678001515149417,-1.649998168483076,10.276777480368715,-3.6427299679342955,5.989223539226004,4.354073174076949,17.078405003781437,-1.7325274758197713,-2.0302792816768758,-1.5359975468371405,4.367733235492644,1.9727495137310835,12.151228639167787,-4.11582704199995,-9.53558588926957,-0.16138095167865465,-2.915459178399428,-0.27181267415932536],[-2.60855454623872,1.6457946851235383,13.439987510980778,1.8731868751892131,-1.231721164457367,0.5018103764910664,-8.101165071158492,0.8295651555655456,0.25552284528954095,2.3014718262289913,0.08458451500576993,-9.216722713201959,-14.659115621501963,-11.084604202429613,4.346872502575024,-5.289776804657748,0.6390540468477557,1.729019121804294,-7.298268221874142,3.514035394543853,2.257744438986237,6.633313688522667,-3.792298391438303,4.474534452570901,-4.281255508980427,2.9173026759446126,14.027714692589456,-3.9088322785199914,1.9757452434252565,10.63243137616453,-0.1945037562727548,-7.22395739750658,7.999686622343588,-1.943107151832219,-2.9612070020491976,-12.32424026662043,0.2652335582164525,-9.71791622450225,-6.812263135724231,1.4874283494233547,-1.5583863444204307,-2.767617911199745,-3.9171361463935304,-1.8383184558913812,1.558127685309679,6.405044879486397,3.824667647687867,1.2762203911220775,3.293087707799082,1.2219274311353494,-7.839033744204942,0.1325547693594004,2.6425806148491144,19.78460740835601,1.8390093306407018,1.7132326323393525,-2.7281023862024223,2.3449412258563567,-8.6321080611646,-10.831339918036171,2.3469277214569884,12.08377875139303,1.8970422617463063,6.336838527795597],[4.047671338713201,-0.8326166740972906,6.240991222884874,0.37074667346979406,-7.126738862580524,-0.7826371194617199,-8.56099202400125,-0.6453751546117797,-0.366734914354929,4.9170364334716865,-0.7564001670248398,-4.035157729447924,-2.021612741904346,-2.2121606293386464,1.5984367263683654,-6.4155070848951565,0.7999782633438935,-15.206793609705013,1.2974510763875313,-3.396782628167639,8.100249086421902,-7.697628472166232,-0.45439501274410005,-2.2546669944172333,9.629691006557966,10.78381027681869,0.25137444774143436,-7.21827427024947,-5.237876348521893,-5.902181396672027,8.522877543260881,-1.2669257947628139,-11.984582461968001,3.832699240733694,19.194962359997245,-13.75068076867912,1.0613352929263264,-4.945472866073869,-5.158526552326261,6.772002010442867,-0.14900345878179072,9.046968153894023,3.8101262298008285,6.1055581461258575,6.443683549113848,-10.739056750871312,-6.188464398854759,0.6372639863594052,-5.729437454694617,-1.0988700533149314,-0.654631052785941,-5.276596693542417,-5.867012464512237,-11.99017299089216,-0.0027304740324809087,-0.1939308341539457,0.7896950674166068,7.020584898747296,-9.139431867913833,13.273349932316425,7.667389411106346,-5.334999896909737,-0.8570721129810039,-8.427942350423255],[-4.930431446909566,0.24812595230875384,-1.405861975125408,0.5699028744924372,-3.0658166650697734,1.121509582317782,-19.704911830849028,1.7259239606567773,-1.0003343272911356,1.9729739064787253,0.11008062563879685,-6.114335834741867,-9.672688930823053,-6.976608698539117,-7.774438998794679,9.305615717539998,-0.5149833936528185,6.555780986464042,0.43253620505144164,3.627092571295649,3.749355959038026,13.185873564849128,0.6003973445740682,-1.2177523074820644,5.490565403209307,0.6817246137769076,-11.076904429680983,-0.06466060566606602,-1.3551268604670492,8.323399786775997,7.785438492965258,-8.424173739553991,11.849766491474481,7.735316287831164,-7.628008699627207,7.4448773834204545,0.813405515259108,1.9267543740917652,-8.21539160849524,3.824515328002497,10.898869257071148,4.617016872509041,3.405870402911512,8.708580457275971,-5.995974100170332,1.3948533813698656,-10.590983698279672,1.5947943471920563,6.859791235429984,0.18779710214435263,-10.208965294265624,2.1261947632833103,-4.064876181471213,-2.279189295590296,0.13730226306662038,0.08488347103387356,-1.86416618703683,-10.058309611752437,-7.068658867164314,-11.794844190546124,-19.802734214732954,-15.512274389538861,1.3428185508765824,-0.9083776412871417],[-4.004720163528141,-0.9505826155442934,4.722211657857724,-0.4894334084751868,-6.20169464222407,1.1089083639297006,0.4101092542425966,-0.7004816110346447,0.6292744527168722,4.090495588647282,-0.31218163199554055,-12.512192025709785,3.599101599051386,-4.911733691019624,2.3742645739476465,2.690039811173782,-1.6084064109064513,-11.111667204149173,-0.8758294360834066,-5.121570113949227,13.017149743718086,-7.6285979834085005,-6.318600950475908,4.258313982467685,3.161336195761563,22.376852678560507,2.6060871388601394,-1.8851032000863706,2.8584335176315543,10.77099266556461,-8.757943072539236,-1.470904284513105,-5.049423372607609,5.108600538320157,12.779330522407152,0.7087400746110121,-9.463013506559333,-0.7759382766221247,1.415152036890638,-4.200027034529388,-2.217515679508183,7.734324279715373,4.432815261005875,8.421912683398968,3.158783857344439,-8.128156863678866,16.88293047566645,-0.8537592092741296,-1.0994288582890175,-0.15725108333969431,9.731086764685791,-2.5258200509379773,8.053044185686863,-9.724479786035326,1.390333140493242,-0.6625025824379108,0.11500937433112159,15.696856663961565,-5.4308654533657625,4.188905736739305,-21.003997526110176,-8.703104190326043,0.5386916248718164,3.649490981681211],[4.258607160775802,-1.495765296271036,-1.6826327280959519,-0.7997781043841251,8.935939215119541,-0.7458390016052013,-6.451247568244029,-2.812794400112585,0.22678286699506933,5.279577241939691,-0.33918382176585743,-9.630389563348725,1.3209047445603268,-18.493153291947472,-4.77992666178273,3.0893094785344224,-1.7221173647884163,-3.9148163375088996,-13.505680073836407,6.49669849937871,7.071635732022375,0.6455643600817166,-1.7403451486791979,-3.6528732804373165,-4.473730082620428,2.364737932804428,14.902188491943553,3.3966106375494673,-0.16913321034532183,12.428035041256699,-2.652221493744529,5.980989498917682,6.688882494631304,7.132349441467744,7.287925970225345,4.422645104539325,-2.490922619568471,0.2212075133677804,1.0943311742681336,7.4165854681353505,-3.155576998567758,4.300272221837088,-8.680286772617295,-8.73268067397368,-4.335924056590213,5.837616980843539,8.111905426490061,-1.2692134484429618,-6.3770897550316,-0.5890376001946032,1.061663403003046,2.7108138052743893,-19.99164818040069,-3.7400549871707693,0.05046740743481065,-0.8850322735166083,1.5071210760728486,15.252681786170564,3.6405919802442495,-4.360683681822662,-11.113355650705087,-0.21428573200405437,-0.871228387760849,-13.194284909901754],[-8.133047396636677,-0.6818161095737747,8.97872649941513,-2.0241017326869537,8.06218639552394,-2.806610553229552,-5.23239985214447,-0.6777798864264887,-0.3165655899957055,3.020390857757817,-1.3650122573236938,-1.5079615254819159,-4.472958182066254,1.4255183811162078,-0.04775457464089434,2.9028583019627994,-0.34721287610817986,6.511072335632261,0.13728974085827791,4.270799117836891,1.1010030995325768,1.1548375985706794,7.739257123488511,-0.7361608050547448,-1.8384231554198365,0.6594754153595975,5.383625087629437,-1.3967973367048054,-2.0024809314476975,-1.35161103723329,1.3915854900157298,3.6458015083287347,-4.962397413212995,2.9115443453828167,-2.8032870083271098,-21.564702294248082,1.6611961827181776,0.520666448633683,-7.490513149688387,-17.145403779466285,8.094326331370457,1.9812181420242465,-9.460993582777453,-3.538279482321079,0.2953440246298179,1.307703145251943,1.3448889393222574,-2.12373737384743,0.37005176402531337,-2.1909451066390826,-5.2123882466108205,5.063991118151464,-18.725771644989816,1.4263563764607285,-2.0292118372481025,-1.7552424930854547,-1.0529848325020221,-2.4103289018204066,-2.1020343428641395,-13.344115775754817,3.956965043111549,-3.11729038070651,-2.647584523498043,-9.645167466567575],[-1.726225671696096,-0.6578569759270192,-12.045548306267266,-1.0749671409418873,0.46787954046410707,0.06976821699555258,-5.286165396188459,2.1288931867177445,-0.7000968518385033,-0.6446783923999921,0.3245071839717263,8.111625697663357,1.3879857450486375,-5.806563609909971,0.8594085761478264,-2.614340897527758,-0.7071540667114103,-3.567310925445516,-6.0230985680178035,10.768895663475874,-2.4966368892057433,8.857736619442752,2.0009114312667866,0.5881305379330437,-17.23376970648447,-0.8486069328793541,0.020162209946385533,6.617556389690539,6.4346333858849025,-10.042049398390498,2.0971017549519044,-3.439766912913666,0.5017989647492287,4.543323632925471,-0.3553154069552801,-4.391964985321138,11.659657868351157,4.149584855735339,-6.608414733961268,18.684989289659324,-4.136919515065222,5.90963582753054,-0.37279352946893024,-0.6899937472169381,-9.874250898874736,-4.409337593493549,-6.250580174100093,0.5274878075817065,-5.142533551545707,-0.10379907913403232,-14.3484121307514,-19.332036565806295,4.33672989355396,-16.705283735342906,0.672561516843851,0.5142389622206631,-3.8552648059214816,-8.160493680944626,-8.598845667585694,14.278258265140202,7.561560944056239,2.721899192182746,0.5463894124433821,6.021514075173044],[-5.087632850358939,-0.08332460661838281,-0.719970005285334,-0.9603721775729048,-2.431231705837103,-1.1683450838020033,-2.129780430008634,-1.2062840556896752,1.1360166636617808,-0.924664763826249,-0.1430224719177833,5.257158277904404,-4.923187512694223,17.89024718684803,7.045106408188702,5.540966468935077,-1.9534450428621561,-1.43785670881133,-4.975932179253092,-3.687672093218983,6.270264958313471,4.525124483552016,-5.914113535708808,-1.897436999352628,-7.8117402907920495,1.2867206490398948,7.3413000338923835,-12.730121923394199,3.0302143280602643,-5.999941723443211,4.044312153282541,-3.7192053928327553,-19.65904958464838,0.4121226341749083,-8.95003768962272,1.225066429450507,1.8288140957249588,5.133188292030714,-2.082550466952287,4.778795086233725,10.108604294781303,4.252935668874799,-1.3541856278543378,-2.488697476823686,-5.165041244111315,7.557125531579553,-3.2276963942287207,-0.1871007076554834,23.36764992098635,-1.0657123540703426,-9.060518344201343,4.162984746134562,-2.878806341719834,5.846093690520968,-0.9346004666272665,-0.34022137007119463,3.074000308577316,-8.48121907739685,0.6248496845377415,-2.233904144696495,5.8155189319536325,-3.1763099482621797,-0.43466962735866266,7.241019541319585],[-0.8646509645647951,-1.0739576687936034,-1.0256595013068686,-1.0053565569581175,-0.8937981091900431,0.46478525445886604,0.43663397962343353,-0.2832677978851306,0.8631467372491544,-0.4393742741969937,-0.232515801664502,-0.06233779072782199,-0.6042975420241813,-0.13213865209008346,-0.5698615587875226,-0.07918640406259092,-0.9225322198691108,-0.8570954597030599,-0.9285192515975009,0.8895838812045074,0.02522352036371715,-1.0539765675744501,0.6334977117178169,0.6794737373540972,-0.7470256865478111,0.41461507669741055,-0.8311730262935122,0.4721170673996536,0.01732394013582654,0.08180119028691946,0.5299184470543932,0.22546898834907433,-1.0228145532318629,0.2299319452182229,0.39565323473035074,0.23070288509746328,0.311953897345023,0.020082320041526998,-0.2766773457111797,-0.3588519859848857,-0.7313912723222042,0.17675612024040532,-1.0252773346650632,0.8268021670240493,-0.022785038398067836,-0.8368453077113562,-0.3826782071321573,-0.29396050017140757,0.0601855154878672,0.06470786238183505,0.7204621429621398,-0.7949915424434691,0.5856436193358986,-0.509537507587478,-0.9599111450624397,0.5272614855275928,0.614780174134333,-0.36920754093952685,0.2786757041780685,-0.49412761122704507,-0.2519577627660154,-1.0543554214965087,-0.8274174439533476,-0.6809114448388557],[14.961459439095785,-1.7059685212168705,-7.684193315304068,-1.6466299184451587,10.631093246669861,-0.6296951449550521,-7.073356103867429,-1.1035091302528828,-0.5924168486142447,-1.135193452796582,-0.25966222448117326,2.2327063222216474,5.967717627295984,2.900973447578616,0.5195575035212352,3.2367816307769255,-1.6520543407361643,1.3441117384481556,-0.9802433879410937,10.54348974525817,-12.725949196450754,-3.268753213975274,12.390630391292222,4.226540277489369,-5.447700468048335,-0.8899976724629622,-2.1045501431771276,2.1357231002128345,-1.1858384755358682,-1.7077231256003267,2.3822984646227408,5.2896254807070795,-2.843967578971557,6.737672389405786,11.427002893568705,4.236784300379296,4.705079518254839,4.886851112205251,3.4783536037883214,-15.691208997136338,7.181111541261108,-1.316394049047686,1.5183145687669048,-5.655421580653059,-4.346225292613982,0.8262240787158455,4.09578098320668,-1.3960774302548757,4.600167372110418,0.14328048467590906,6.568325366855204,-11.600532072383752,-10.625403352660088,-14.293328272589596,-0.4760985541325813,-1.6191623749254949,-0.7131904622586787,-4.757491518682738,-3.119961610101425,-0.16914568992746573,-18.438583591171724,3.387137217458869,-0.26662244986785283,6.1694005268167444],[-9.41278370748812,-1.9267417305878933,-6.222117701850814,-1.1650256341063172,4.3315931178167855,-1.8995761491534733,13.584495520657951,-0.2861233696820862,0.032470537618048155,3.4870526416978858,-1.4696433160171862,5.546064070097857,2.940457415184147,8.142694774733071,-0.16248912988736094,-5.517644368812414,-1.7642941557186789,3.9302321806745657,3.082766535887117,-2.77446763282599,0.7779727484253851,-5.730955425133299,9.590215532805795,6.812018197801718,-1.75515461803959,-1.0037763286440209,-7.073745395843755,-4.32111865905195,-3.2531815721940216,-13.707816827341262,-2.806190881169099,-9.649606794828332,-6.450002151908825,6.108804350410568,-13.14018467210564,8.26369456847414,-3.0129179316887353,-5.7523823246910855,1.5632120268019736,-2.4549105293999927,-1.8107894445492771,4.584970070138675,-3.9267245271261815,2.6298118391324556,7.773670010323719,-3.7477474434854954,10.460679866075813,-1.24417796711746,-12.852299050356816,0.1286371867603139,-7.992666645432312,1.4198435936433735,-2.7951958677079154,-10.509319899705634,-0.485671476127223,-1.1640149511367708,0.15020293241707455,5.952385583560741,-6.38974486790067,15.228976169238999,-1.8958624684087284,-4.445161678064697,-0.11725042223188462,15.323455844571424],[3.629889824015307,1.9313152833704397,-16.318763599263328,0.5853010092821184,1.0003023297899782,2.262098863258675,-4.734520128573453,1.2737496348345876,0.49794285982833897,-3.4636447032459188,2.1142333832652844,-7.899873025273922,-1.9803678786835937,-12.733518550300039,-2.874793995867023,-12.99025168546465,2.165657393218518,0.5708187301219116,-2.5796371991682134,-1.3080944833042758,-6.900078272884377,5.599326015851597,-1.4786750512818536,1.0419198598888628,3.5823529525427076,1.043363470576955,1.4089830134265409,4.262363441673954,-2.707268009993984,4.9111424579209855,-2.5903725032396796,-0.6739769068656412,-9.963310634970268,-19.244825261911068,-7.930244796851958,0.6332429775832761,-3.0319495787106283,-2.9535554510421753,5.475417117601157,-16.044110491233972,0.0484034805753504,-2.568494694301309,-3.7964870414769085,6.942867257841224,8.727118909576278,1.0420132154195076,1.4894383207117101,2.4353598870396063,5.377686424778312,0.40841144044094263,5.231595010441255,-1.924096732147967,6.052351401232601,8.604185791231979,2.277909544713334,0.9439520068973525,1.5755286415987773,9.685767776402791,-12.168295218291883,-9.06090666187035,5.940153346386232,12.382718026145925,1.1640282589327144,3.247554375771259],[-6.551858976083768,-1.0569299834354031,3.415889159560613,-0.5963913221721258,-6.50549192552474,-0.9666295848910148,-7.42087161185345,0.6702421126447637,0.673859223493702,8.55959703396835,-1.5363985539429919,-3.768420566887925,8.27261961748873,-3.153480347169292,-6.079142169697409,-2.316549528295159,-0.373658976901208,5.966823250403366,4.539605257196633,0.9076682742010944,-1.3564399664923037,7.4417153193575025,23.680623430502386,7.589493281475485,11.828907644629794,5.195082111372762,-3.125798570701795,-0.27102456408554354,2.060305635419084,4.502484615455919,-15.09422093511951,-1.1134251475018835,3.9555365508089833,-12.105184956744512,-2.300915356029805,1.4811785252762502,-7.600889782934273,1.321782775983227,-2.7077445064708283,5.168023305738501,1.476216431815852,2.3110457542770013,4.4414674740677444,-11.657842092617805,-9.097608971064357,-7.2669494228708,-1.878428048448125,-1.3781846035799603,-2.2172552576549918,0.36309040368598916,-5.181664798110094,0.1905100069302462,2.1333115437775256,-2.3660154802081146,-0.8620723196607547,-1.0724319717986797,0.6859924073656064,-4.8384815449226934,-1.2124503966055487,5.779513502302905,6.808883451755724,2.6973602103933385,-1.5523613714575737,3.9377555354135843],[0.6119774607024702,-0.43768180681827457,0.08912389046261145,-0.6193566884505297,0.2173798439530388,0.512644741868603,0.7229874235971144,-0.020885172457877344,0.734647061871956,0.23996533173036122,-0.40736141452525837,-0.8450836523206932,0.86878522334591,1.359870834118732,-0.07556973973752062,-0.9337513976058777,0.32051658517623705,1.2206058181577262,0.4003824278384722,-0.39944206218349143,-1.5640357719988576,1.1948896198830523,-0.3023762991549925,-0.1333168337499604,0.2749791130110493,1.240717081594052,-0.08706335818333556,0.7327263912514462,-0.20772429961303018,1.1826814736329232,1.4334416685064544,-0.17038440942626035,1.0984440900755499,0.4267740149880917,-2.509140967053258,-1.188029184618639,-0.7872993977765619,0.2209543579583346,1.0153498697473302,-0.57308327790188,-1.2655001505942216,1.3778860317935475,0.6686990261887955,-0.41763984652461755,0.3783885045975004,-0.5034080022042782,0.6159702368983504,1.3063299213380306,0.6366260309463997,0.6911622799508461,-0.9870186000907651,0.0644656418730292,1.259646826031784,-0.9375079804955658,0.7172616625448275,1.1649761968914174,1.3639999249167547,0.7846318546351537,0.056086374736218275,0.05370558792379335,0.17340651504586058,1.1025242303450669,-0.5041721383641488,0.932371439490458],[-8.408479509618969,-1.7977884762670941,9.307367333126082,-2.127678772835288,1.9898702529672323,-0.587902498196675,-0.9170303545944226,-3.144595410836496,-0.8376452897944123,-1.8946840593585186,-2.003676448474455,5.42550201173795,7.824015474857,-1.8186270378164082,14.534523149127486,6.715912175648994,-0.5383382911125464,10.158416511214211,2.7217495718628033,-1.800548171901224,-5.309165001334238,-6.916071403841937,-4.394232169096739,7.992804547357132,0.6625563827631504,2.8183151449190085,9.200754080400829,-4.061912297195783,-7.419438253436943,-2.9491947813426598,-1.7623143750208523,1.8575259743984736,3.1943614325355534,-18.010291506445398,15.666431477441144,4.632451348351563,-5.535095518076505,-2.4974920973731085,-1.880398106350282,-3.4279122561654853,-3.960719941492431,1.319544850140067,9.181171482419611,0.4138005156769326,-11.455615554916225,8.615015835122856,-5.185499414044415,-1.788436756779913,0.0770270073897928,-0.801715683307998,-4.825316981491816,8.919591564802975,-4.421568602984551,-11.785332543856912,-1.027080338074727,-1.2939110242443896,-0.10387116815385498,-7.644160247942343,1.988029869764499,-5.52714309040262,-7.94177801587964,-3.217925794172856,-2.17406856991365,-1.5624754727838406],[-1.0026314330111177,3.3780146412652625,5.865026739505365,2.0046002920104438,4.006272111280228,2.9472693186197265,-1.594137397772375,2.538620396971329,-0.6486448497767194,-4.773061435701741,1.730030125969846,-17.445732973420384,-10.160304749790534,7.186469124395646,-12.699405576477151,-11.742078806463338,1.6987077992629407,-5.657703899316057,-1.665093546025055,3.0683371034206792,-6.153592713905705,0.6978421352229301,19.225103324369822,3.3001069012464312,5.830716989317466,15.685644639034862,7.381725558473211,4.9001239315183795,2.913342090829077,3.153134627010661,-15.053796338735122,11.386422275241936,2.925903281973423,0.048027731570447395,3.322527027579423,11.501941067357196,1.3627721953504046,-1.3912643395600444,2.2256714239587785,11.848097974352518,-5.419140458877509,-4.250219753004098,-0.5312287264990564,2.6674659048218428,3.9436604052507196,4.091232955019758,7.323312330563424,2.258456516726923,6.942651341189324,1.8971002419317249,0.6813410386099693,-1.432976356941215,-6.0195087364734094,-4.226764663778308,1.8768595898960165,2.5415140652024664,-2.259678296954857,0.6921596106861274,-16.205589700609156,-3.365179027287988,-1.894765654048706,-2.6808412502963637,2.673511030087608,-0.5280079273794089],[-5.745071649862597,0.21314034089678272,5.47382475250273,-1.0921530833558508,-14.699866999389496,1.1240154433792768,3.7256157397190837,0.18241770632065013,0.6135682887448609,7.955285141626934,-0.07718420229117719,0.674345900085012,9.5880609257294,1.5914800740725106,-6.650158322817614,-1.6807246354064587,-0.5518301457773231,2.6500951554669614,-8.00664411016661,-9.060129827955903,-4.657898558952556,5.8079696039398305,3.702903145394653,8.325946441209659,-13.637198702498964,-8.127494065593163,-1.1353503994967127,-10.343735416124016,-0.8159873693016533,5.266483420801671,-1.665123888082509,-3.5857698923565353,-1.7135988739491381,-0.8341332158098012,0.9256614281117117,9.821589471615736,-8.076342235053753,4.344235822387803,2.0537825313678866,10.540533302467246,0.4994106046924789,6.1781729364316575,11.887050851391868,5.874099916396862,-1.735512004513186,-8.893637665991665,-3.7268045676058983,-0.6600770262742475,-1.2557783814942798,-0.1116637484505559,5.984506310145442,-3.221245603075509,-6.876127580237278,-13.907180406157625,-0.5035308824407904,0.7239319835498914,-0.6973223988656996,0.20156180720770606,15.215965968220939,-1.21020046578981,-2.185365414674453,0.17298155970985238,0.9239474783422571,-13.04031204948255],[-12.318125494392332,-1.3159285046477855,7.062509214215551,-0.35951738150350576,-6.3544613859659975,-0.16955147424899608,19.013762678311963,-1.3389748232101177,-0.47663021320579546,-1.9574556835970904,-1.9126784242355255,-1.2482022533331882,6.7666876306476205,10.971642879620875,-3.5083215198161133,7.832094849003379,-1.145779470331682,-0.9723793951875649,-2.2415455577707366,-2.9902741099536456,2.9830936669931494,20.08445387156504,-7.351761060579897,1.1154832629641245,2.0259806477793885,0.23529095973706873,1.089414216036711,-5.113639730166514,-1.0292100483463242,6.998238331641384,-3.9569797596241894,-9.648944319419947,-3.3009315875139893,-0.9913526224174545,-1.077471784757624,-6.200842428754366,-7.769498234307547,-0.6713235181544733,-7.085005060015886,-5.182530076228873,6.603726278786102,12.533097778752474,-2.7528893287651757,0.7143722814507057,2.3011199549227026,-3.0078195105868426,2.9079167657719642,0.1279906137542189,-10.450009646291104,-0.8733122916554824,-1.08311551203143,4.529658718131493,-4.571377809287387,13.172373534447017,-0.0353620708681934,-1.0267252744056388,-0.7248184149006588,-0.24719347570631872,7.496709186332998,5.995545814947909,-14.561420761335905,-6.757807396339409,-0.9783711126636998,-7.848664583983021],[18.191075217756346,-0.07682606068014113,-5.671238348916112,-0.45546028923798293,2.2173737967373475,0.15414544507844982,-15.124436745326557,0.4508677321144514,-0.5418667573521327,-1.6355864369957556,-0.8807402930557182,6.702005850680209,3.8126883592645884,-10.371449502965834,6.657731454642119,-5.473210141769146,-0.6247841514524116,1.4953925531628698,-1.157071530719442,-6.994079778738578,-18.99551267192685,-1.804206879280983,-12.01369316761937,5.655481110121935,3.672594159914822,-10.063572485070862,1.2352400963530012,-8.06007431269088,0.680684887969025,-2.7335106317115554,-11.179882031023316,5.164019050678847,6.890969008020078,-17.45844487535713,6.901799672139069,4.663009253752722,1.4155605723858256,5.224684539069402,5.949769317136197,13.403397569469897,2.917711319161268,-5.295559329122934,-1.0546865864758008,7.673486344231217,-2.1351563220852325,-7.019368009112255,-4.2538578312523,-0.2455180718571434,1.510850907103776,-1.043257814605092,-2.24104762532791,7.567509074202347,-3.203871564502007,3.720246614129877,-0.7088841383041595,0.7165277412348634,-2.707424948624047,8.447743196462534,-2.4794986508478747,1.580901223697333,2.7775499753630886,0.29892700898388797,-0.7444058227247516,-4.426146142803037],[-7.931565018056997,0.29824952687559897,3.7025846856448665,-0.6581887442996773,1.4139668081903283,1.2270381319977821,2.748016501351886,0.6219057003682986,0.643552472777113,-0.304279849332901,0.8864762110443882,1.1589490231406736,4.3625696304256865,-5.901997838067688,-3.067720548511572,-9.931039719635084,-1.7328066345108215,1.8548236567846643,12.442284646457287,-0.561316596044455,10.910427984286695,-16.351369522489914,-15.932304613707668,5.901878428622779,-5.801641304866671,20.04317995038404,-5.273252360981151,8.821466680734696,5.879586641702092,-7.596515800265525,-3.12203447580153,-8.866849460006742,-2.1168231557728125,-4.157474679486818,-7.167755705078901,-0.018973205848755847,13.60358588790637,-6.296320750496301,-0.6884855063500166,-6.510504322372368,-1.9790308251442825,-3.6343344171068006,1.0194964398439683,-0.8022624614441536,3.6851697843179614,10.349381141084882,-0.5335876111089659,0.7160138782135428,2.12208331533916,0.6351811445838027,-6.831304817729151,2.952189165446252,5.0305612429674085,-5.493595133792405,0.3284814756915116,-0.2957306173426436,-1.7819195194875452,-1.006361311222081,-0.39503056516098534,-9.56756046511215,8.189001149685126,10.717247200341035,0.22177661628543524,5.440408806029373],[5.2360995945997955,-2.018458491336721,-4.329288283393969,-0.7238834344416114,0.6925241236807358,-1.4364621504395623,-7.140386106714356,-0.28810621255545055,-0.46830756980216415,-4.4726679477952445,-1.3507862429498858,5.099041694274506,8.983644481518194,1.3445161311222544,-4.917193499127942,5.537401610569241,-1.5186758778092269,-10.52414182425302,2.2494971773951686,-3.0828047667413583,-20.923051174939122,0.09939474252742776,15.532859952961179,4.312357863823129,-9.502186806487263,-9.406661683599765,-2.9774353600600203,0.20638706769014795,2.9214582273319474,0.19161447844817642,-4.498968783526331,-2.8679097739463453,2.712799101448335,-0.8729769052621517,-2.2628046309262997,3.32762602548439,-9.414637248506153,1.4847547428331676,-3.512557570008997,4.752873295688301,5.064187074794204,-6.452293642001575,-9.442171159519102,2.2631848566467103,6.045076226367848,6.550309976345928,3.487186734269759,-1.7368066438348206,16.290501831511936,-1.0905362886324406,-1.3293715201974023,12.767136775114889,-5.204219307124446,1.8667057717275775,-1.4716502477564575,-1.1439231693177778,-1.5648039138234335,-14.64743127220972,-8.199483520910581,1.8055594776184452,-1.3281198255199265,-0.10165369771935413,-2.197969096120922,-3.951311788516467],[1.6537208040014086,-1.7401918785505408,-9.96254714619517,-2.598938697351761,2.519909553651979,-1.9076840289094201,-0.24812937438878666,-1.8092826786236993,0.4431017491148635,6.490274581791049,-1.6091195978007657,3.9066770363323005,0.06261038082705166,0.27302258276317887,-0.45696416655837385,10.032067477356112,-1.2216230434542286,4.991356411484811,8.535148840392125,-1.013320561199424,7.575949043748744,-15.851704887541306,-3.5959413786888628,1.4794062472498974,-22.317038140367945,-3.850486801769029,-17.108782040669983,-4.947973269831372,2.8420764476826044,-4.558995354803749,9.998424935230044,17.724026854947493,-11.175237240375521,-4.180126901104907,14.765532537388603,3.793052020440422,-3.7538861221826596,4.819744512070429,4.3347056092912375,-10.371729250100152,0.36504802817421245,7.02140819269988,0.7549038881306556,-1.631961582613938,5.256524933426335,2.091503697093413,4.510675514469669,-1.0493711913911108,-5.5139953493993055,-1.3757275578410049,-11.621497665865038,13.217717391976558,-6.8673928358472365,-0.053009840929590685,-2.180087215259114,-1.5158020156365026,0.03013236779699754,4.351600802314506,5.859498889238054,-5.5600521815112165,6.050384246137465,-7.0554747676857295,-1.9173549048728857,1.955626455696495],[-6.637669509157119,0.8595874768614934,8.484257180481588,0.7610022258544149,-0.6435275988493522,0.44332642810022993,-2.224019449359354,-1.0789004516368363,0.7518000782386451,-9.558245549171636,0.5144078816502007,-9.22071338007082,10.707227080364987,3.9768457373329507,1.4536289846564017,-3.0981584707247913,-0.18039512012932085,-0.34981695262925294,4.9812828995090905,-8.222869187502138,7.635820803142666,3.037493691313964,-6.176549339540144,4.206736658908039,5.397443141085151,0.44297274948284604,-1.2584367467775293,-2.429771232184735,2.748897925080125,2.638551991793249,2.3489909445867094,4.576586887329315,-0.42843810056586895,-7.231153313018947,-0.9400667066434738,-1.5058252751710206,0.13626083802113775,-5.465399476559827,1.0069043712996235,1.424327508717367,5.684614001282713,3.548903431886893,-3.3100533533386427,2.487424925887289,6.3738614368792925,-7.851295353867873,12.788916712019564,0.9231414487293423,11.50924140075994,1.697814231369066,-3.3134295305701555,11.515290746978728,-1.2576482481239344,6.421485378498201,0.7899075122688662,0.5689101295480712,2.749019317233762,-6.491252170595781,1.1295167172783869,-2.624748652260403,-11.599526943251462,0.04918110171034479,0.8735163375975148,5.905364628794685],[0.15494837638403589,0.15565448488639805,-13.586785270329894,-1.3329066503062328,1.4049630446920125,0.32776277213318106,-7.851354019096535,-1.2997279032119986,0.23497657145142456,-0.3629438533858363,-0.5905408083971166,5.846249189282406,12.741375292424996,-3.827537419021375,7.069575214930945,-3.7407329370593305,-1.324492714879776,2.754631186941849,8.256281197787134,-0.6937673941238456,-1.0120622926329859,-0.15225380969660887,-14.16092886534211,12.406439421837735,-21.35415985264317,-5.497990190508592,-12.564126400185682,0.21252562153517127,-7.1174246255235145,7.511951370456216,-14.571109076777917,1.3749109369403179,6.91961389036736,2.9547464756586566,14.943451808934482,8.176938663429008,15.117394242144998,3.0934266412321594,6.259895948698307,-3.4362316583523995,-5.989661145150938,-8.59950834655892,7.697458493938695,-0.05617801286680933,4.739028815354577,-3.7319752510237314,-1.2843229692654679,-0.7877884678939562,-19.23356579315273,-0.7893787027774006,-2.6641747167028726,2.4021741173832605,-10.655881521225506,10.162304508279622,-0.6891210427017507,-0.5931060617306206,0.4864664509112337,-5.33051713077149,7.355004638578187,-2.6599613210239155,3.0794178743395215,-4.346528648193886,-0.5573353890852303,-7.658598909212873],[0.4162243059025096,1.9152468772162543,19.01969881550592,1.714610817092797,-4.100884923823419,1.1186373845732274,1.4414615797854107,1.8313198218497848,0.6390397379224436,-3.182255634173233,1.0405381040912476,4.885005162909832,-2.1366732001237665,-17.98624908634817,-4.957586261403436,-2.1405235636360267,1.757251005878095,-5.298286448689317,-4.846691480036196,2.2525988796227625,-8.57546100345612,-4.464197892213929,13.116692695927716,-4.293728984011449,-2.323477270326475,6.285501328523723,9.678939733949315,6.109333469189739,0.9733745375262365,-1.7781075069764867,-8.00902481598782,1.0083546994395558,2.869545769305689,-8.05988722089003,-15.392334695370044,0.18499009186857931,-4.293199596833762,-0.08219406354239542,-6.95633856323489,13.365407278241328,4.2295988310553465,-7.209250963848378,1.4536498057110832,1.1947028339356318,-10.671505373092648,6.663558763282882,-6.584504659403078,1.1160798359576227,10.801203812605724,1.2278232310538213,-5.692559821016807,11.912232982931142,-5.8039705057979445,8.787016564685436,1.1719325440201613,1.7756796840931663,-1.0910034625732201,-5.695511018892383,-5.373512139951429,2.2108969677366725,2.8731180743595064,-0.1719951778491809,1.233651748530497,6.4503441985400425],[-18.310186683560353,-3.6135474730215527,12.572174988027582,-4.463170786962618,1.3127483463947562,-4.672290124766462,9.788632151642787,-4.499837648272642,0.5318465780212924,3.9527637342473407,-4.660143680199517,0.3249986781196462,9.320609046629162,8.363838121610572,-5.798029363029939,9.990165515364328,-4.811916818744845,6.866904908714452,-6.508146953405664,0.6302534479913098,-33.942409201323436,11.086149700382563,-0.6099730522999093,-9.701484154169815,4.2917461159577535,0.5023072963864963,-3.2257876868038324,3.0588287433628083,4.821991761599635,7.908035288551396,-6.268665419572508,6.15949769451381,-6.5388790638316525,2.5672328474224586,6.881912555346283,-2.4266466965134623,0.7495791663879114,-3.4493110776308216,2.395543062095787,7.551807516495811,1.921779258237175,5.523866559577852,3.8223057446493467,-7.714548315003747,-3.0629759679268997,-5.941447207853981,3.720055969927764,-3.755347675867085,1.9119134527236354,-3.8232533261224155,4.204566616280154,4.332960694385902,5.005350816629035,5.258849033303829,-4.101327288708922,-3.5988869139118536,-1.0287197893059634,4.695441654468454,-2.7602682717904874,-9.575123058581964,4.403171985381211,4.530610521591984,-3.359458085526859,3.1339976419939646],[-0.28774983933305615,0.45746835932754115,-7.770222243787494,-0.4349701333568566,3.4001125949611835,-0.521433647867083,1.152190249506595,-1.1661148644398356,-0.0946231070071067,-6.235785935414343,-0.7733724239408919,-7.270781845162954,2.0555987652156564,2.6090960071289158,3.0075548705414206,-9.279799300347507,-0.04844561366385167,9.95232117266378,-3.0016521529418276,1.5410442833636926,3.2305872911783258,5.2148144581512375,6.95163409521804,0.9425297406952323,3.07783265133992,7.3279905798629335,3.615279373419164,1.0538546054825348,-0.9740651823808582,8.327453374775002,0.8136283783911411,3.6271336301703987,3.5682163191131013,-1.4659127562396974,-10.207602712107374,-0.35379216028981664,-0.5117620994384243,-6.524967224880328,-3.6661043156269026,4.432621871427446,13.2861981020072,0.6975475520029104,4.849693651845938,0.43775438214410195,-4.595313330534267,1.3403920940284841,2.8328574233091834,-0.25946956185852804,19.554365004612663,-1.0260394045336945,-2.9364199529605495,-1.6504486743608369,2.849691614903729,-9.093395494789052,0.5041167795050447,-0.7727287139864198,-0.18733804662791778,4.303577957075421,-5.5096784251030195,0.7933227910327089,-0.6870217431514632,-0.9704979588238857,-0.5593764211050503,1.8320510813428754],[-4.940700557798221,-4.075720685462537,11.959869862634147,-2.2766815004722747,10.542045336980934,-4.046866117718855,0.966239260438323,-5.118140882704389,-0.7202214256746097,0.9435690601359243,-3.0152743335737737,6.604377908446,7.121332930826135,11.096762218300947,-0.4953968367783588,2.0554199925312924,-2.851786949634275,2.6113624503750246,-5.420221781963848,17.948291416398607,11.375469742755707,7.558470099205019,5.296185144776679,-10.250346464496193,-13.163165001913868,8.004124941297523,1.404443893016214,-13.007258264165387,-0.06852491463104629,6.000338579508341,-1.9006659883256267,4.196034070661619,-6.862437341651385,2.6744607116145755,-10.585965734818982,-2.372208006513817,-8.264457674076876,1.8962238025745288,1.2880994037463604,-21.433403254647605,-9.333082277489586,-3.027697952475167,2.830813968364746,-13.738879789138084,5.893317284837154,-0.35911616412438413,7.287282069443917,-4.098149340784616,1.690088874597178,-1.7852214977016185,-1.821601090064521,3.471162854310805,-0.21054799412054256,0.838979381942397,-4.16701964063251,-4.321351484014211,-1.0677378233437753,1.8974111830248979,2.9598384722718696,5.9345120642179845,-4.074801480976938,10.979864516062566,-3.4134716470899726,13.575822276034392],[-6.547748901649122,-0.12124532390314156,-6.8389952212930325,0.32959053508938146,-12.443815559768309,-1.2950881906165603,3.6498728952012605,-2.5360813430876297,-0.3316753419474606,0.3844155116069282,-0.1802359249851426,0.9844131076235088,4.838434157519907,8.551944463435271,2.967337718869062,9.98111159727346,1.0853627059934066,-1.3797893238420422,-5.695217093907653,-2.9872918266899906,1.378247831150228,-1.8620043914422315,11.43385148050063,16.26864959957435,1.1125307242246372,0.790565874679081,-0.6001089387909952,-10.108938131388578,-2.2775178377063736,10.374414152982773,10.040345679267569,-11.990293770676224,11.510717337530156,-12.251951182577441,7.288351802227189,2.5630898348167377,-9.650039831592643,-0.35905132742279655,5.176304075148025,16.511194756729967,-1.390905684470343,-12.956090656997299,-10.10290758633436,0.4670709406719786,10.192111890448965,-0.3385616033399649,-4.21458444801691,-1.9787178255879623,-0.9823258664870945,-0.01534234166022406,-3.781349803296779,7.833014410272929,8.995083841063416,2.8078399237644653,-1.2197722581319683,-1.0413423616985367,-2.0430304967874027,-2.659777676766133,5.374887125184349,13.694309239499946,-13.6848753638378,-12.550328685506793,-0.3149776601966232,11.523030522040758],[5.876355008592218,1.4634060358940462,12.43105705490344,1.663733155736998,-9.047381232276342,1.1911243942360152,5.082758678036058,3.706152269889556,0.8076490824252072,9.880251558552448,1.4872363641775983,1.5712527189069383,4.29312337576926,-7.090622267541077,-3.3672762661687923,8.449539666889345,2.3270080523497034,-8.789541365886313,-1.6239390116955799,1.3485471312027915,-5.52629172933269,1.2765900636545213,0.9636614436865554,-1.32695660966129,-0.2996809881704899,-6.201612465550868,2.2926550766273075,0.4389511195519451,-2.1729247874291135,0.041264278038211435,-1.7222980396155783,-4.974974256071326,8.78002869090777,-18.044138355048318,-3.579573878021501,16.385811289325414,-6.7412194222212225,6.235354826166127,4.453084346478254,5.904481323138278,-11.227993569175986,-4.950894293336174,3.489845054119341,-2.227162033880455,-7.795719418174664,6.602616140154839,5.244801272423127,1.920428592895885,-8.319804427208336,0.5324713348179989,8.863561525046663,3.837432481228678,-4.077008136902682,1.725933243304517,1.7789475806692499,2.266599410841216,0.7299986215517517,11.619020190422663,-18.70334506632732,2.9334172538450902,7.302594511371879,15.63349731779386,3.090899685158988,11.2433848515257],[-1.1489213157340623,0.11675007156104676,0.14061159813164464,0.3644903019786959,-0.009632008204891903,-0.1246248418364396,-0.9240533262946542,-0.9914459623929163,-0.8343845796602495,0.8849405308762072,-0.8690075765107501,-0.022015824222641363,-0.25878589601571383,-0.915596118937297,-0.2602289109536905,0.19461484830258935,0.1564620708561584,0.027653227437830524,-0.6850425344092592,0.7229594924851034,0.17452096695708838,-1.2334563513405294,0.3043111044329548,0.13976132005065964,-0.3031508580444101,0.09950479429947266,-0.06408145957998108,-0.5120136809335071,-0.33335992848508583,0.18266592144700622,-0.04977992970996933,-0.9684709666358776,0.6405129463917608,0.2914176851968276,0.8405019138239724,-0.7679250382417733,-0.7295447882143239,0.17366519786572643,-0.3030264167618844,-0.48385985523117,-0.10351392454731478,-0.22626631726179697,-0.39219056665480523,-0.8639118530786178,0.3448386968817502,-0.18766998371869684,-0.9224296318740707,-0.40649512022478945,0.0035868330220019265,-0.7313792419616664,0.23067809268801612,-0.09011145758911518,0.29040127800416565,0.30163201460554495,0.05747100507152786,0.23766432891943864,-0.0943460843944969,0.07908906164163655,-0.39661182962377867,-0.9494606969698425,0.42191813581778065,0.1892721033594234,-0.6056736192238975,0.3427508198001865],[0.01802309198567847,-0.6231985088201429,0.06068392824591195,-0.544408784307661,-0.5601883001974466,0.8022150256359685,1.177038085542377,0.7012488896906215,0.501768372394048,1.1381459548696187,0.8726616330862109,1.2130826757324698,0.8514137716250251,-0.6576723959874488,-0.09398841829590834,0.5027396973237117,0.5851526513181832,0.42412410475411777,-0.24335539059156563,-0.5107594068889795,1.1512719810413194,1.4313852785197032,-0.16403075630318745,-0.4441828204538888,-0.6634386167453296,0.6298299276813337,0.26397312573082704,0.11048089268997792,-0.7376425949166688,0.6303892245237366,-0.35048105337897906,-0.15129033427942376,-0.5150295964670036,-0.008476077456781726,1.164158996185854,-0.6563100577279981,0.014818327249453785,0.7548724309988231,-0.8315781752365928,0.5569128311253883,1.2305839961440628,-0.3583038251009676,0.5910778379108792,1.2245279271149632,0.09367164490270286,-0.6364009296002531,-0.08898596966710767,-0.24519118990052235,-0.1303736572670806,-0.09653954168107143,-0.46542249741506964,-0.6697746571096526,-0.404206759006539,-0.41978764326182444,0.11949108269495567,1.1679048062043378,0.4357501773308079,0.5977843270797204,-0.18282754033876228,0.46024881708407517,-0.6991282294112453,1.3965731666389316,0.2887908654704266,0.2956335858061278]],[[9.83399238406672,-4.949494941859486,8.394302748936054,-9.294367524582503,7.275921512728099,-5.552207221443724,-8.912941771682656,8.955449717092398,-7.729831163611428,5.672394154604032,0.39707844753273236,-6.6396371876254054,6.209120968131325,8.884516041974592,11.010788328905283,-6.834369096642803,-7.932413172153887,0.8449908990422019,5.64251851477792,11.419292270695069,-1.3728941895715248,